SVM-light Version V6.20
1 # kernel type
3 # kernel parameter -d 
1 # kernel parameter -g 
1 # kernel parameter -s 
1 # kernel parameter -r 
empty# kernel parameter -u 
72 # highest feature index 
2 # number of training documents 
1293 # number of support vectors plus 1 
0 # threshold b, each following line is a SV (starting with alpha*y)
7.0422535211267607696268393258077e-06 1:0 2:0 3:0 4:0.23563872 5:0 6:0.37607688 7:0 8:0 9:0 10:0 11:0 12:0 13:0.54655963 14:0.3023805 15:0 16:0 17:0 18:0 19:0 20:0.53436434 21:0.30989811 22:0 23:0 24:0.17690989 25:0 26:0 27:0 28:0 29:0 30:0 31:0.10527888 32:0 33:0.33924142 34:0 35:0.27060422 36:0.11822289 37:0 38:0 39:0 40:0.27366382 41:0 42:0.21055776 43:0.48957002 44:0.30543977 45:0 46:0 47:0 48:0.090796672 49:0 50:0.30947307 51:0.18689847 52:0 53:0 54:0.32840407 55:0.19458368 56:0 57:0 58:0 59:0.1714889 60:0.14269017 61:0 62:0 63:0.041630544 64:0.99913305 65:0 66:0 67:0 68:1 69:0.70929343 70:0.70491332 71:1 #
2.1126760563380281461847570723123e-05 1:0 2:0.20164765 3:0 4:0.17569688 5:0.27533832 6:0 7:0 8:0 9:0 10:0.34349141 11:0 12:0.40259498 13:0.27168372 14:0 15:0 16:0 17:0 18:0.21110336 19:0 20:0 21:0 22:0 23:0 24:0.39572251 25:0.3769255 26:0 27:0 28:0.2704587 29:0 30:0.28704503 31:0.10527888 32:0 33:0.33924142 34:0 35:0.27060422 36:0.11822289 37:0 38:0 39:0 40:0.27366382 41:0 42:0.21055776 43:0.48957002 44:0.30543977 45:0 46:0 47:0 48:0.090796672 49:0 50:0.30947307 51:0.18689847 52:0 53:0 54:0.32840407 55:0.19458368 56:0 57:0 58:0 59:0.1714889 60:0.14269017 61:0 62:0 63:0.016664352 64:0.99986112 65:0 66:0 67:0 68:1 69:0.68175906 70:0.7315768 71:1 #
-2.1126760563380281461847570723123e-05 1:0 2:0.22125614 3:0 4:0.19278187 5:0.30211258 6:0 7:0 8:0 9:0 10:0.37689295 11:0 12:0.44174385 13:0.29810262 14:0 15:0 16:0 17:0 18:0.23163134 19:0 20:0 21:0 22:0 23:0 24:0.28946874 25:0.41357821 26:0 27:0 28:0.29675844 29:0 30:0 31:0.10527888 32:0 33:0.33924142 34:0 35:0.27060422 36:0.11822289 37:0 38:0 39:0 40:0.27366382 41:0 42:0.21055776 43:0.48957002 44:0.30543977 45:0 46:0 47:0 48:0.090796672 49:0 50:0.30947307 51:0.18689847 52:0 53:0 54:0.32840407 55:0.19458368 56:0 57:0 58:0 59:0.1714889 60:0.14269017 61:0 62:0 63:0.022216737 64:0.99975318 65:0 66:0 67:0 68:1 69:0.69377899 70:0.72018796 71:1 #
-7.0422535211267607696268393258077e-06 1:0 2:0 3:0 4:0 5:0 6:0 7:0 8:0 9:0 10:0 11:0 12:0 13:0.49327648 14:0 15:0 16:0 17:0 18:0 19:0 20:0.72340518 21:0.41953003 22:0 23:0 24:0.2394949 25:0 26:0 27:0 28:0 29:0 30:0 31:0.10527888 32:0 33:0.33924142 34:0 35:0.27060422 36:0.11822289 37:0 38:0 39:0 40:0.27366382 41:0 42:0.21055776 43:0.48957002 44:0.30543977 45:0 46:0 47:0 48:0.090796672 49:0 50:0.30947307 51:0.18689847 52:0 53:0 54:0.32840407 55:0.19458368 56:0 57:0 58:0 59:0.1714889 60:0.14269017 61:0 62:0 63:0.083045483 64:0.99654573 65:0 66:0 67:0 68:1 69:0.71139491 70:0.70279253 71:1 #
7.0422535211267607696268393258077e-06 1:0 2:0 3:0 4:0.23563872 5:0 6:0.37607688 7:0 8:0 9:0 10:0 11:0 12:0 13:0.54655963 14:0.3023805 15:0 16:0 17:0 18:0 19:0 20:0.53436434 21:0.30989811 22:0 23:0 24:0.17690989 25:0 26:0 27:0 28:0 29:0 30:0 31:0.10527888 32:0 33:0.33924142 34:0 35:0.27060422 36:0.11822289 37:0 38:0 39:0 40:0.27366382 41:0 42:0.21055776 43:0.48957002 44:0.30543977 45:0 46:0 47:0 48:0.090796672 49:0 50:0.30947307 51:0.18689847 52:0 53:0 54:0.32840407 55:0.19458368 56:0 57:0 58:0 59:0.1714889 60:0.14269017 61:0 62:0 63:0.041630544 64:0.99913305 65:0 66:0 67:0 68:1 69:0.70929343 70:0.70491332 71:1 #
2.1126760563380281461847570723123e-05 1:0 2:0.20164765 3:0 4:0.17569688 5:0.27533832 6:0 7:0 8:0 9:0 10:0.34349141 11:0 12:0.40259498 13:0.27168372 14:0 15:0 16:0 17:0 18:0.21110336 19:0 20:0 21:0 22:0 23:0 24:0.39572251 25:0.3769255 26:0 27:0 28:0.2704587 29:0 30:0.28704503 31:0.10527888 32:0 33:0.33924142 34:0 35:0.27060422 36:0.11822289 37:0 38:0 39:0 40:0.27366382 41:0 42:0.21055776 43:0.48957002 44:0.30543977 45:0 46:0 47:0 48:0.090796672 49:0 50:0.30947307 51:0.18689847 52:0 53:0 54:0.32840407 55:0.19458368 56:0 57:0 58:0 59:0.1714889 60:0.14269017 61:0 62:0 63:0.016664352 64:0.99986112 65:0 66:0 67:0 68:1 69:0.68175906 70:0.7315768 71:1 #
-2.1126760563380281461847570723123e-05 1:0 2:0.22125614 3:0 4:0.19278187 5:0.30211258 6:0 7:0 8:0 9:0 10:0.37689295 11:0 12:0.44174385 13:0.29810262 14:0 15:0 16:0 17:0 18:0.23163134 19:0 20:0 21:0 22:0 23:0 24:0.28946874 25:0.41357821 26:0 27:0 28:0.29675844 29:0 30:0 31:0.10527888 32:0 33:0.33924142 34:0 35:0.27060422 36:0.11822289 37:0 38:0 39:0 40:0.27366382 41:0 42:0.21055776 43:0.48957002 44:0.30543977 45:0 46:0 47:0 48:0.090796672 49:0 50:0.30947307 51:0.18689847 52:0 53:0 54:0.32840407 55:0.19458368 56:0 57:0 58:0 59:0.1714889 60:0.14269017 61:0 62:0 63:0.022216737 64:0.99975318 65:0 66:0 67:0 68:1 69:0.69377899 70:0.72018796 71:1 #
-7.0422535211267607696268393258077e-06 1:0 2:0 3:0 4:0 5:0 6:0 7:0 8:0 9:0 10:0 11:0 12:0 13:0.49327648 14:0 15:0 16:0 17:0 18:0 19:0 20:0.72340518 21:0.41953003 22:0 23:0 24:0.2394949 25:0 26:0 27:0 28:0 29:0 30:0 31:0.10527888 32:0 33:0.33924142 34:0 35:0.27060422 36:0.11822289 37:0 38:0 39:0 40:0.27366382 41:0 42:0.21055776 43:0.48957002 44:0.30543977 45:0 46:0 47:0 48:0.090796672 49:0 50:0.30947307 51:0.18689847 52:0 53:0 54:0.32840407 55:0.19458368 56:0 57:0 58:0 59:0.1714889 60:0.14269017 61:0 62:0 63:0.083045483 64:0.99654573 65:0 66:0 67:0 68:1 69:0.71139491 70:0.70279253 71:1 #
2.1126760563380281461847570723123e-05 1:0 2:0 3:0 4:0.24948721 5:0.39097673 6:0 7:0 8:0 9:0 10:0.24387659 11:0 12:0 13:0.19289362 14:0 15:0 16:0 17:0 18:0 19:0.4535231 20:0 21:0 22:0 23:0 24:0.37461376 25:0 26:0 27:0 28:0 29:0.41958678 30:0.4076001 31:0.18807466 32:0.20296478 33:0.30301762 34:0 35:0.24170946 36:0.21119839 37:0 38:0 39:0 40:0.16296156 41:0.29215431 42:0 43:0.58305913 44:0.18188351 45:0 46:0 47:0.19836822 48:0.16220303 49:0.25022042 50:0 51:0 52:0 53:0 54:0.14666875 55:0 56:0 57:0 58:0 59:0.30635503 60:0 61:0 62:0 63:0.031158848 64:0.87244773 65:0.21811193 66:0.43622386 67:0.9950372 68:0.099503718 69:0.60335892 70:0.79746979 71:1 #
-3.5211267605633804695167143883339e-05 1:0 2:0.20311697 3:0.23230664 4:0.3539542 5:0.27734458 6:0.28245354 7:0 8:0 9:0 10:0.17299713 11:0.32438543 12:0 13:0.41049504 14:0.22710368 15:0 16:0 17:0.22795647 18:0 19:0.3217127 20:0.20066789 21:0.23274979 22:0 23:0 24:0.13286865 25:0 26:0 27:0 28:0 29:0 30:0 31:0.18807466 32:0.20296478 33:0.30301762 34:0 35:0.24170946 36:0.21119839 37:0 38:0 39:0 40:0.16296156 41:0.29215431 42:0 43:0.58305913 44:0.18188351 45:0 46:0 47:0.19836822 48:0.16220303 49:0.25022042 50:0 51:0 52:0 53:0 54:0.14666875 55:0 56:0 57:0 58:0 59:0.30635503 60:0 61:0 62:0 63:0.012985918 64:0.99991566 65:0 66:0 67:0.9950372 68:0.099503718 69:0.7578004 70:0.65248638 71:1 #
2.1126760563380281461847570723123e-05 1:0 2:0.16828902 3:0.19247361 4:0.29326254 5:0.45957801 6:0 7:0 8:0 9:0 10:0.2866675 11:0.26876387 12:0.16799678 13:0.45347801 14:0.18816279 15:0 16:0 17:0.37773868 18:0 19:0.26654944 20:0 21:0 22:0 23:0 24:0 25:0 26:0 27:0 28:0 29:0 30:0 31:0.18807466 32:0.20296478 33:0.30301762 34:0 35:0.24170946 36:0.21119839 37:0 38:0 39:0 40:0.16296156 41:0.29215431 42:0 43:0.58305913 44:0.18188351 45:0 46:0 47:0.19836822 48:0.16220303 49:0.25022042 50:0 51:0 52:0 53:0 54:0.14666875 55:0 56:0 57:0 58:0 59:0.30635503 60:0 61:0 62:0 63:0.011638928 64:0.64014101 65:0 66:0.76816922 67:0.9950372 68:0.099503718 69:0.77874595 70:0.62733942 71:1 #
-1.4084507042253521539253678651615e-05 1:0 2:0.18028836 3:0.20619735 4:0.31417274 5:0.49234685 6:0 7:0 8:0 9:0 10:0.30710745 11:0.28792727 12:0.17997529 13:0.3643589 14:0.20157917 15:0 16:0 17:0 18:0.18874247 19:0.28555495 20:0 21:0 22:0 23:0 24:0.11793534 25:0 26:0 27:0 28:0 29:0.26418737 30:0 31:0.18807466 32:0.20296478 33:0.30301762 34:0 35:0.24170946 36:0.21119839 37:0 38:0 39:0 40:0.16296156 41:0.29215431 42:0 43:0.58305913 44:0.18188351 45:0 46:0 47:0.19836822 48:0.16220303 49:0.25022042 50:0 51:0 52:0 53:0 54:0.14666875 55:0 56:0 57:0 58:0 59:0.30635503 60:0 61:0 62:0 63:0.010713125 64:0.70706618 65:0 66:0.70706618 67:0.9950372 68:0.099503718 69:0.77204645 70:0.63556606 71:1 #
2.1126760563380281461847570723123e-05 1:0 2:0.18028836 3:0.20619735 4:0.31417274 5:0.49234685 6:0 7:0 8:0 9:0 10:0.30710745 11:0.28792727 12:0.17997529 13:0.3643589 14:0.20157917 15:0 16:0 17:0 18:0.18874247 19:0.28555495 20:0 21:0 22:0 23:0 24:0.11793534 25:0 26:0 27:0 28:0 29:0.26418737 30:0 31:0.18807466 32:0.20296478 33:0.30301762 34:0 35:0.24170946 36:0.21119839 37:0 38:0 39:0 40:0.16296156 41:0.29215431 42:0 43:0.58305913 44:0.18188351 45:0 46:0 47:0.19836822 48:0.16220303 49:0.25022042 50:0 51:0 52:0 53:0 54:0.14666875 55:0 56:0 57:0 58:0 59:0.30635503 60:0 61:0 62:0 63:0.010639502 64:0.70220715 65:0.11703452 66:0.70220715 67:0.9950372 68:0.099503718 69:0.77215195 70:0.63543791 71:1 #
2.1126760563380281461847570723123e-05 1:0 2:0.19461018 3:0.22257735 4:0.33913016 5:0.53145814 6:0 7:0 8:0 9:0 10:0.3315036 11:0.31079978 12:0 13:0.26220202 14:0.2175923 15:0 16:0 17:0 18:0 19:0.30823898 20:0 21:0 22:0 23:0 24:0.12730394 25:0 26:0 27:0 28:0 29:0.28517401 30:0 31:0.18807466 32:0.20296478 33:0.30301762 34:0 35:0.24170946 36:0.21119839 37:0 38:0 39:0 40:0.16296156 41:0.29215431 42:0 43:0.58305913 44:0.18188351 45:0 46:0 47:0.19836822 48:0.16220303 49:0.25022042 50:0 51:0 52:0 53:0 54:0.14666875 55:0 56:0 57:0 58:0 59:0.30635503 60:0 61:0 62:0 63:0.011784295 64:0.70705765 65:0 66:0.70705765 67:0.9950372 68:0.099503718 69:0.77872491 70:0.62736553 71:1 #
-3.5211267605633804695167143883339e-05 1:0 2:0 3:0 4:0 5:0 6:0 7:0 8:0 9:0 10:0 11:0 12:0 13:0.29212055 14:0 15:0 16:0 17:0 18:0 19:0 20:0.42840376 21:0.4968951 22:0 23:0 24:0.28365991 25:0 26:0 27:0 28:0 29:0.63542747 30:0 31:0.18807466 32:0.20296478 33:0.30301762 34:0 35:0.24170946 36:0.21119839 37:0 38:0 39:0 40:0.16296156 41:0.29215431 42:0 43:0.58305913 44:0.18188351 45:0 46:0 47:0.19836822 48:0.16220303 49:0.25022042 50:0 51:0 52:0 53:0 54:0.14666875 55:0 56:0 57:0 58:0 59:0.30635503 60:0 61:0 62:0 63:0.11111111 64:0.8888889 65:0.44444445 66:0 67:0.9950372 68:0.099503718 69:0.70710677 70:0.70710677 71:1 #
2.1126760563380281461847570723123e-05 1:0 2:0 3:0 4:0.24948721 5:0.39097673 6:0 7:0 8:0 9:0 10:0.24387659 11:0 12:0 13:0.19289362 14:0 15:0 16:0 17:0 18:0 19:0.4535231 20:0 21:0 22:0 23:0 24:0.37461376 25:0 26:0 27:0 28:0 29:0.41958678 30:0.4076001 31:0.18807466 32:0.20296478 33:0.30301762 34:0 35:0.24170946 36:0.21119839 37:0 38:0 39:0 40:0.16296156 41:0.29215431 42:0 43:0.58305913 44:0.18188351 45:0 46:0 47:0.19836822 48:0.16220303 49:0.25022042 50:0 51:0 52:0 53:0 54:0.14666875 55:0 56:0 57:0 58:0 59:0.30635503 60:0 61:0 62:0 63:0.031158848 64:0.87244773 65:0.21811193 66:0.43622386 67:0.9950372 68:0.099503718 69:0.60335892 70:0.79746979 71:1 #
-3.5211267605633804695167143883339e-05 1:0 2:0.20311697 3:0.23230664 4:0.3539542 5:0.27734458 6:0.28245354 7:0 8:0 9:0 10:0.17299713 11:0.32438543 12:0 13:0.41049504 14:0.22710368 15:0 16:0 17:0.22795647 18:0 19:0.3217127 20:0.20066789 21:0.23274979 22:0 23:0 24:0.13286865 25:0 26:0 27:0 28:0 29:0 30:0 31:0.18807466 32:0.20296478 33:0.30301762 34:0 35:0.24170946 36:0.21119839 37:0 38:0 39:0 40:0.16296156 41:0.29215431 42:0 43:0.58305913 44:0.18188351 45:0 46:0 47:0.19836822 48:0.16220303 49:0.25022042 50:0 51:0 52:0 53:0 54:0.14666875 55:0 56:0 57:0 58:0 59:0.30635503 60:0 61:0 62:0 63:0.012985918 64:0.99991566 65:0 66:0 67:0.9950372 68:0.099503718 69:0.7578004 70:0.65248638 71:1 #
2.1126760563380281461847570723123e-05 1:0 2:0.16828902 3:0.19247361 4:0.29326254 5:0.45957801 6:0 7:0 8:0 9:0 10:0.2866675 11:0.26876387 12:0.16799678 13:0.45347801 14:0.18816279 15:0 16:0 17:0.37773868 18:0 19:0.26654944 20:0 21:0 22:0 23:0 24:0 25:0 26:0 27:0 28:0 29:0 30:0 31:0.18807466 32:0.20296478 33:0.30301762 34:0 35:0.24170946 36:0.21119839 37:0 38:0 39:0 40:0.16296156 41:0.29215431 42:0 43:0.58305913 44:0.18188351 45:0 46:0 47:0.19836822 48:0.16220303 49:0.25022042 50:0 51:0 52:0 53:0 54:0.14666875 55:0 56:0 57:0 58:0 59:0.30635503 60:0 61:0 62:0 63:0.011638928 64:0.64014101 65:0 66:0.76816922 67:0.9950372 68:0.099503718 69:0.77874595 70:0.62733942 71:1 #
-1.4084507042253521539253678651615e-05 1:0 2:0.18028836 3:0.20619735 4:0.31417274 5:0.49234685 6:0 7:0 8:0 9:0 10:0.30710745 11:0.28792727 12:0.17997529 13:0.3643589 14:0.20157917 15:0 16:0 17:0 18:0.18874247 19:0.28555495 20:0 21:0 22:0 23:0 24:0.11793534 25:0 26:0 27:0 28:0 29:0.26418737 30:0 31:0.18807466 32:0.20296478 33:0.30301762 34:0 35:0.24170946 36:0.21119839 37:0 38:0 39:0 40:0.16296156 41:0.29215431 42:0 43:0.58305913 44:0.18188351 45:0 46:0 47:0.19836822 48:0.16220303 49:0.25022042 50:0 51:0 52:0 53:0 54:0.14666875 55:0 56:0 57:0 58:0 59:0.30635503 60:0 61:0 62:0 63:0.010713125 64:0.70706618 65:0 66:0.70706618 67:0.9950372 68:0.099503718 69:0.77204645 70:0.63556606 71:1 #
2.1126760563380281461847570723123e-05 1:0 2:0.18028836 3:0.20619735 4:0.31417274 5:0.49234685 6:0 7:0 8:0 9:0 10:0.30710745 11:0.28792727 12:0.17997529 13:0.3643589 14:0.20157917 15:0 16:0 17:0 18:0.18874247 19:0.28555495 20:0 21:0 22:0 23:0 24:0.11793534 25:0 26:0 27:0 28:0 29:0.26418737 30:0 31:0.18807466 32:0.20296478 33:0.30301762 34:0 35:0.24170946 36:0.21119839 37:0 38:0 39:0 40:0.16296156 41:0.29215431 42:0 43:0.58305913 44:0.18188351 45:0 46:0 47:0.19836822 48:0.16220303 49:0.25022042 50:0 51:0 52:0 53:0 54:0.14666875 55:0 56:0 57:0 58:0 59:0.30635503 60:0 61:0 62:0 63:0.010639502 64:0.70220715 65:0.11703452 66:0.70220715 67:0.9950372 68:0.099503718 69:0.77215195 70:0.63543791 71:1 #
2.1126760563380281461847570723123e-05 1:0 2:0.19461018 3:0.22257735 4:0.33913016 5:0.53145814 6:0 7:0 8:0 9:0 10:0.3315036 11:0.31079978 12:0 13:0.26220202 14:0.2175923 15:0 16:0 17:0 18:0 19:0.30823898 20:0 21:0 22:0 23:0 24:0.12730394 25:0 26:0 27:0 28:0 29:0.28517401 30:0 31:0.18807466 32:0.20296478 33:0.30301762 34:0 35:0.24170946 36:0.21119839 37:0 38:0 39:0 40:0.16296156 41:0.29215431 42:0 43:0.58305913 44:0.18188351 45:0 46:0 47:0.19836822 48:0.16220303 49:0.25022042 50:0 51:0 52:0 53:0 54:0.14666875 55:0 56:0 57:0 58:0 59:0.30635503 60:0 61:0 62:0 63:0.011784295 64:0.70705765 65:0 66:0.70705765 67:0.9950372 68:0.099503718 69:0.77872491 70:0.62736553 71:1 #
-3.5211267605633804695167143883339e-05 1:0 2:0 3:0 4:0 5:0 6:0 7:0 8:0 9:0 10:0 11:0 12:0 13:0.29212055 14:0 15:0 16:0 17:0 18:0 19:0 20:0.42840376 21:0.4968951 22:0 23:0 24:0.28365991 25:0 26:0 27:0 28:0 29:0.63542747 30:0 31:0.18807466 32:0.20296478 33:0.30301762 34:0 35:0.24170946 36:0.21119839 37:0 38:0 39:0 40:0.16296156 41:0.29215431 42:0 43:0.58305913 44:0.18188351 45:0 46:0 47:0.19836822 48:0.16220303 49:0.25022042 50:0 51:0 52:0 53:0 54:0.14666875 55:0 56:0 57:0 58:0 59:0.30635503 60:0 61:0 62:0 63:0.11111111 64:0.8888889 65:0.44444445 66:0 67:0.9950372 68:0.099503718 69:0.70710677 70:0.70710677 71:1 #
2.1126760563380281461847570723123e-05 1:0 2:0 3:0 4:0.24314165 5:0.38103247 6:0 7:0 8:0 9:0 10:0.47534749 11:0 12:0.27856958 13:0.56396246 14:0 15:0 16:0 17:0.31318015 18:0 19:0 20:0.27568945 21:0 22:0 23:0 24:0 25:0 26:0 27:0 28:0 29:0 30:0 31:0.069832779 32:0.075361535 33:0.22502302 34:0.13146044 35:0.2692427 36:0 37:0 38:0.16556725 39:0.096081957 40:0.36304921 41:0 42:0.27933112 43:0.32473785 44:0 45:0.13251825 46:0.10712478 47:0 48:0.24090621 49:0 50:0.10263865 51:0.12397207 52:0 53:0 54:0.49012759 55:0 56:0.16415595 57:0.12159265 58:0.23108433 59:0.1137507 60:0.18929631 61:0 62:0 63:0.031234752 64:0.99951208 65:0 66:0 67:0 68:1 69:0.6669628 70:0.74509102 71:1 #
-1.4084507042253521539253678651615e-05 1:0 2:0 3:0 4:0 5:0 6:0 7:0.30229497 8:0.48883575 9:0 10:0 11:0 12:0 13:0 14:0 15:0 16:0 17:0 18:0 19:0 20:0.30491069 21:0.35365847 22:0 23:0 24:0.40378231 25:0 26:0 27:0.5371893 28:0 29:0 30:0 31:0.069832779 32:0.075361535 33:0.22502302 34:0.13146044 35:0.2692427 36:0 37:0 38:0.16556725 39:0.096081957 40:0.36304921 41:0 42:0.27933112 43:0.32473785 44:0 45:0.13251825 46:0.10712478 47:0 48:0.24090621 49:0 50:0.10263865 51:0.12397207 52:0 53:0 54:0.49012759 55:0 56:0.16415595 57:0.12159265 58:0.23108433 59:0.1137507 60:0.18929631 61:0 62:0.31559721 63:0.063119441 64:0.94679159 65:0 66:0 67:0 68:1 69:0.60853916 70:0.79352385 71:1 #
7.0422535211267607696268393258077e-06 1:0 2:0.087997034 3:0.10064297 4:0.23001711 5:0.24030982 6:0 7:0.086190224 8:0 9:0.14803328 10:0.29979247 11:0 12:0.26353267 13:0.41496029 14:0 15:0.16330424 16:0.15827189 17:0.19751666 18:0.18424682 19:0 20:0.17387202 21:0.20166992 22:0 23:0 24:0.40294185 25:0 26:0.24361341 27:0 28:0.11802548 29:0.12894735 30:0.2505272 31:0.069832779 32:0.075361535 33:0.22502302 34:0.13146044 35:0.2692427 36:0 37:0 38:0.16556725 39:0.096081957 40:0.36304921 41:0 42:0.27933112 43:0.32473785 44:0 45:0.13251825 46:0.10712478 47:0 48:0.24090621 49:0 50:0.10263865 51:0.12397207 52:0 53:0 54:0.49012759 55:0 56:0.16415595 57:0.12159265 58:0.23108433 59:0.1137507 60:0.18929631 61:0 62:0 63:0.002292529 64:0.86657596 65:0.061898284 66:0.49518627 67:0 68:1 69:0.73521322 70:0.67783594 71:1 #
-1.4084507042253521539253678651615e-05 1:0 2:0 3:0 4:0.24767068 5:0.38813004 6:0 7:0.13920785 8:0 9:0 10:0.3631514 11:0 12:0.28375855 13:0.28723377 14:0 15:0.26375651 16:0 17:0.1595069 18:0 19:0 20:0.28082478 21:0.32572183 22:0 23:0 24:0.27891466 25:0 26:0.19673286 27:0 28:0.19062573 29:0 30:0.20231619 31:0.069832779 32:0.075361535 33:0.22502302 34:0.13146044 35:0.2692427 36:0 37:0 38:0.16556725 39:0.096081957 40:0.36304921 41:0 42:0.27933112 43:0.32473785 44:0 45:0.13251825 46:0.10712478 47:0 48:0.24090621 49:0 50:0.10263865 51:0.12397207 52:0 53:0 54:0.49012759 55:0 56:0.16415595 57:0.12159265 58:0.23108433 59:0.1137507 60:0.18929631 61:0 62:0 63:0.0073619024 64:0.99385679 65:0.11042853 66:0 67:0 68:1 69:0.6772486 70:0.73575425 71:1 #
2.1126760563380281461847570723123e-05 1:0 2:0 3:0 4:0.24314165 5:0.38103247 6:0 7:0 8:0 9:0 10:0.47534749 11:0 12:0.27856958 13:0.56396246 14:0 15:0 16:0 17:0.31318015 18:0 19:0 20:0.27568945 21:0 22:0 23:0 24:0 25:0 26:0 27:0 28:0 29:0 30:0 31:0.069832779 32:0.075361535 33:0.22502302 34:0.13146044 35:0.2692427 36:0 37:0 38:0.16556725 39:0.096081957 40:0.36304921 41:0 42:0.27933112 43:0.32473785 44:0 45:0.13251825 46:0.10712478 47:0 48:0.24090621 49:0 50:0.10263865 51:0.12397207 52:0 53:0 54:0.49012759 55:0 56:0.16415595 57:0.12159265 58:0.23108433 59:0.1137507 60:0.18929631 61:0 62:0 63:0.031234752 64:0.99951208 65:0 66:0 67:0 68:1 69:0.6669628 70:0.74509102 71:1 #
-1.4084507042253521539253678651615e-05 1:0 2:0 3:0 4:0 5:0 6:0 7:0.30229497 8:0.48883575 9:0 10:0 11:0 12:0 13:0 14:0 15:0 16:0 17:0 18:0 19:0 20:0.30491069 21:0.35365847 22:0 23:0 24:0.40378231 25:0 26:0 27:0.5371893 28:0 29:0 30:0 31:0.069832779 32:0.075361535 33:0.22502302 34:0.13146044 35:0.2692427 36:0 37:0 38:0.16556725 39:0.096081957 40:0.36304921 41:0 42:0.27933112 43:0.32473785 44:0 45:0.13251825 46:0.10712478 47:0 48:0.24090621 49:0 50:0.10263865 51:0.12397207 52:0 53:0 54:0.49012759 55:0 56:0.16415595 57:0.12159265 58:0.23108433 59:0.1137507 60:0.18929631 61:0 62:0.31559721 63:0.063119441 64:0.94679159 65:0 66:0 67:0 68:1 69:0.60853916 70:0.79352385 71:1 #
7.0422535211267607696268393258077e-06 1:0 2:0.087997034 3:0.10064297 4:0.23001711 5:0.24030982 6:0 7:0.086190224 8:0 9:0.14803328 10:0.29979247 11:0 12:0.26353267 13:0.41496029 14:0 15:0.16330424 16:0.15827189 17:0.19751666 18:0.18424682 19:0 20:0.17387202 21:0.20166992 22:0 23:0 24:0.40294185 25:0 26:0.24361341 27:0 28:0.11802548 29:0.12894735 30:0.2505272 31:0.069832779 32:0.075361535 33:0.22502302 34:0.13146044 35:0.2692427 36:0 37:0 38:0.16556725 39:0.096081957 40:0.36304921 41:0 42:0.27933112 43:0.32473785 44:0 45:0.13251825 46:0.10712478 47:0 48:0.24090621 49:0 50:0.10263865 51:0.12397207 52:0 53:0 54:0.49012759 55:0 56:0.16415595 57:0.12159265 58:0.23108433 59:0.1137507 60:0.18929631 61:0 62:0 63:0.002292529 64:0.86657596 65:0.061898284 66:0.49518627 67:0 68:1 69:0.73521322 70:0.67783594 71:1 #
-1.4084507042253521539253678651615e-05 1:0 2:0 3:0 4:0.24767068 5:0.38813004 6:0 7:0.13920785 8:0 9:0 10:0.3631514 11:0 12:0.28375855 13:0.28723377 14:0 15:0.26375651 16:0 17:0.1595069 18:0 19:0 20:0.28082478 21:0.32572183 22:0 23:0 24:0.27891466 25:0 26:0.19673286 27:0 28:0.19062573 29:0 30:0.20231619 31:0.069832779 32:0.075361535 33:0.22502302 34:0.13146044 35:0.2692427 36:0 37:0 38:0.16556725 39:0.096081957 40:0.36304921 41:0 42:0.27933112 43:0.32473785 44:0 45:0.13251825 46:0.10712478 47:0 48:0.24090621 49:0 50:0.10263865 51:0.12397207 52:0 53:0 54:0.49012759 55:0 56:0.16415595 57:0.12159265 58:0.23108433 59:0.1137507 60:0.18929631 61:0 62:0 63:0.0073619024 64:0.99385679 65:0.11042853 66:0 67:0 68:1 69:0.6772486 70:0.73575425 71:1 #
4.2253521126760562923695141446245e-05 1:0 2:0 3:0 4:0 5:0 6:0 7:0.58050871 8:0.23468255 9:0 10:0.12619773 11:0 12:0 13:0.29944739 14:0 15:0.27497184 16:0 17:0.33257878 18:0 19:0.23468255 20:0.14638294 21:0.16978601 22:0.20556986 23:0 24:0.29077452 25:0 26:0 27:0 28:0.19873142 29:0 30:0.21091899 31:0 32:0 33:0.11298963 34:0 35:0 36:0 37:0.2379728 38:0.4988125 39:0 40:0.12153066 41:0 42:0 43:0.21741188 44:0 45:0.26616278 46:0 47:0.14793563 48:0 49:0.3732101 50:0.20614964 51:0.24899778 52:0.19117174 53:0 54:0.32814026 55:0 56:0.16485353 57:0.24421872 58:0 59:0.22846816 60:0 61:0 62:0 63:0.0066334354 64:0.99501532 65:0 66:0.099501528 67:0 68:1 69:0.72011608 70:0.69385362 71:1 #
4.2253521126760562923695141446245e-05 1:0 2:0 3:0 4:0.13126685 5:0 6:0 7:0.59024745 8:0.23861964 9:0 10:0.12831484 11:0 12:0 13:0.30447099 14:0 15:0.27958483 16:0 17:0.33815819 18:0 19:0.23861964 20:0.14883868 21:0.17263438 22:0.20901854 23:0 24:0.19710176 25:0 26:0.20853902 27:0 28:0.20206539 29:0 30:0 31:0 32:0 33:0.11298963 34:0 35:0 36:0 37:0.2379728 38:0.4988125 39:0 40:0.12153066 41:0 42:0 43:0.21741188 44:0 45:0.26616278 46:0 47:0.14793563 48:0 49:0.3732101 50:0.20614964 51:0.24899778 52:0.19117174 53:0 54:0.32814026 55:0 56:0.16485353 57:0.24421872 58:0 59:0.22846816 60:0 61:0 62:0 63:0.0066334354 64:0.99501532 65:0 66:0.099501528 67:0 68:1 69:0.7986654 70:0.60177541 71:1 #
7.0422535211267607696268393258077e-06 1:0 2:0 3:0 4:0 5:0 6:0 7:0.5574584 8:0.30048531 9:0 10:0.16158237 11:0 12:0 13:0.25560641 14:0 15:0.35207137 16:0 17:0.21291536 18:0 19:0.30048531 20:0 21:0 22:0 23:0 24:0.24820331 25:0 26:0 27:0.33020806 28:0 29:0.27800053 30:0 31:0 32:0 33:0.11298963 34:0 35:0 36:0 37:0.2379728 38:0.4988125 39:0 40:0.12153066 41:0 42:0 43:0.21741188 44:0 45:0.26616278 46:0 47:0.14793563 48:0 49:0.3732101 50:0.20614964 51:0.24899778 52:0.19117174 53:0 54:0.32814026 55:0 56:0.16485353 57:0.24421872 58:0 59:0.22846816 60:0 61:0 62:0 63:0.010599383 64:0.52996916 65:0 66:0.8479507 67:0 68:1 69:0.65855211 70:0.7525351 71:1 #
-6.3380281690140851161806290203771e-05 1:0 2:0.15614222 3:0 4:0.13604771 5:0 6:0 7:0.61174482 8:0 9:0 10:0.13298818 11:0 12:0 13:0.21037339 14:0 15:0.28976756 16:0 17:0.1752371 18:0 19:0.24731039 20:0.15425953 21:0.17892188 22:0.21663119 23:0 24:0.30642056 25:0 26:0.21613421 27:0 28:0 29:0.22880459 30:0.22226815 31:0 32:0 33:0.11298963 34:0 35:0 36:0 37:0.2379728 38:0.4988125 39:0 40:0.12153066 41:0 42:0 43:0.21741188 44:0 45:0.26616278 46:0 47:0.14793563 48:0 49:0.3732101 50:0.20614964 51:0.24899778 52:0.19117174 53:0 54:0.32814026 55:0 56:0.16485353 57:0.24421872 58:0 59:0.22846816 60:0 61:0 62:0 63:0.0055900826 64:0.98385453 65:0 66:0.17888264 67:0 68:1 69:0.7786082 70:0.62751037 71:1 #
-2.1126760563380281461847570723123e-05 1:0 2:0 3:0 4:0 5:0 6:0 7:0.55103421 8:0.44553375 9:0 10:0.1197902 11:0 12:0 13:0.094747789 14:0 15:0.26101053 16:0 17:0 18:0 19:0.22276688 20:0.13895056 21:0.16116536 22:0.19513233 23:0 24:0.36801448 25:0 26:0 27:0.24480203 28:0.18864112 29:0.20609763 30:0 31:0 32:0 33:0.11298963 34:0 35:0 36:0 37:0.2379728 38:0.4988125 39:0 40:0.12153066 41:0 42:0 43:0.21741188 44:0 45:0.26616278 46:0 47:0.14793563 48:0 49:0.3732101 50:0.20614964 51:0.24899778 52:0.19117174 53:0 54:0.32814026 55:0 56:0.16485353 57:0.24421872 58:0 59:0.22846816 60:0 61:0 62:0 63:0.0079362579 64:0.99996853 65:0 66:0 67:0 68:1 69:0.80036157 70:0.59951764 71:1 #
4.2253521126760562923695141446245e-05 1:0 2:0 3:0 4:0 5:0 6:0 7:0.5574584 8:0.30048531 9:0 10:0.16158237 11:0 12:0 13:0.25560641 14:0 15:0.35207137 16:0 17:0.21291536 18:0 19:0.30048531 20:0 21:0 22:0 23:0 24:0.24820331 25:0 26:0 27:0.33020806 28:0 29:0.27800053 30:0 31:0 32:0 33:0.11298963 34:0 35:0 36:0 37:0.2379728 38:0.4988125 39:0 40:0.12153066 41:0 42:0 43:0.21741188 44:0 45:0.26616278 46:0 47:0.14793563 48:0 49:0.3732101 50:0.20614964 51:0.24899778 52:0.19117174 53:0 54:0.32814026 55:0 56:0.16485353 57:0.24421872 58:0 59:0.22846816 60:0 61:0 62:0 63:0.019996 64:0.99980009 65:0 66:0 67:0 68:1 69:0.6830253 70:0.73039466 71:1 #
-2.1126760563380281461847570723123e-05 1:0 2:0 3:0 4:0 5:0 6:0 7:0.38537472 8:0.62318254 9:0 10:0.16755445 11:0 12:0 13:0.26505363 14:0 15:0 16:0 17:0.22078471 18:0 19:0.31159127 20:0 21:0 22:0 23:0 24:0.25737691 25:0 26:0 27:0 28:0.26385847 29:0.28827545 30:0 31:0 32:0 33:0.11298963 34:0 35:0 36:0 37:0.2379728 38:0.4988125 39:0 40:0.12153066 41:0 42:0 43:0.21741188 44:0 45:0.26616278 46:0 47:0.14793563 48:0 49:0.3732101 50:0.20614964 51:0.24899778 52:0.19117174 53:0 54:0.32814026 55:0 56:0.16485353 57:0.24421872 58:0 59:0.22846816 60:0 61:0 62:0 63:0.027767068 64:0.99961442 65:0 66:0 67:0 68:1 69:0.70567232 70:0.70853835 71:1 #
-2.1126760563380281461847570723123e-05 1:0 2:0 3:0 4:0 5:0 6:0 7:0.48970318 8:0.5279268 9:0 10:0.14194314 11:0 12:0 13:0.22453921 14:0 15:0.3092795 16:0 17:0.18703696 18:0 19:0.2639634 20:0 21:0 22:0.23121838 23:0 24:0.21803591 25:0 26:0 27:0 28:0.22352673 29:0.24421149 30:0 31:0 32:0 33:0.11298963 34:0 35:0 36:0 37:0.2379728 38:0.4988125 39:0 40:0.12153066 41:0 42:0 43:0.21741188 44:0 45:0.26616278 46:0 47:0.14793563 48:0 49:0.3732101 50:0.20614964 51:0.24899778 52:0.19117174 53:0 54:0.32814026 55:0 56:0.16485353 57:0.24421872 58:0 59:0.22846816 60:0 61:0 62:0 63:0.015149776 64:0.99988526 65:0 66:0 67:0 68:1 69:0.70594466 70:0.70826697 71:1 #
-4.9295774647887327928486717043555e-05 1:0 2:0.15109432 3:0 4:0.13164942 5:0 6:0 7:0.59196776 8:0.23931511 9:0 10:0 11:0 12:0 13:0.20357224 14:0 15:0.28039971 16:0 17:0.16957188 18:0 19:0.23931511 20:0.14927249 21:0.17313753 22:0.20962773 23:0 24:0.29651433 25:0 26:0.20914683 27:0.26298714 28:0 29:0.22140759 30:0 31:0 32:0 33:0.11298963 34:0 35:0 36:0 37:0.2379728 38:0.4988125 39:0 40:0.12153066 41:0 42:0 43:0.21741188 44:0 45:0.26616278 46:0 47:0.14793563 48:0 49:0.3732101 50:0.20614964 51:0.24899778 52:0.19117174 53:0 54:0.32814026 55:0 56:0.16485353 57:0.24421872 58:0 59:0.22846816 60:0 61:0 62:0 63:0.0066665187 64:0.99997777 65:0 66:0 67:0 68:1 69:0.78812468 70:0.61551565 71:1 #
4.2253521126760562923695141446245e-05 1:0 2:0.15039778 3:0 4:0.13104253 5:0 6:0 7:0.58923882 8:0.23821187 9:0 10:0.12809557 11:0 12:0 13:0.20263378 14:0.16815871 15:0 16:0 17:0.16879016 18:0 19:0.23821187 20:0.14858435 21:0.17233936 22:0.20866136 23:0 24:0.39352986 25:0 26:0 27:0 28:0.20172009 29:0.22038691 30:0.21409093 31:0 32:0 33:0.11298963 34:0 35:0 36:0 37:0.2379728 38:0.4988125 39:0 40:0.12153066 41:0 42:0 43:0.21741188 44:0 45:0.26616278 46:0 47:0.14793563 48:0 49:0.3732101 50:0.20614964 51:0.24899778 52:0.19117174 53:0 54:0.32814026 55:0 56:0.16485353 57:0.24421872 58:0 59:0.22846816 60:0 61:0 62:0 63:0.0049019018 64:0.99998796 65:0 66:0 67:0 68:1 69:0.62404323 70:0.78138983 71:1 #
4.2253521126760562923695141446245e-05 1:0 2:0 3:0 4:0 5:0 6:0 7:0.58050871 8:0.23468255 9:0 10:0.12619773 11:0 12:0 13:0.29944739 14:0 15:0.27497184 16:0 17:0.33257878 18:0 19:0.23468255 20:0.14638294 21:0.16978601 22:0.20556986 23:0 24:0.29077452 25:0 26:0 27:0 28:0.19873142 29:0 30:0.21091899 31:0 32:0 33:0.11298963 34:0 35:0 36:0 37:0.2379728 38:0.4988125 39:0 40:0.12153066 41:0 42:0 43:0.21741188 44:0 45:0.26616278 46:0 47:0.14793563 48:0 49:0.3732101 50:0.20614964 51:0.24899778 52:0.19117174 53:0 54:0.32814026 55:0 56:0.16485353 57:0.24421872 58:0 59:0.22846816 60:0 61:0 62:0 63:0.0066334354 64:0.99501532 65:0 66:0.099501528 67:0 68:1 69:0.72011608 70:0.69385362 71:1 #
4.2253521126760562923695141446245e-05 1:0 2:0 3:0 4:0.13126685 5:0 6:0 7:0.59024745 8:0.23861964 9:0 10:0.12831484 11:0 12:0 13:0.30447099 14:0 15:0.27958483 16:0 17:0.33815819 18:0 19:0.23861964 20:0.14883868 21:0.17263438 22:0.20901854 23:0 24:0.19710176 25:0 26:0.20853902 27:0 28:0.20206539 29:0 30:0 31:0 32:0 33:0.11298963 34:0 35:0 36:0 37:0.2379728 38:0.4988125 39:0 40:0.12153066 41:0 42:0 43:0.21741188 44:0 45:0.26616278 46:0 47:0.14793563 48:0 49:0.3732101 50:0.20614964 51:0.24899778 52:0.19117174 53:0 54:0.32814026 55:0 56:0.16485353 57:0.24421872 58:0 59:0.22846816 60:0 61:0 62:0 63:0.0066334354 64:0.99501532 65:0 66:0.099501528 67:0 68:1 69:0.7986654 70:0.60177541 71:1 #
7.0422535211267607696268393258077e-06 1:0 2:0 3:0 4:0 5:0 6:0 7:0.5574584 8:0.30048531 9:0 10:0.16158237 11:0 12:0 13:0.25560641 14:0 15:0.35207137 16:0 17:0.21291536 18:0 19:0.30048531 20:0 21:0 22:0 23:0 24:0.24820331 25:0 26:0 27:0.33020806 28:0 29:0.27800053 30:0 31:0 32:0 33:0.11298963 34:0 35:0 36:0 37:0.2379728 38:0.4988125 39:0 40:0.12153066 41:0 42:0 43:0.21741188 44:0 45:0.26616278 46:0 47:0.14793563 48:0 49:0.3732101 50:0.20614964 51:0.24899778 52:0.19117174 53:0 54:0.32814026 55:0 56:0.16485353 57:0.24421872 58:0 59:0.22846816 60:0 61:0 62:0 63:0.010599383 64:0.52996916 65:0 66:0.8479507 67:0 68:1 69:0.65855211 70:0.7525351 71:1 #
-6.3380281690140851161806290203771e-05 1:0 2:0.15614222 3:0 4:0.13604771 5:0 6:0 7:0.61174482 8:0 9:0 10:0.13298818 11:0 12:0 13:0.21037339 14:0 15:0.28976756 16:0 17:0.1752371 18:0 19:0.24731039 20:0.15425953 21:0.17892188 22:0.21663119 23:0 24:0.30642056 25:0 26:0.21613421 27:0 28:0 29:0.22880459 30:0.22226815 31:0 32:0 33:0.11298963 34:0 35:0 36:0 37:0.2379728 38:0.4988125 39:0 40:0.12153066 41:0 42:0 43:0.21741188 44:0 45:0.26616278 46:0 47:0.14793563 48:0 49:0.3732101 50:0.20614964 51:0.24899778 52:0.19117174 53:0 54:0.32814026 55:0 56:0.16485353 57:0.24421872 58:0 59:0.22846816 60:0 61:0 62:0 63:0.0055900826 64:0.98385453 65:0 66:0.17888264 67:0 68:1 69:0.7786082 70:0.62751037 71:1 #
-2.1126760563380281461847570723123e-05 1:0 2:0 3:0 4:0 5:0 6:0 7:0.55103421 8:0.44553375 9:0 10:0.1197902 11:0 12:0 13:0.094747789 14:0 15:0.26101053 16:0 17:0 18:0 19:0.22276688 20:0.13895056 21:0.16116536 22:0.19513233 23:0 24:0.36801448 25:0 26:0 27:0.24480203 28:0.18864112 29:0.20609763 30:0 31:0 32:0 33:0.11298963 34:0 35:0 36:0 37:0.2379728 38:0.4988125 39:0 40:0.12153066 41:0 42:0 43:0.21741188 44:0 45:0.26616278 46:0 47:0.14793563 48:0 49:0.3732101 50:0.20614964 51:0.24899778 52:0.19117174 53:0 54:0.32814026 55:0 56:0.16485353 57:0.24421872 58:0 59:0.22846816 60:0 61:0 62:0 63:0.0079362579 64:0.99996853 65:0 66:0 67:0 68:1 69:0.80036157 70:0.59951764 71:1 #
4.2253521126760562923695141446245e-05 1:0 2:0 3:0 4:0 5:0 6:0 7:0.5574584 8:0.30048531 9:0 10:0.16158237 11:0 12:0 13:0.25560641 14:0 15:0.35207137 16:0 17:0.21291536 18:0 19:0.30048531 20:0 21:0 22:0 23:0 24:0.24820331 25:0 26:0 27:0.33020806 28:0 29:0.27800053 30:0 31:0 32:0 33:0.11298963 34:0 35:0 36:0 37:0.2379728 38:0.4988125 39:0 40:0.12153066 41:0 42:0 43:0.21741188 44:0 45:0.26616278 46:0 47:0.14793563 48:0 49:0.3732101 50:0.20614964 51:0.24899778 52:0.19117174 53:0 54:0.32814026 55:0 56:0.16485353 57:0.24421872 58:0 59:0.22846816 60:0 61:0 62:0 63:0.019996 64:0.99980009 65:0 66:0 67:0 68:1 69:0.6830253 70:0.73039466 71:1 #
-2.1126760563380281461847570723123e-05 1:0 2:0 3:0 4:0 5:0 6:0 7:0.38537472 8:0.62318254 9:0 10:0.16755445 11:0 12:0 13:0.26505363 14:0 15:0 16:0 17:0.22078471 18:0 19:0.31159127 20:0 21:0 22:0 23:0 24:0.25737691 25:0 26:0 27:0 28:0.26385847 29:0.28827545 30:0 31:0 32:0 33:0.11298963 34:0 35:0 36:0 37:0.2379728 38:0.4988125 39:0 40:0.12153066 41:0 42:0 43:0.21741188 44:0 45:0.26616278 46:0 47:0.14793563 48:0 49:0.3732101 50:0.20614964 51:0.24899778 52:0.19117174 53:0 54:0.32814026 55:0 56:0.16485353 57:0.24421872 58:0 59:0.22846816 60:0 61:0 62:0 63:0.027767068 64:0.99961442 65:0 66:0 67:0 68:1 69:0.70567232 70:0.70853835 71:1 #
-2.1126760563380281461847570723123e-05 1:0 2:0 3:0 4:0 5:0 6:0 7:0.48970318 8:0.5279268 9:0 10:0.14194314 11:0 12:0 13:0.22453921 14:0 15:0.3092795 16:0 17:0.18703696 18:0 19:0.2639634 20:0 21:0 22:0.23121838 23:0 24:0.21803591 25:0 26:0 27:0 28:0.22352673 29:0.24421149 30:0 31:0 32:0 33:0.11298963 34:0 35:0 36:0 37:0.2379728 38:0.4988125 39:0 40:0.12153066 41:0 42:0 43:0.21741188 44:0 45:0.26616278 46:0 47:0.14793563 48:0 49:0.3732101 50:0.20614964 51:0.24899778 52:0.19117174 53:0 54:0.32814026 55:0 56:0.16485353 57:0.24421872 58:0 59:0.22846816 60:0 61:0 62:0 63:0.015149776 64:0.99988526 65:0 66:0 67:0 68:1 69:0.70594466 70:0.70826697 71:1 #
-4.9295774647887327928486717043555e-05 1:0 2:0.15109432 3:0 4:0.13164942 5:0 6:0 7:0.59196776 8:0.23931511 9:0 10:0 11:0 12:0 13:0.20357224 14:0 15:0.28039971 16:0 17:0.16957188 18:0 19:0.23931511 20:0.14927249 21:0.17313753 22:0.20962773 23:0 24:0.29651433 25:0 26:0.20914683 27:0.26298714 28:0 29:0.22140759 30:0 31:0 32:0 33:0.11298963 34:0 35:0 36:0 37:0.2379728 38:0.4988125 39:0 40:0.12153066 41:0 42:0 43:0.21741188 44:0 45:0.26616278 46:0 47:0.14793563 48:0 49:0.3732101 50:0.20614964 51:0.24899778 52:0.19117174 53:0 54:0.32814026 55:0 56:0.16485353 57:0.24421872 58:0 59:0.22846816 60:0 61:0 62:0 63:0.0066665187 64:0.99997777 65:0 66:0 67:0 68:1 69:0.78812468 70:0.61551565 71:1 #
4.2253521126760562923695141446245e-05 1:0 2:0.15039778 3:0 4:0.13104253 5:0 6:0 7:0.58923882 8:0.23821187 9:0 10:0.12809557 11:0 12:0 13:0.20263378 14:0.16815871 15:0 16:0 17:0.16879016 18:0 19:0.23821187 20:0.14858435 21:0.17233936 22:0.20866136 23:0 24:0.39352986 25:0 26:0 27:0 28:0.20172009 29:0.22038691 30:0.21409093 31:0 32:0 33:0.11298963 34:0 35:0 36:0 37:0.2379728 38:0.4988125 39:0 40:0.12153066 41:0 42:0 43:0.21741188 44:0 45:0.26616278 46:0 47:0.14793563 48:0 49:0.3732101 50:0.20614964 51:0.24899778 52:0.19117174 53:0 54:0.32814026 55:0 56:0.16485353 57:0.24421872 58:0 59:0.22846816 60:0 61:0 62:0 63:0.0049019018 64:0.99998796 65:0 66:0 67:0 68:1 69:0.62404323 70:0.78138983 71:1 #
2.1126760563380281461847570723123e-05 1:0 2:0 3:0 4:0 5:0 6:0 7:0 8:0 9:0 10:0.13113409 11:0 12:0.15369797 13:0.31116062 14:0 15:0 16:0 17:0 18:0.3223702 19:0 20:0.45632666 21:0.17642739 22:0.21361098 23:0.279771 24:0.50358087 25:0 26:0 27:0 28:0.20650505 29:0.22561465 30:0.21916933 31:0 32:0 33:0.20363413 34:0 35:0 36:0 37:0 38:0 39:0 40:0.10951354 41:0 42:0.12639007 43:0.29387087 44:0 45:0 46:0 47:0 48:0.21800759 49:0 50:0.55729586 51:0.22437654 52:0.17226842 53:0.2185027 54:0.4928222 55:0 56:0 57:0 58:0.20911931 59:0.20587693 60:0.17130332 61:0 62:0 63:0.010203551 64:0.99994797 65:0 66:0 67:0 68:1 69:0.65812564 70:0.75290811 71:1 #
-1.4084507042253521539253678651615e-05 1:0 2:0 3:0 4:0 5:0 6:0 7:0 8:0 9:0 10:0 11:0 12:0 13:0.45626232 14:0 15:0 16:0 17:0.38005799 18:0 19:0 20:0.66912276 21:0.3880496 22:0 23:0 24:0.22152384 25:0 26:0 27:0 28:0 29:0 30:0 31:0 32:0 33:0.20363413 34:0 35:0 36:0 37:0 38:0 39:0 40:0.10951354 41:0 42:0.12639007 43:0.29387087 44:0 45:0 46:0 47:0 48:0.21800759 49:0 50:0.55729586 51:0.22437654 52:0.17226842 53:0.2185027 54:0.4928222 55:0 56:0 57:0 58:0.20911931 59:0.20587693 60:0.17130332 61:0 62:0 63:0.05547002 64:0.99846035 65:0 66:0 67:0 68:1 69:0.74821496 70:0.66345638 71:1 #
-1.4084507042253521539253678651615e-05 1:0 2:0 3:0 4:0 5:0 6:0 7:0 8:0 9:0 10:0 11:0 12:0 13:0.22934055 14:0 15:0 16:0 17:0 18:0 19:0 20:0.336335 21:0.39010677 22:0 23:0 24:0.44539639 25:0 26:0 27:0 28:0 29:0.49886701 30:0.48461547 31:0 32:0 33:0.20363413 34:0 35:0 36:0 37:0 38:0 39:0 40:0.10951354 41:0 42:0.12639007 43:0.29387087 44:0 45:0 46:0 47:0 48:0.21800759 49:0 50:0.55729586 51:0.22437654 52:0.17226842 53:0.2185027 54:0.4928222 55:0 56:0 57:0 58:0.20911931 59:0.20587693 60:0.17130332 61:0 62:0 63:0.066519007 64:0.99778515 65:0 66:0 67:0 68:1 69:0.68800634 70:0.72570467 71:1 #
7.0422535211267607696268393258077e-06 1:0 2:0 3:0 4:0 5:0 6:0 7:0 8:0 9:0 10:0.32924899 11:0 12:0.3859019 13:0.26041871 14:0 15:0 16:0 17:0 18:0 19:0 20:0.38191208 21:0.44297054 22:0 23:0 24:0.25287625 25:0 26:0 27:0 28:0.51848894 29:0 30:0 31:0 32:0 33:0.20363413 34:0 35:0 36:0 37:0 38:0 39:0 40:0.10951354 41:0 42:0.12639007 43:0.29387087 44:0 45:0 46:0 47:0 48:0.21800759 49:0 50:0.55729586 51:0.22437654 52:0.17226842 53:0.2185027 54:0.4928222 55:0 56:0 57:0 58:0.20911931 59:0.20587693 60:0.17130332 61:0 62:0 63:0.099503718 64:0.9950372 65:0 66:0 67:0 68:1 69:0.70683819 70:0.70737529 71:1 #
2.1126760563380281461847570723123e-05 1:0 2:0 3:0 4:0 5:0 6:0 7:0 8:0 9:0 10:0.13113409 11:0 12:0.15369797 13:0.31116062 14:0 15:0 16:0 17:0 18:0.3223702 19:0 20:0.45632666 21:0.17642739 22:0.21361098 23:0.279771 24:0.50358087 25:0 26:0 27:0 28:0.20650505 29:0.22561465 30:0.21916933 31:0 32:0 33:0.20363413 34:0 35:0 36:0 37:0 38:0 39:0 40:0.10951354 41:0 42:0.12639007 43:0.29387087 44:0 45:0 46:0 47:0 48:0.21800759 49:0 50:0.55729586 51:0.22437654 52:0.17226842 53:0.2185027 54:0.4928222 55:0 56:0 57:0 58:0.20911931 59:0.20587693 60:0.17130332 61:0 62:0 63:0.010203551 64:0.99994797 65:0 66:0 67:0 68:1 69:0.65812564 70:0.75290811 71:1 #
-1.4084507042253521539253678651615e-05 1:0 2:0 3:0 4:0 5:0 6:0 7:0 8:0 9:0 10:0 11:0 12:0 13:0.45626232 14:0 15:0 16:0 17:0.38005799 18:0 19:0 20:0.66912276 21:0.3880496 22:0 23:0 24:0.22152384 25:0 26:0 27:0 28:0 29:0 30:0 31:0 32:0 33:0.20363413 34:0 35:0 36:0 37:0 38:0 39:0 40:0.10951354 41:0 42:0.12639007 43:0.29387087 44:0 45:0 46:0 47:0 48:0.21800759 49:0 50:0.55729586 51:0.22437654 52:0.17226842 53:0.2185027 54:0.4928222 55:0 56:0 57:0 58:0.20911931 59:0.20587693 60:0.17130332 61:0 62:0 63:0.05547002 64:0.99846035 65:0 66:0 67:0 68:1 69:0.74821496 70:0.66345638 71:1 #
-1.4084507042253521539253678651615e-05 1:0 2:0 3:0 4:0 5:0 6:0 7:0 8:0 9:0 10:0 11:0 12:0 13:0.22934055 14:0 15:0 16:0 17:0 18:0 19:0 20:0.336335 21:0.39010677 22:0 23:0 24:0.44539639 25:0 26:0 27:0 28:0 29:0.49886701 30:0.48461547 31:0 32:0 33:0.20363413 34:0 35:0 36:0 37:0 38:0 39:0 40:0.10951354 41:0 42:0.12639007 43:0.29387087 44:0 45:0 46:0 47:0 48:0.21800759 49:0 50:0.55729586 51:0.22437654 52:0.17226842 53:0.2185027 54:0.4928222 55:0 56:0 57:0 58:0.20911931 59:0.20587693 60:0.17130332 61:0 62:0 63:0.066519007 64:0.99778515 65:0 66:0 67:0 68:1 69:0.68800634 70:0.72570467 71:1 #
7.0422535211267607696268393258077e-06 1:0 2:0 3:0 4:0 5:0 6:0 7:0 8:0 9:0 10:0.32924899 11:0 12:0.3859019 13:0.26041871 14:0 15:0 16:0 17:0 18:0 19:0 20:0.38191208 21:0.44297054 22:0 23:0 24:0.25287625 25:0 26:0 27:0 28:0.51848894 29:0 30:0 31:0 32:0 33:0.20363413 34:0 35:0 36:0 37:0 38:0 39:0 40:0.10951354 41:0 42:0.12639007 43:0.29387087 44:0 45:0 46:0 47:0 48:0.21800759 49:0 50:0.55729586 51:0.22437654 52:0.17226842 53:0.2185027 54:0.4928222 55:0 56:0 57:0 58:0.20911931 59:0.20587693 60:0.17130332 61:0 62:0 63:0.099503718 64:0.9950372 65:0 66:0 67:0 68:1 69:0.70683819 70:0.70737529 71:1 #
-0 1:0 2:0 3:0 4:0.1787315 5:0 6:0 7:0.6027559 8:0 9:0.34508142 10:0.17471209 11:0 12:0 13:0.27637625 14:0.22935501 15:0 16:0.36894876 17:0 18:0 19:0 20:0.20265715 21:0.23505709 22:0 23:0 24:0.13418581 25:0 26:0 27:0 28:0.27513003 29:0 30:0 31:0 32:0 33:0.16181748 34:0 35:0 36:0.22556834 37:0 38:0.47624773 39:0.27637601 40:0.17404947 41:0 42:0 43:0.46704787 44:0.19425888 45:0 46:0.30814025 47:0 48:0.17323932 49:0 50:0 51:0 52:0 53:0 54:0.3132962 55:0 56:0 57:0 58:0.33235252 59:0 60:0 61:0 62:0 63:0.012605821 64:0.83198416 65:0 66:0.55465615 67:0.9950372 68:0.099503718 69:0.56427288 70:0.82558835 71:1 #
1.4084507042253521539253678651615e-05 1:0 2:0.30084959 3:0 4:0 5:0 6:0 7:0.58934468 8:0 9:0 10:0 11:0 12:0 13:0 14:0 15:0 16:0 17:0 18:0 19:0 20:0.29722211 21:0.34474066 22:0 23:0 24:0.19680029 25:0.56235653 26:0 27:0 28:0 29:0 30:0 31:0 32:0 33:0.16181748 34:0 35:0 36:0.22556834 37:0 38:0.47624773 39:0.27637601 40:0.17404947 41:0 42:0 43:0.46704787 44:0.19425888 45:0 46:0.30814025 47:0 48:0.17323932 49:0 50:0 51:0 52:0 53:0 54:0.3132962 55:0 56:0 57:0 58:0.33235252 59:0 60:0 61:0 62:0 63:0.05547002 64:0.99846035 65:0 66:0 67:0.9950372 68:0.099503718 69:0.68140191 70:0.73190945 71:1 #
-1.4084507042253521539253678651615e-05 1:0 2:0 3:0 4:0.18063883 5:0 6:0 7:0.40612549 8:0.32836908 9:0.34876397 10:0 11:0 12:0 13:0.2793256 14:0.23180258 15:0 16:0.37288597 17:0 18:0 19:0 20:0.2048198 21:0.2375655 22:0 23:0 24:0.27123553 25:0 26:0 27:0.36084998 28:0 29:0 30:0 31:0 32:0 33:0.16181748 34:0 35:0 36:0.22556834 37:0 38:0.47624773 39:0.27637601 40:0.17404947 41:0 42:0 43:0.46704787 44:0.19425888 45:0 46:0.30814025 47:0 48:0.17323932 49:0 50:0 51:0 52:0 53:0 54:0.3132962 55:0 56:0 57:0 58:0.33235252 59:0 60:0 61:0 62:0 63:0.015615472 64:0.78077358 65:0 66:0.62461889 67:0.9950372 68:0.099503718 69:0.58001482 70:0.81460589 71:1 #
0 1:0 2:0 3:0 4:0.1787315 5:0 6:0 7:0.6027559 8:0 9:0.34508142 10:0.17471209 11:0 12:0 13:0.27637625 14:0.22935501 15:0 16:0.36894876 17:0 18:0 19:0 20:0.20265715 21:0.23505709 22:0 23:0 24:0.13418581 25:0 26:0 27:0 28:0.27513003 29:0 30:0 31:0 32:0 33:0.16181748 34:0 35:0 36:0.22556834 37:0 38:0.47624773 39:0.27637601 40:0.17404947 41:0 42:0 43:0.46704787 44:0.19425888 45:0 46:0.30814025 47:0 48:0.17323932 49:0 50:0 51:0 52:0 53:0 54:0.3132962 55:0 56:0 57:0 58:0.33235252 59:0 60:0 61:0 62:0 63:0.012605821 64:0.83198416 65:0 66:0.55465615 67:0.9950372 68:0.099503718 69:0.56427288 70:0.82558835 71:1 #
1.4084507042253521539253678651615e-05 1:0 2:0.30084959 3:0 4:0 5:0 6:0 7:0.58934468 8:0 9:0 10:0 11:0 12:0 13:0 14:0 15:0 16:0 17:0 18:0 19:0 20:0.29722211 21:0.34474066 22:0 23:0 24:0.19680029 25:0.56235653 26:0 27:0 28:0 29:0 30:0 31:0 32:0 33:0.16181748 34:0 35:0 36:0.22556834 37:0 38:0.47624773 39:0.27637601 40:0.17404947 41:0 42:0 43:0.46704787 44:0.19425888 45:0 46:0.30814025 47:0 48:0.17323932 49:0 50:0 51:0 52:0 53:0 54:0.3132962 55:0 56:0 57:0 58:0.33235252 59:0 60:0 61:0 62:0 63:0.05547002 64:0.99846035 65:0 66:0 67:0.9950372 68:0.099503718 69:0.68140191 70:0.73190945 71:1 #
-1.4084507042253521539253678651615e-05 1:0 2:0 3:0 4:0.18063883 5:0 6:0 7:0.40612549 8:0.32836908 9:0.34876397 10:0 11:0 12:0 13:0.2793256 14:0.23180258 15:0 16:0.37288597 17:0 18:0 19:0 20:0.2048198 21:0.2375655 22:0 23:0 24:0.27123553 25:0 26:0 27:0.36084998 28:0 29:0 30:0 31:0 32:0 33:0.16181748 34:0 35:0 36:0.22556834 37:0 38:0.47624773 39:0.27637601 40:0.17404947 41:0 42:0 43:0.46704787 44:0.19425888 45:0 46:0.30814025 47:0 48:0.17323932 49:0 50:0 51:0 52:0 53:0 54:0.3132962 55:0 56:0 57:0 58:0.33235252 59:0 60:0 61:0 62:0 63:0.015615472 64:0.78077358 65:0 66:0.62461889 67:0.9950372 68:0.099503718 69:0.58001482 70:0.81460589 71:1 #
-1.4084507042253521539253678651615e-05 1:0 2:0 3:0 4:0 5:0 6:0 7:0.29556018 8:0 9:0 10:0.51401842 11:0 12:0.30123204 13:0.20328084 14:0 15:0.5599966 16:0 17:0 18:0 19:0 20:0 21:0 22:0 23:0 24:0.19739324 25:0 26:0 27:0 28:0.40472844 29:0 30:0 31:0.12504883 32:0.13494912 33:0.30220976 34:0 35:0.16071004 36:0 37:0 38:0 39:0 40:0.3250542 41:0 42:0.25009766 43:0.38766977 44:0.12093241 45:0 46:0 47:0 48:0 49:0 50:0.36758792 51:0.22199549 52:0 53:0 54:0.39007393 55:0 56:0.14697616 57:0 58:0.20690015 59:0 60:0.33897093 61:0 62:0.17400444 63:0.029000739 64:0.69601774 65:0 66:0.69601774 67:0.99827439 68:0.058722023 69:0.70110893 70:0.71305418 71:1 #
-2.8169014084507043078507357303231e-05 1:0 2:0 3:0 4:0 5:0 6:0 7:0.25118652 8:0 9:0 10:0 11:0 12:0 13:0 14:0 15:0 16:0 17:0 18:0 19:0 20:0.25335997 21:0.29386607 22:0 23:0 24:0.50327337 25:0 26:0 27:0 28:0 29:0 30:0.73011827 31:0.12504883 32:0.13494912 33:0.30220976 34:0 35:0.16071004 36:0 37:0 38:0 39:0 40:0.3250542 41:0 42:0.25009766 43:0.38766977 44:0.12093241 45:0 46:0 47:0 48:0 49:0 50:0.36758792 51:0.22199549 52:0 53:0 54:0.39007393 55:0 56:0.14697616 57:0 58:0.20690015 59:0 60:0.33897093 61:0 62:0 63:0.05547002 64:0.99846035 65:0 66:0 67:0.99827439 68:0.058722023 69:0.65968126 70:0.75154549 71:1 #
1.4084507042253521539253678651615e-05 1:0 2:0 3:0 4:0.67938107 5:0 6:0 7:0.38185859 8:0 9:0 10:0.3320514 11:0 12:0 13:0.26263529 14:0 15:0 16:0 17:0 18:0 19:0 20:0.38516274 21:0 22:0 23:0 24:0.25502861 25:0 26:0 27:0 28:0 29:0 30:0 31:0.12504883 32:0.13494912 33:0.30220976 34:0 35:0.16071004 36:0 37:0 38:0 39:0 40:0.3250542 41:0 42:0.25009766 43:0.38766977 44:0.12093241 45:0 46:0 47:0 48:0 49:0 50:0.36758792 51:0.22199549 52:0 53:0 54:0.39007393 55:0 56:0.14697616 57:0 58:0.20690015 59:0 60:0.33897093 61:0 62:0 63:0.020828813 64:0.99978304 65:0 66:0 67:0.99827439 68:0.058722023 69:0.69467801 70:0.71932083 71:1 #
2.8169014084507043078507357303231e-05 1:0 2:0 3:0 4:0 5:0 6:0 7:0.31185064 8:0 9:0 10:0.5423497 11:0 12:0.31783512 13:0.21448511 14:0 15:0 16:0 17:0 18:0.33331791 19:0 20:0 21:0 22:0 23:0 24:0.20827301 25:0 26:0 27:0.55417013 28:0 29:0 30:0 31:0.12504883 32:0.13494912 33:0.30220976 34:0 35:0.16071004 36:0 37:0 38:0 39:0 40:0.3250542 41:0 42:0.25009766 43:0.38766977 44:0.12093241 45:0 46:0 47:0 48:0 49:0 50:0.36758792 51:0.22199549 52:0 53:0 54:0.39007393 55:0 56:0.14697616 57:0 58:0.20690015 59:0 60:0.33897093 61:0 62:0.19601145 63:0.032668576 64:0.78404582 65:0 66:0.58803439 67:0.99827439 68:0.058722023 69:0.70684278 70:0.7073707 71:1 #
-0 1:0 2:0 3:0 4:0 5:0 6:0 7:0.35674351 8:0 9:0 10:0.62042433 11:0 12:0.3635895 13:0.2453616 14:0 15:0 16:0 17:0 18:0 19:0 20:0 21:0 22:0 23:0 24:0.23825523 25:0 26:0 27:0 28:0.48851049 29:0 30:0 31:0.12504883 32:0.13494912 33:0.30220976 34:0 35:0.16071004 36:0 37:0 38:0 39:0 40:0.3250542 41:0 42:0.25009766 43:0.38766977 44:0.12093241 45:0 46:0 47:0 48:0 49:0 50:0.36758792 51:0.22199549 52:0 53:0 54:0.39007393 55:0 56:0.14697616 57:0 58:0.20690015 59:0 60:0.33897093 61:0 62:0.24233772 63:0.04038962 64:0.96935087 65:0 66:0 67:0.99827439 68:0.058722023 69:0.72872418 70:0.68480736 71:1 #
-1.4084507042253521539253678651615e-05 1:0 2:0 3:0 4:0 5:0 6:0 7:0.29556018 8:0 9:0 10:0.51401842 11:0 12:0.30123204 13:0.20328084 14:0 15:0.5599966 16:0 17:0 18:0 19:0 20:0 21:0 22:0 23:0 24:0.19739324 25:0 26:0 27:0 28:0.40472844 29:0 30:0 31:0.12504883 32:0.13494912 33:0.30220976 34:0 35:0.16071004 36:0 37:0 38:0 39:0 40:0.3250542 41:0 42:0.25009766 43:0.38766977 44:0.12093241 45:0 46:0 47:0 48:0 49:0 50:0.36758792 51:0.22199549 52:0 53:0 54:0.39007393 55:0 56:0.14697616 57:0 58:0.20690015 59:0 60:0.33897093 61:0 62:0.17400444 63:0.029000739 64:0.69601774 65:0 66:0.69601774 67:0.99827439 68:0.058722023 69:0.70110893 70:0.71305418 71:1 #
-2.8169014084507043078507357303231e-05 1:0 2:0 3:0 4:0 5:0 6:0 7:0.25118652 8:0 9:0 10:0 11:0 12:0 13:0 14:0 15:0 16:0 17:0 18:0 19:0 20:0.25335997 21:0.29386607 22:0 23:0 24:0.50327337 25:0 26:0 27:0 28:0 29:0 30:0.73011827 31:0.12504883 32:0.13494912 33:0.30220976 34:0 35:0.16071004 36:0 37:0 38:0 39:0 40:0.3250542 41:0 42:0.25009766 43:0.38766977 44:0.12093241 45:0 46:0 47:0 48:0 49:0 50:0.36758792 51:0.22199549 52:0 53:0 54:0.39007393 55:0 56:0.14697616 57:0 58:0.20690015 59:0 60:0.33897093 61:0 62:0 63:0.05547002 64:0.99846035 65:0 66:0 67:0.99827439 68:0.058722023 69:0.65968126 70:0.75154549 71:1 #
1.4084507042253521539253678651615e-05 1:0 2:0 3:0 4:0.67938107 5:0 6:0 7:0.38185859 8:0 9:0 10:0.3320514 11:0 12:0 13:0.26263529 14:0 15:0 16:0 17:0 18:0 19:0 20:0.38516274 21:0 22:0 23:0 24:0.25502861 25:0 26:0 27:0 28:0 29:0 30:0 31:0.12504883 32:0.13494912 33:0.30220976 34:0 35:0.16071004 36:0 37:0 38:0 39:0 40:0.3250542 41:0 42:0.25009766 43:0.38766977 44:0.12093241 45:0 46:0 47:0 48:0 49:0 50:0.36758792 51:0.22199549 52:0 53:0 54:0.39007393 55:0 56:0.14697616 57:0 58:0.20690015 59:0 60:0.33897093 61:0 62:0 63:0.020828813 64:0.99978304 65:0 66:0 67:0.99827439 68:0.058722023 69:0.69467801 70:0.71932083 71:1 #
2.8169014084507043078507357303231e-05 1:0 2:0 3:0 4:0 5:0 6:0 7:0.31185064 8:0 9:0 10:0.5423497 11:0 12:0.31783512 13:0.21448511 14:0 15:0 16:0 17:0 18:0.33331791 19:0 20:0 21:0 22:0 23:0 24:0.20827301 25:0 26:0 27:0.55417013 28:0 29:0 30:0 31:0.12504883 32:0.13494912 33:0.30220976 34:0 35:0.16071004 36:0 37:0 38:0 39:0 40:0.3250542 41:0 42:0.25009766 43:0.38766977 44:0.12093241 45:0 46:0 47:0 48:0 49:0 50:0.36758792 51:0.22199549 52:0 53:0 54:0.39007393 55:0 56:0.14697616 57:0 58:0.20690015 59:0 60:0.33897093 61:0 62:0.19601145 63:0.032668576 64:0.78404582 65:0 66:0.58803439 67:0.99827439 68:0.058722023 69:0.70684278 70:0.7073707 71:1 #
0 1:0 2:0 3:0 4:0 5:0 6:0 7:0.35674351 8:0 9:0 10:0.62042433 11:0 12:0.3635895 13:0.2453616 14:0 15:0 16:0 17:0 18:0 19:0 20:0 21:0 22:0 23:0 24:0.23825523 25:0 26:0 27:0 28:0.48851049 29:0 30:0 31:0.12504883 32:0.13494912 33:0.30220976 34:0 35:0.16071004 36:0 37:0 38:0 39:0 40:0.3250542 41:0 42:0.25009766 43:0.38766977 44:0.12093241 45:0 46:0 47:0 48:0 49:0 50:0.36758792 51:0.22199549 52:0 53:0 54:0.39007393 55:0 56:0.14697616 57:0 58:0.20690015 59:0 60:0.33897093 61:0 62:0.24233772 63:0.04038962 64:0.96935087 65:0 66:0 67:0.99827439 68:0.058722023 69:0.72872418 70:0.68480736 71:1 #
4.2253521126760562923695141446245e-05 1:0 2:0.11694843 3:0 4:0.20379582 5:0 6:0 7:0.11454717 8:0 9:0.19673687 10:0.099606372 11:0 12:0 13:0.31513372 14:0.13075924 15:0 16:0.21034403 17:0.13125025 18:0 19:0.18523216 20:0.46215332 21:0.40203029 22:0 23:0 24:0.38250819 25:0 26:0.16188163 27:0.20355456 28:0.15685637 29:0.17137158 30:0.16647586 31:0.10165701 32:0 33:0.24567796 34:0 35:0 36:0.11415572 37:0.17247799 38:0.12050983 39:0.13986848 40:0 41:0 42:0 43:0.63030338 44:0.098310612 45:0.19290952 46:0.15594374 47:0.32166249 48:0.087673023 49:0.13524766 50:0.2988264 51:0.18046868 52:0 53:0 54:0.2378296 55:0 56:0.23896517 57:0 58:0 59:0 60:0.13778126 61:0 62:0 63:0.0027677903 64:0.58123595 65:0 66:0.81373036 67:0.99986112 68:0.016664352 69:0.66441 70:0.74736828 71:1 #
8.4507042253521125847390282892491e-05 1:0 2:0.18000975 3:0.20587872 4:0.31368726 5:0 6:0.25032076 7:0 8:0 9:0 10:0 11:0 12:0 13:0.60632646 14:0.20126766 15:0 16:0 17:0.40404686 18:0.18845081 19:0.28511366 20:0 21:0 22:0 23:0 24:0.1177531 25:0 26:0.24917197 27:0 28:0 29:0 30:0 31:0.10165701 32:0 33:0.24567796 34:0 35:0 36:0.11415572 37:0.17247799 38:0.12050983 39:0.13986848 40:0 41:0 42:0 43:0.63030338 44:0.098310612 45:0.19290952 46:0.15594374 47:0.32166249 48:0.087673023 49:0.13524766 50:0.2988264 51:0.18046868 52:0 53:0 54:0.2378296 55:0 56:0.23896517 57:0 58:0 59:0 60:0.13778126 61:0 62:0 63:0.022721406 64:0.99974185 65:0 66:0 67:0.99986112 68:0.016664352 69:0.65795976 70:0.75305313 71:1 #
-7.0422535211267607696268393258077e-06 1:0 2:0.30811077 3:0.35238895 4:0.26845884 5:0 6:0 7:0 8:0 9:0 10:0 11:0 12:0 13:0.20756176 14:0 15:0 16:0 17:0 18:0.32255876 19:0 20:0.30439574 21:0.3530612 22:0 23:0 24:0.40310037 25:0 26:0.42649117 27:0 28:0 29:0 30:0 31:0.10165701 32:0 33:0.24567796 34:0 35:0 36:0.11415572 37:0.17247799 38:0.12050983 39:0.13986848 40:0 41:0 42:0 43:0.63030338 44:0.098310612 45:0.19290952 46:0.15594374 47:0.32166249 48:0.087673023 49:0.13524766 50:0.2988264 51:0.18046868 52:0 53:0 54:0.2378296 55:0 56:0.23896517 57:0 58:0 59:0 60:0.13778126 61:0 62:0 63:0.03569153 64:0.99936283 65:0 66:0 67:0.99986112 68:0.016664352 69:0.58753276 70:0.80920041 71:1 #
4.2253521126760562923695141446245e-05 1:0 2:0 3:0 4:0.29057032 5:0 6:0.46374711 7:0 8:0 9:0 10:0 11:0 12:0 13:0.56164372 14:0.1864354 15:0 16:0 17:0.37427098 18:0 19:0 20:0.32946712 21:0.19107045 22:0 23:0 24:0.10907538 25:0 26:0.23080945 27:0 28:0 29:0 30:0 31:0.10165701 32:0 33:0.24567796 34:0 35:0 36:0.11415572 37:0.17247799 38:0.12050983 39:0.13986848 40:0 41:0 42:0 43:0.63030338 44:0.098310612 45:0.19290952 46:0.15594374 47:0.32166249 48:0.087673023 49:0.13524766 50:0.2988264 51:0.18046868 52:0 53:0 54:0.2378296 55:0 56:0.23896517 57:0 58:0 59:0 60:0.13778126 61:0 62:0 63:0.010163421 64:0.44719049 65:0 66:0.89438099 67:0.99986112 68:0.016664352 69:0.68383449 70:0.72963715 71:1 #
-7.0422535211267607696268393258077e-06 1:0 2:0 3:0 4:0.18146272 5:0 6:0 7:0 8:0 9:0 10:0.17738189 11:0 12:0.20790347 13:0.56119919 14:0.23285982 15:0 16:0 17:0.46746844 18:0 19:0.32986677 20:0.20575398 21:0.23864903 22:0 23:0 24:0.13623631 25:0 26:0 27:0 28:0.27933434 29:0 30:0 31:0.10165701 32:0 33:0.24567796 34:0 35:0 36:0.11415572 37:0.17247799 38:0.12050983 39:0.13986848 40:0 41:0 42:0 43:0.63030338 44:0.098310612 45:0.19290952 46:0.15594374 47:0.32166249 48:0.087673023 49:0.13524766 50:0.2988264 51:0.18046868 52:0 53:0 54:0.2378296 55:0 56:0.23896517 57:0 58:0 59:0 60:0.13778126 61:0 62:0 63:0.033314832 64:0.9994449 65:0 66:0 67:0.99986112 68:0.016664352 69:0.69152123 70:0.72235614 71:1 #
4.2253521126760562923695141446245e-05 1:0 2:0 3:0 4:0.26237771 5:0 6:0.41875201 7:0 8:0 9:0 10:0 11:0 12:0 13:0.60858017 14:0.16834649 15:0 16:0 17:0.50693595 18:0.15762608 19:0 20:0.14875028 21:0 22:0 23:0 24:0.098492332 25:0 26:0.20841514 27:0 28:0 29:0 30:0 31:0.10165701 32:0 33:0.24567796 34:0 35:0 36:0.11415572 37:0.17247799 38:0.12050983 39:0.13986848 40:0 41:0 42:0 43:0.63030338 44:0.098310612 45:0.19290952 46:0.15594374 47:0.32166249 48:0.087673023 49:0.13524766 50:0.2988264 51:0.18046868 52:0 53:0 54:0.2378296 55:0 56:0.23896517 57:0 58:0 59:0 60:0.13778126 61:0 62:0 63:0.022721406 64:0.99974185 65:0 66:0 67:0.99986112 68:0.016664352 69:0.69136816 70:0.72250259 71:1 #
4.2253521126760562923695141446245e-05 1:0 2:0.21039049 3:0.12031271 4:0.18331456 5:0 6:0 7:0.10303531 8:0 9:0.17696503 10:0 11:0 12:0 13:0.28346312 14:0.11761808 15:0 16:0.18920469 17:0.11805974 18:0 19:0 20:0.51963425 21:0.48216891 22:0 23:0 24:0.34406653 25:0 26:0.1456127 27:0.18309754 28:0 29:0.15414892 30:0.14974523 31:0.10165701 32:0 33:0.24567796 34:0 35:0 36:0.11415572 37:0.17247799 38:0.12050983 39:0.13986848 40:0 41:0 42:0 43:0.63030338 44:0.098310612 45:0.19290952 46:0.15594374 47:0.32166249 48:0.087673023 49:0.13524766 50:0.2988264 51:0.18046868 52:0 53:0 54:0.2378296 55:0 56:0.23896517 57:0 58:0 59:0 60:0.13778126 61:0 62:0 63:0.0029252023 64:0.67572176 65:0 66:0.73715097 67:0.99986112 68:0.016664352 69:0.65635455 70:0.75445259 71:1 #
-6.3380281690140851161806290203771e-05 1:0 2:0 3:0 4:0.21246818 5:0 6:0 7:0 8:0 9:0 10:0 11:0 12:0 13:0.65708798 14:0.2726472 15:0 16:0 17:0.547342 18:0 19:0.38622916 20:0 21:0 22:0 23:0 24:0 25:0 26:0 27:0 28:0 29:0 30:0 31:0.10165701 32:0 33:0.24567796 34:0 35:0 36:0.11415572 37:0.17247799 38:0.12050983 39:0.13986848 40:0 41:0 42:0 43:0.63030338 44:0.098310612 45:0.19290952 46:0.15594374 47:0.32166249 48:0.087673023 49:0.13524766 50:0.2988264 51:0.18046868 52:0 53:0 54:0.2378296 55:0 56:0.23896517 57:0 58:0 59:0 60:0.13778126 61:0 62:0 63:0.071247049 64:0.9974587 65:0 66:0 67:0.99986112 68:0.016664352 69:0.69234502 70:0.72156662 71:1 #
-2.8169014084507043078507357303231e-05 1:0 2:0.115518 3:0 4:0.10065156 5:0 6:0 7:0.11314611 8:0 9:0.19433051 10:0 11:0 12:0 13:0.1556396 14:0 15:0 16:0.20777124 17:0.12964489 18:0 19:0 20:0.57062572 21:0.52948391 22:0 23:0 24:0.37782961 25:0 26:0.1599016 27:0.20106481 28:0 29:0 30:0.16443965 31:0.10165701 32:0 33:0.24567796 34:0 35:0 36:0.11415572 37:0.17247799 38:0.12050983 39:0.13986848 40:0 41:0 42:0 43:0.63030338 44:0.098310612 45:0.19290952 46:0.15594374 47:0.32166249 48:0.087673023 49:0.13524766 50:0.2988264 51:0.18046868 52:0 53:0 54:0.2378296 55:0 56:0.23896517 57:0 58:0 59:0 60:0.13778126 61:0 62:0 63:0.0037657639 64:0.64017987 65:0 66:0.76821584 67:0.99986112 68:0.016664352 69:0.65295804 70:0.75739408 71:1 #
-6.3380281690140851161806290203771e-05 1:0 2:0 3:0 4:0.19525327 5:0 6:0 7:0 8:0 9:0 10:0.1908623 11:0 12:0 13:0.3019242 14:0.25055635 15:0 16:0 17:0.25149721 18:0 19:0 20:0 21:0 22:0 23:0 24:0.43976942 25:0 26:0 27:0 28:0 29:0.32837632 30:0.63799065 31:0.10165701 32:0 33:0.24567796 34:0 35:0 36:0.11415572 37:0.17247799 38:0.12050983 39:0.13986848 40:0 41:0 42:0 43:0.63030338 44:0.098310612 45:0.19290952 46:0.15594374 47:0.32166249 48:0.087673023 49:0.13524766 50:0.2988264 51:0.18046868 52:0 53:0 54:0.2378296 55:0 56:0.23896517 57:0 58:0 59:0 60:0.13778126 61:0 62:0 63:0.062378287 64:0.9980526 65:0 66:0 67:0.99986112 68:0.016664352 69:0.73641437 70:0.67653078 71:1 #
-6.3380281690140851161806290203771e-05 1:0 2:0.36984217 3:0 4:0.1611229 5:0.25249916 6:0 7:0 8:0 9:0 10:0.15749948 11:0 12:0.18459997 13:0.12457386 14:0 15:0 16:0 17:0 18:0 19:0 20:0.36538279 21:0.42379862 22:0 23:0 24:0.36289752 25:0.3456597 26:0.2559703 27:0 28:0 29:0 30:0.26323479 31:0.10165701 32:0 33:0.24567796 34:0 35:0 36:0.11415572 37:0.17247799 38:0.12050983 39:0.13986848 40:0 41:0 42:0 43:0.63030338 44:0.098310612 45:0.19290952 46:0.15594374 47:0.32166249 48:0.087673023 49:0.13524766 50:0.2988264 51:0.18046868 52:0 53:0 54:0.2378296 55:0 56:0.23896517 57:0 58:0 59:0 60:0.13778126 61:0 62:0 63:0.0096358974 64:0.52997434 65:0 66:0.84795892 67:0.99986112 68:0.016664352 69:0.64005613 70:0.76832813 71:1 #
4.2253521126760562923695141446245e-05 1:0 2:0 3:0 4:0.35867414 5:0 6:0.28622001 7:0 8:0 9:0 10:0.17530403 11:0 12:0.20546809 13:0.55462527 14:0.23013209 15:0 16:0 17:0.23099625 18:0 19:0.32600269 20:0.20334376 21:0.23585349 22:0 23:0 24:0.13464044 25:0 26:0.28490651 27:0 28:0 29:0 30:0 31:0.10165701 32:0 33:0.24567796 34:0 35:0 36:0.11415572 37:0.17247799 38:0.12050983 39:0.13986848 40:0 41:0 42:0 43:0.63030338 44:0.098310612 45:0.19290952 46:0.15594374 47:0.32166249 48:0.087673023 49:0.13524766 50:0.2988264 51:0.18046868 52:0 53:0 54:0.2378296 55:0 56:0.23896517 57:0 58:0 59:0 60:0.13778126 61:0 62:0 63:0.010163421 64:0.44719049 65:0 66:0.89438099 67:0.99986112 68:0.016664352 69:0.66207188 70:0.74944031 71:1 #
-6.3380281690140851161806290203771e-05 1:0 2:0 3:0 4:0.22721413 5:0 6:0 7:0 8:0 9:0 10:0 11:0 12:0 13:0.35134596 14:0 15:0 16:0 17:0.29266462 18:0 19:0 20:0.51525968 21:0.29881856 22:0 23:0 24:0.34116995 25:0 26:0.36096713 27:0 28:0 29:0 30:0.37121144 31:0.10165701 32:0 33:0.24567796 34:0 35:0 36:0.11415572 37:0.17247799 38:0.12050983 39:0.13986848 40:0 41:0 42:0 43:0.63030338 44:0.098310612 45:0.19290952 46:0.15594374 47:0.32166249 48:0.087673023 49:0.13524766 50:0.2988264 51:0.18046868 52:0 53:0 54:0.2378296 55:0 56:0.23896517 57:0 58:0 59:0 60:0.13778126 61:0 62:0 63:0.031234752 64:0.99951208 65:0 66:0 67:0.99986112 68:0.016664352 69:0.64258766 70:0.76621217 71:1 #
4.2253521126760562923695141446245e-05 1:0 2:0.11694843 3:0 4:0.20379582 5:0 6:0 7:0.11454717 8:0 9:0.19673687 10:0.099606372 11:0 12:0 13:0.31513372 14:0.13075924 15:0 16:0.21034403 17:0.13125025 18:0 19:0.18523216 20:0.46215332 21:0.40203029 22:0 23:0 24:0.38250819 25:0 26:0.16188163 27:0.20355456 28:0.15685637 29:0.17137158 30:0.16647586 31:0.10165701 32:0 33:0.24567796 34:0 35:0 36:0.11415572 37:0.17247799 38:0.12050983 39:0.13986848 40:0 41:0 42:0 43:0.63030338 44:0.098310612 45:0.19290952 46:0.15594374 47:0.32166249 48:0.087673023 49:0.13524766 50:0.2988264 51:0.18046868 52:0 53:0 54:0.2378296 55:0 56:0.23896517 57:0 58:0 59:0 60:0.13778126 61:0 62:0 63:0.0027677903 64:0.58123595 65:0 66:0.81373036 67:0.99986112 68:0.016664352 69:0.66441 70:0.74736828 71:1 #
8.4507042253521125847390282892491e-05 1:0 2:0.18000975 3:0.20587872 4:0.31368726 5:0 6:0.25032076 7:0 8:0 9:0 10:0 11:0 12:0 13:0.60632646 14:0.20126766 15:0 16:0 17:0.40404686 18:0.18845081 19:0.28511366 20:0 21:0 22:0 23:0 24:0.1177531 25:0 26:0.24917197 27:0 28:0 29:0 30:0 31:0.10165701 32:0 33:0.24567796 34:0 35:0 36:0.11415572 37:0.17247799 38:0.12050983 39:0.13986848 40:0 41:0 42:0 43:0.63030338 44:0.098310612 45:0.19290952 46:0.15594374 47:0.32166249 48:0.087673023 49:0.13524766 50:0.2988264 51:0.18046868 52:0 53:0 54:0.2378296 55:0 56:0.23896517 57:0 58:0 59:0 60:0.13778126 61:0 62:0 63:0.022721406 64:0.99974185 65:0 66:0 67:0.99986112 68:0.016664352 69:0.65795976 70:0.75305313 71:1 #
-7.0422535211267607696268393258077e-06 1:0 2:0.30811077 3:0.35238895 4:0.26845884 5:0 6:0 7:0 8:0 9:0 10:0 11:0 12:0 13:0.20756176 14:0 15:0 16:0 17:0 18:0.32255876 19:0 20:0.30439574 21:0.3530612 22:0 23:0 24:0.40310037 25:0 26:0.42649117 27:0 28:0 29:0 30:0 31:0.10165701 32:0 33:0.24567796 34:0 35:0 36:0.11415572 37:0.17247799 38:0.12050983 39:0.13986848 40:0 41:0 42:0 43:0.63030338 44:0.098310612 45:0.19290952 46:0.15594374 47:0.32166249 48:0.087673023 49:0.13524766 50:0.2988264 51:0.18046868 52:0 53:0 54:0.2378296 55:0 56:0.23896517 57:0 58:0 59:0 60:0.13778126 61:0 62:0 63:0.03569153 64:0.99936283 65:0 66:0 67:0.99986112 68:0.016664352 69:0.58753276 70:0.80920041 71:1 #
4.2253521126760562923695141446245e-05 1:0 2:0 3:0 4:0.29057032 5:0 6:0.46374711 7:0 8:0 9:0 10:0 11:0 12:0 13:0.56164372 14:0.1864354 15:0 16:0 17:0.37427098 18:0 19:0 20:0.32946712 21:0.19107045 22:0 23:0 24:0.10907538 25:0 26:0.23080945 27:0 28:0 29:0 30:0 31:0.10165701 32:0 33:0.24567796 34:0 35:0 36:0.11415572 37:0.17247799 38:0.12050983 39:0.13986848 40:0 41:0 42:0 43:0.63030338 44:0.098310612 45:0.19290952 46:0.15594374 47:0.32166249 48:0.087673023 49:0.13524766 50:0.2988264 51:0.18046868 52:0 53:0 54:0.2378296 55:0 56:0.23896517 57:0 58:0 59:0 60:0.13778126 61:0 62:0 63:0.010163421 64:0.44719049 65:0 66:0.89438099 67:0.99986112 68:0.016664352 69:0.68383449 70:0.72963715 71:1 #
-7.0422535211267607696268393258077e-06 1:0 2:0 3:0 4:0.18146272 5:0 6:0 7:0 8:0 9:0 10:0.17738189 11:0 12:0.20790347 13:0.56119919 14:0.23285982 15:0 16:0 17:0.46746844 18:0 19:0.32986677 20:0.20575398 21:0.23864903 22:0 23:0 24:0.13623631 25:0 26:0 27:0 28:0.27933434 29:0 30:0 31:0.10165701 32:0 33:0.24567796 34:0 35:0 36:0.11415572 37:0.17247799 38:0.12050983 39:0.13986848 40:0 41:0 42:0 43:0.63030338 44:0.098310612 45:0.19290952 46:0.15594374 47:0.32166249 48:0.087673023 49:0.13524766 50:0.2988264 51:0.18046868 52:0 53:0 54:0.2378296 55:0 56:0.23896517 57:0 58:0 59:0 60:0.13778126 61:0 62:0 63:0.033314832 64:0.9994449 65:0 66:0 67:0.99986112 68:0.016664352 69:0.69152123 70:0.72235614 71:1 #
4.2253521126760562923695141446245e-05 1:0 2:0 3:0 4:0.26237771 5:0 6:0.41875201 7:0 8:0 9:0 10:0 11:0 12:0 13:0.60858017 14:0.16834649 15:0 16:0 17:0.50693595 18:0.15762608 19:0 20:0.14875028 21:0 22:0 23:0 24:0.098492332 25:0 26:0.20841514 27:0 28:0 29:0 30:0 31:0.10165701 32:0 33:0.24567796 34:0 35:0 36:0.11415572 37:0.17247799 38:0.12050983 39:0.13986848 40:0 41:0 42:0 43:0.63030338 44:0.098310612 45:0.19290952 46:0.15594374 47:0.32166249 48:0.087673023 49:0.13524766 50:0.2988264 51:0.18046868 52:0 53:0 54:0.2378296 55:0 56:0.23896517 57:0 58:0 59:0 60:0.13778126 61:0 62:0 63:0.022721406 64:0.99974185 65:0 66:0 67:0.99986112 68:0.016664352 69:0.69136816 70:0.72250259 71:1 #
4.2253521126760562923695141446245e-05 1:0 2:0.21039049 3:0.12031271 4:0.18331456 5:0 6:0 7:0.10303531 8:0 9:0.17696503 10:0 11:0 12:0 13:0.28346312 14:0.11761808 15:0 16:0.18920469 17:0.11805974 18:0 19:0 20:0.51963425 21:0.48216891 22:0 23:0 24:0.34406653 25:0 26:0.1456127 27:0.18309754 28:0 29:0.15414892 30:0.14974523 31:0.10165701 32:0 33:0.24567796 34:0 35:0 36:0.11415572 37:0.17247799 38:0.12050983 39:0.13986848 40:0 41:0 42:0 43:0.63030338 44:0.098310612 45:0.19290952 46:0.15594374 47:0.32166249 48:0.087673023 49:0.13524766 50:0.2988264 51:0.18046868 52:0 53:0 54:0.2378296 55:0 56:0.23896517 57:0 58:0 59:0 60:0.13778126 61:0 62:0 63:0.0029252023 64:0.67572176 65:0 66:0.73715097 67:0.99986112 68:0.016664352 69:0.65635455 70:0.75445259 71:1 #
-6.3380281690140851161806290203771e-05 1:0 2:0 3:0 4:0.21246818 5:0 6:0 7:0 8:0 9:0 10:0 11:0 12:0 13:0.65708798 14:0.2726472 15:0 16:0 17:0.547342 18:0 19:0.38622916 20:0 21:0 22:0 23:0 24:0 25:0 26:0 27:0 28:0 29:0 30:0 31:0.10165701 32:0 33:0.24567796 34:0 35:0 36:0.11415572 37:0.17247799 38:0.12050983 39:0.13986848 40:0 41:0 42:0 43:0.63030338 44:0.098310612 45:0.19290952 46:0.15594374 47:0.32166249 48:0.087673023 49:0.13524766 50:0.2988264 51:0.18046868 52:0 53:0 54:0.2378296 55:0 56:0.23896517 57:0 58:0 59:0 60:0.13778126 61:0 62:0 63:0.071247049 64:0.9974587 65:0 66:0 67:0.99986112 68:0.016664352 69:0.69234502 70:0.72156662 71:1 #
-2.8169014084507043078507357303231e-05 1:0 2:0.115518 3:0 4:0.10065156 5:0 6:0 7:0.11314611 8:0 9:0.19433051 10:0 11:0 12:0 13:0.1556396 14:0 15:0 16:0.20777124 17:0.12964489 18:0 19:0 20:0.57062572 21:0.52948391 22:0 23:0 24:0.37782961 25:0 26:0.1599016 27:0.20106481 28:0 29:0 30:0.16443965 31:0.10165701 32:0 33:0.24567796 34:0 35:0 36:0.11415572 37:0.17247799 38:0.12050983 39:0.13986848 40:0 41:0 42:0 43:0.63030338 44:0.098310612 45:0.19290952 46:0.15594374 47:0.32166249 48:0.087673023 49:0.13524766 50:0.2988264 51:0.18046868 52:0 53:0 54:0.2378296 55:0 56:0.23896517 57:0 58:0 59:0 60:0.13778126 61:0 62:0 63:0.0037657639 64:0.64017987 65:0 66:0.76821584 67:0.99986112 68:0.016664352 69:0.65295804 70:0.75739408 71:1 #
-6.3380281690140851161806290203771e-05 1:0 2:0 3:0 4:0.19525327 5:0 6:0 7:0 8:0 9:0 10:0.1908623 11:0 12:0 13:0.3019242 14:0.25055635 15:0 16:0 17:0.25149721 18:0 19:0 20:0 21:0 22:0 23:0 24:0.43976942 25:0 26:0 27:0 28:0 29:0.32837632 30:0.63799065 31:0.10165701 32:0 33:0.24567796 34:0 35:0 36:0.11415572 37:0.17247799 38:0.12050983 39:0.13986848 40:0 41:0 42:0 43:0.63030338 44:0.098310612 45:0.19290952 46:0.15594374 47:0.32166249 48:0.087673023 49:0.13524766 50:0.2988264 51:0.18046868 52:0 53:0 54:0.2378296 55:0 56:0.23896517 57:0 58:0 59:0 60:0.13778126 61:0 62:0 63:0.062378287 64:0.9980526 65:0 66:0 67:0.99986112 68:0.016664352 69:0.73641437 70:0.67653078 71:1 #
-6.3380281690140851161806290203771e-05 1:0 2:0.36984217 3:0 4:0.1611229 5:0.25249916 6:0 7:0 8:0 9:0 10:0.15749948 11:0 12:0.18459997 13:0.12457386 14:0 15:0 16:0 17:0 18:0 19:0 20:0.36538279 21:0.42379862 22:0 23:0 24:0.36289752 25:0.3456597 26:0.2559703 27:0 28:0 29:0 30:0.26323479 31:0.10165701 32:0 33:0.24567796 34:0 35:0 36:0.11415572 37:0.17247799 38:0.12050983 39:0.13986848 40:0 41:0 42:0 43:0.63030338 44:0.098310612 45:0.19290952 46:0.15594374 47:0.32166249 48:0.087673023 49:0.13524766 50:0.2988264 51:0.18046868 52:0 53:0 54:0.2378296 55:0 56:0.23896517 57:0 58:0 59:0 60:0.13778126 61:0 62:0 63:0.0096358974 64:0.52997434 65:0 66:0.84795892 67:0.99986112 68:0.016664352 69:0.64005613 70:0.76832813 71:1 #
4.2253521126760562923695141446245e-05 1:0 2:0 3:0 4:0.35867414 5:0 6:0.28622001 7:0 8:0 9:0 10:0.17530403 11:0 12:0.20546809 13:0.55462527 14:0.23013209 15:0 16:0 17:0.23099625 18:0 19:0.32600269 20:0.20334376 21:0.23585349 22:0 23:0 24:0.13464044 25:0 26:0.28490651 27:0 28:0 29:0 30:0 31:0.10165701 32:0 33:0.24567796 34:0 35:0 36:0.11415572 37:0.17247799 38:0.12050983 39:0.13986848 40:0 41:0 42:0 43:0.63030338 44:0.098310612 45:0.19290952 46:0.15594374 47:0.32166249 48:0.087673023 49:0.13524766 50:0.2988264 51:0.18046868 52:0 53:0 54:0.2378296 55:0 56:0.23896517 57:0 58:0 59:0 60:0.13778126 61:0 62:0 63:0.010163421 64:0.44719049 65:0 66:0.89438099 67:0.99986112 68:0.016664352 69:0.66207188 70:0.74944031 71:1 #
-6.3380281690140851161806290203771e-05 1:0 2:0 3:0 4:0.22721413 5:0 6:0 7:0 8:0 9:0 10:0 11:0 12:0 13:0.35134596 14:0 15:0 16:0 17:0.29266462 18:0 19:0 20:0.51525968 21:0.29881856 22:0 23:0 24:0.34116995 25:0 26:0.36096713 27:0 28:0 29:0 30:0.37121144 31:0.10165701 32:0 33:0.24567796 34:0 35:0 36:0.11415572 37:0.17247799 38:0.12050983 39:0.13986848 40:0 41:0 42:0 43:0.63030338 44:0.098310612 45:0.19290952 46:0.15594374 47:0.32166249 48:0.087673023 49:0.13524766 50:0.2988264 51:0.18046868 52:0 53:0 54:0.2378296 55:0 56:0.23896517 57:0 58:0 59:0 60:0.13778126 61:0 62:0 63:0.031234752 64:0.99951208 65:0 66:0 67:0.99986112 68:0.016664352 69:0.64258766 70:0.76621217 71:1 #
2.1126760563380281461847570723123e-05 1:0 2:0 3:0 4:0 5:0 6:0 7:0 8:0 9:0 10:0 11:0 12:0 13:0.47817296 14:0 15:0 16:0 17:0.39830914 18:0 19:0 20:0.35062769 21:0.40668452 22:0 23:0 24:0.23216185 25:0 26:0 27:0 28:0 29:0.52006656 30:0 31:0.21825214 32:0.23553145 33:0 34:0 35:0 36:0 37:0 38:0 39:0 40:0 41:0 42:0 43:0.67661375 44:0 45:0 46:0 47:0.46039468 48:0.18822928 49:0 50:0 51:0 52:0 53:0 54:0.17020245 55:0.40338865 56:0 57:0 58:0 59:0 60:0 61:0 62:0 63:0.19611613 64:0.98058069 65:0 66:0 67:0.99846035 68:0.05547002 69:0.61366546 70:0.78956616 71:1 #
-1.4084507042253521539253678651615e-05 1:0 2:0.3338362 3:0.38181135 4:0 5:0 6:0 7:0 8:0 9:0 10:0 11:0 12:0 13:0.22489195 14:0 15:0 16:0 17:0 18:0 19:0 20:0.32981098 21:0.38253972 22:0 23:0 24:0.21837844 25:0.62401605 26:0 27:0 28:0 29:0 30:0 31:0.21825214 32:0.23553145 33:0 34:0 35:0 36:0 37:0 38:0 39:0 40:0 41:0 42:0 43:0.67661375 44:0 45:0 46:0 47:0.46039468 48:0.18822928 49:0 50:0 51:0 52:0 53:0 54:0.17020245 55:0.40338865 56:0 57:0 58:0 59:0 60:0 61:0 62:0 63:0.099503718 64:0.9950372 65:0 66:0 67:0.99846035 68:0.05547002 69:0.77052969 70:0.63740408 71:1 #
-1.4084507042253521539253678651615e-05 1:0 2:0.22573188 3:0.2581715 4:0 5:0 6:0 7:0 8:0 9:0 10:0 11:0 12:0 13:0.6082657 14:0 15:0 16:0 17:0.50667399 18:0.23631695 19:0 20:0 21:0 22:0 23:0 24:0.14766216 25:0.42194438 26:0 27:0 28:0 29:0 30:0 31:0.21825214 32:0.23553145 33:0 34:0 35:0 36:0 37:0 38:0 39:0 40:0 41:0 42:0 43:0.67661375 44:0 45:0 46:0 47:0.46039468 48:0.18822928 49:0 50:0 51:0 52:0 53:0 54:0.17020245 55:0.40338865 56:0 57:0 58:0 59:0 60:0 61:0 62:0 63:1 64:0 65:0 66:0 67:0.99846035 68:0.05547002 69:0.67671025 70:0.73624945 71:1 #
3.5211267605633804695167143883339e-05 1:0 2:0.22573188 3:0.2581715 4:0 5:0 6:0 7:0 8:0 9:0 10:0 11:0 12:0 13:0.6082657 14:0 15:0 16:0 17:0.50667399 18:0.23631695 19:0 20:0 21:0 22:0 23:0 24:0.14766216 25:0.42194438 26:0 27:0 28:0 29:0 30:0 31:0.21825214 32:0.23553145 33:0 34:0 35:0 36:0 37:0 38:0 39:0 40:0 41:0 42:0 43:0.67661375 44:0 45:0 46:0 47:0.46039468 48:0.18822928 49:0 50:0 51:0 52:0 53:0 54:0.17020245 55:0.40338865 56:0 57:0 58:0 59:0 60:0 61:0 62:0 63:1 64:0 65:0 66:0 67:0.99846035 68:0.05547002 69:0.65230608 70:0.75795561 71:1 #
-1.4084507042253521539253678651615e-05 1:0 2:0.2936874 3:0.3358928 4:0 5:0 6:0 7:0 8:0 9:0 10:0 11:0 12:0 13:0.39569062 14:0 15:0 16:0 17:0.3296029 18:0 19:0 20:0.29014626 21:0.33653358 22:0 23:0 24:0.19211514 25:0.54896873 26:0 27:0 28:0 29:0 30:0 31:0.21825214 32:0.23553145 33:0 34:0 35:0 36:0 37:0 38:0 39:0 40:0 41:0 42:0 43:0.67661375 44:0 45:0 46:0 47:0.46039468 48:0.18822928 49:0 50:0 51:0 52:0 53:0 54:0.17020245 55:0.40338865 56:0 57:0 58:0 59:0 60:0 61:0 62:0 63:0.16439898 64:0.98639393 65:0 66:0 67:0.99846035 68:0.05547002 69:0.70628309 70:0.70792955 71:1 #
-1.4084507042253521539253678651615e-05 1:0 2:0.2936874 3:0.3358928 4:0 5:0 6:0 7:0 8:0 9:0 10:0 11:0 12:0 13:0.39569062 14:0 15:0 16:0 17:0.3296029 18:0 19:0 20:0.29014626 21:0.33653358 22:0 23:0 24:0.19211514 25:0.54896873 26:0 27:0 28:0 29:0 30:0 31:0.21825214 32:0.23553145 33:0 34:0 35:0 36:0 37:0 38:0 39:0 40:0 41:0 42:0 43:0.67661375 44:0 45:0 46:0 47:0.46039468 48:0.18822928 49:0 50:0 51:0 52:0 53:0 54:0.17020245 55:0.40338865 56:0 57:0 58:0 59:0 60:0 61:0 62:0 63:0.16439898 64:0.98639393 65:0 66:0 67:0.99846035 68:0.05547002 69:0.70628309 70:0.70792955 71:1 #
2.1126760563380281461847570723123e-05 1:0 2:0 3:0 4:0 5:0 6:0 7:0 8:0 9:0 10:0 11:0 12:0 13:0.47817296 14:0 15:0 16:0 17:0.39830914 18:0 19:0 20:0.35062769 21:0.40668452 22:0 23:0 24:0.23216185 25:0 26:0 27:0 28:0 29:0.52006656 30:0 31:0.21825214 32:0.23553145 33:0 34:0 35:0 36:0 37:0 38:0 39:0 40:0 41:0 42:0 43:0.67661375 44:0 45:0 46:0 47:0.46039468 48:0.18822928 49:0 50:0 51:0 52:0 53:0 54:0.17020245 55:0.40338865 56:0 57:0 58:0 59:0 60:0 61:0 62:0 63:0.19611613 64:0.98058069 65:0 66:0 67:0.99846035 68:0.05547002 69:0.61366546 70:0.78956616 71:1 #
-1.4084507042253521539253678651615e-05 1:0 2:0.3338362 3:0.38181135 4:0 5:0 6:0 7:0 8:0 9:0 10:0 11:0 12:0 13:0.22489195 14:0 15:0 16:0 17:0 18:0 19:0 20:0.32981098 21:0.38253972 22:0 23:0 24:0.21837844 25:0.62401605 26:0 27:0 28:0 29:0 30:0 31:0.21825214 32:0.23553145 33:0 34:0 35:0 36:0 37:0 38:0 39:0 40:0 41:0 42:0 43:0.67661375 44:0 45:0 46:0 47:0.46039468 48:0.18822928 49:0 50:0 51:0 52:0 53:0 54:0.17020245 55:0.40338865 56:0 57:0 58:0 59:0 60:0 61:0 62:0 63:0.099503718 64:0.9950372 65:0 66:0 67:0.99846035 68:0.05547002 69:0.77052969 70:0.63740408 71:1 #
-1.4084507042253521539253678651615e-05 1:0 2:0.22573188 3:0.2581715 4:0 5:0 6:0 7:0 8:0 9:0 10:0 11:0 12:0 13:0.6082657 14:0 15:0 16:0 17:0.50667399 18:0.23631695 19:0 20:0 21:0 22:0 23:0 24:0.14766216 25:0.42194438 26:0 27:0 28:0 29:0 30:0 31:0.21825214 32:0.23553145 33:0 34:0 35:0 36:0 37:0 38:0 39:0 40:0 41:0 42:0 43:0.67661375 44:0 45:0 46:0 47:0.46039468 48:0.18822928 49:0 50:0 51:0 52:0 53:0 54:0.17020245 55:0.40338865 56:0 57:0 58:0 59:0 60:0 61:0 62:0 63:1 64:0 65:0 66:0 67:0.99846035 68:0.05547002 69:0.67671025 70:0.73624945 71:1 #
3.5211267605633804695167143883339e-05 1:0 2:0.22573188 3:0.2581715 4:0 5:0 6:0 7:0 8:0 9:0 10:0 11:0 12:0 13:0.6082657 14:0 15:0 16:0 17:0.50667399 18:0.23631695 19:0 20:0 21:0 22:0 23:0 24:0.14766216 25:0.42194438 26:0 27:0 28:0 29:0 30:0 31:0.21825214 32:0.23553145 33:0 34:0 35:0 36:0 37:0 38:0 39:0 40:0 41:0 42:0 43:0.67661375 44:0 45:0 46:0 47:0.46039468 48:0.18822928 49:0 50:0 51:0 52:0 53:0 54:0.17020245 55:0.40338865 56:0 57:0 58:0 59:0 60:0 61:0 62:0 63:1 64:0 65:0 66:0 67:0.99846035 68:0.05547002 69:0.65230608 70:0.75795561 71:1 #
-1.4084507042253521539253678651615e-05 1:0 2:0.2936874 3:0.3358928 4:0 5:0 6:0 7:0 8:0 9:0 10:0 11:0 12:0 13:0.39569062 14:0 15:0 16:0 17:0.3296029 18:0 19:0 20:0.29014626 21:0.33653358 22:0 23:0 24:0.19211514 25:0.54896873 26:0 27:0 28:0 29:0 30:0 31:0.21825214 32:0.23553145 33:0 34:0 35:0 36:0 37:0 38:0 39:0 40:0 41:0 42:0 43:0.67661375 44:0 45:0 46:0 47:0.46039468 48:0.18822928 49:0 50:0 51:0 52:0 53:0 54:0.17020245 55:0.40338865 56:0 57:0 58:0 59:0 60:0 61:0 62:0 63:0.16439898 64:0.98639393 65:0 66:0 67:0.99846035 68:0.05547002 69:0.70628309 70:0.70792955 71:1 #
-1.4084507042253521539253678651615e-05 1:0 2:0.2936874 3:0.3358928 4:0 5:0 6:0 7:0 8:0 9:0 10:0 11:0 12:0 13:0.39569062 14:0 15:0 16:0 17:0.3296029 18:0 19:0 20:0.29014626 21:0.33653358 22:0 23:0 24:0.19211514 25:0.54896873 26:0 27:0 28:0 29:0 30:0 31:0.21825214 32:0.23553145 33:0 34:0 35:0 36:0 37:0 38:0 39:0 40:0 41:0 42:0 43:0.67661375 44:0 45:0 46:0 47:0.46039468 48:0.18822928 49:0 50:0 51:0 52:0 53:0 54:0.17020245 55:0.40338865 56:0 57:0 58:0 59:0 60:0 61:0 62:0 63:0.16439898 64:0.98639393 65:0 66:0 67:0.99846035 68:0.05547002 69:0.70628309 70:0.70792955 71:1 #
-2.8169014084507043078507357303231e-05 1:0 2:0 3:0 4:0 5:0 6:0 7:0 8:0 9:0 10:0.21873176 11:0 12:0.25636831 13:0.17300539 14:0 15:0 16:0 17:0 18:0.26885685 19:0 20:0.25371772 21:0.29428101 22:0.35630324 23:0 24:0.50398397 25:0 26:0 27:0 28:0.34445056 29:0 30:0.3655746 31:0.33036599 32:0.35652152 33:0.13306779 34:0.31095752 35:0 36:0 37:0 38:0 39:0 40:0.14312656 41:0.25659451 42:0 43:0.51209158 44:0 45:0 46:0 47:0.17422366 48:0.14246035 49:0 50:0.24278226 51:0 52:0 53:0 54:0.25763369 55:0 56:0 57:0 58:0.27330434 59:0 60:0.22388147 61:0 62:0 63:0.02499219 64:0.99968767 65:0 66:0 67:0 68:1 69:0.59361959 70:0.80474579 71:1 #
2.1126760563380281461847570723123e-05 1:0 2:0.20177892 3:0.2307763 4:0.17581125 5:0 6:0 7:0 8:0 9:0 10:0.17185751 11:0 12:0.20142853 13:0.2718606 14:0 15:0 16:0 17:0 18:0.42248157 19:0 20:0.19934596 21:0 22:0.2799474 23:0 24:0.52797347 25:0 26:0 27:0 28:0.27063474 29:0 30:0.28723189 31:0.33036599 32:0.35652152 33:0.13306779 34:0.31095752 35:0 36:0 37:0 38:0 39:0 40:0.14312656 41:0.25659451 42:0 43:0.51209158 44:0 45:0 46:0 47:0.17422366 48:0.14246035 49:0 50:0.24278226 51:0 52:0 53:0 54:0.25763369 55:0 56:0 57:0 58:0.27330434 59:0 60:0.22388147 61:0 62:0 63:0.011903918 64:0.99992913 65:0 66:0 67:0 68:1 69:0.69234234 70:0.72156918 71:1 #
-0 1:0 2:0 3:0 4:0 5:0 6:0 7:0 8:0 9:0 10:0.20952697 11:0 12:0.24557967 13:0.33144975 14:0 15:0 16:0 17:0 18:0.25754267 19:0 20:0.24304064 21:0.28189692 22:0.3413091 23:0 24:0.48277503 25:0 26:0 27:0 28:0.32995519 29:0 30:0.35019028 31:0.33036599 32:0.35652152 33:0.13306779 34:0.31095752 35:0 36:0 37:0 38:0 39:0 40:0.14312656 41:0.25659451 42:0 43:0.51209158 44:0 45:0 46:0 47:0.17422366 48:0.14246035 49:0 50:0.24278226 51:0 52:0 53:0 54:0.25763369 55:0 56:0 57:0 58:0.27330434 59:0 60:0.22388147 61:0 62:0 63:0.021785511 64:0.98034793 65:0 66:0.19606958 67:0 68:1 69:0.67610449 70:0.7368058 71:1 #
2.1126760563380281461847570723123e-05 1:0 2:0.20483011 3:0.23426597 4:0.17846976 5:0 6:0 7:0 8:0 9:0 10:0.17445624 11:0 12:0.20447442 13:0.41395727 14:0 15:0 16:0 17:0 18:0.42887011 19:0 20:0.20236038 21:0 22:0.28418061 23:0 24:0.40196791 25:0 26:0 27:0 28:0.27472714 29:0 30:0.29157525 31:0.33036599 32:0.35652152 33:0.13306779 34:0.31095752 35:0 36:0 37:0 38:0 39:0 40:0.14312656 41:0.25659451 42:0 43:0.51209158 44:0 45:0 46:0 47:0.17422366 48:0.14246035 49:0 50:0.24278226 51:0 52:0 53:0 54:0.25763369 55:0 56:0 57:0 58:0.27330434 59:0 60:0.22388147 61:0 62:0 63:0.011903918 64:0.99992913 65:0 66:0 67:0 68:1 69:0.68175828 70:0.73157752 71:1 #
-1.4084507042253521539253678651615e-05 1:0 2:0.22622688 3:0.25873765 4:0.1971129 5:0 6:0 7:0 8:0 9:0 10:0.19268012 11:0 12:0.22583404 13:0.3047998 14:0 15:0 16:0 17:0 18:0.47367033 19:0 20:0.22349915 21:0 22:0.31386641 23:0 24:0.4439579 25:0 26:0 27:0 28:0.30342543 29:0 30:0 31:0.33036599 32:0.35652152 33:0.13306779 34:0.31095752 35:0 36:0 37:0 38:0 39:0 40:0.14312656 41:0.25659451 42:0 43:0.51209158 44:0 45:0 46:0 47:0.17422366 48:0.14246035 49:0 50:0.24278226 51:0 52:0 53:0 54:0.25763369 55:0 56:0 57:0 58:0.27330434 59:0 60:0.22388147 61:0 62:0 63:0.012985918 64:0.99991566 65:0 66:0 67:0 68:1 69:0.59857005 70:0.80107045 71:1 #
-2.8169014084507043078507357303231e-05 1:0 2:0 3:0 4:0 5:0 6:0 7:0 8:0 9:0 10:0.21873176 11:0 12:0.25636831 13:0.17300539 14:0 15:0 16:0 17:0 18:0.26885685 19:0 20:0.25371772 21:0.29428101 22:0.35630324 23:0 24:0.50398397 25:0 26:0 27:0 28:0.34445056 29:0 30:0.3655746 31:0.33036599 32:0.35652152 33:0.13306779 34:0.31095752 35:0 36:0 37:0 38:0 39:0 40:0.14312656 41:0.25659451 42:0 43:0.51209158 44:0 45:0 46:0 47:0.17422366 48:0.14246035 49:0 50:0.24278226 51:0 52:0 53:0 54:0.25763369 55:0 56:0 57:0 58:0.27330434 59:0 60:0.22388147 61:0 62:0 63:0.02499219 64:0.99968767 65:0 66:0 67:0 68:1 69:0.59361959 70:0.80474579 71:1 #
2.1126760563380281461847570723123e-05 1:0 2:0.20177892 3:0.2307763 4:0.17581125 5:0 6:0 7:0 8:0 9:0 10:0.17185751 11:0 12:0.20142853 13:0.2718606 14:0 15:0 16:0 17:0 18:0.42248157 19:0 20:0.19934596 21:0 22:0.2799474 23:0 24:0.52797347 25:0 26:0 27:0 28:0.27063474 29:0 30:0.28723189 31:0.33036599 32:0.35652152 33:0.13306779 34:0.31095752 35:0 36:0 37:0 38:0 39:0 40:0.14312656 41:0.25659451 42:0 43:0.51209158 44:0 45:0 46:0 47:0.17422366 48:0.14246035 49:0 50:0.24278226 51:0 52:0 53:0 54:0.25763369 55:0 56:0 57:0 58:0.27330434 59:0 60:0.22388147 61:0 62:0 63:0.011903918 64:0.99992913 65:0 66:0 67:0 68:1 69:0.69234234 70:0.72156918 71:1 #
0 1:0 2:0 3:0 4:0 5:0 6:0 7:0 8:0 9:0 10:0.20952697 11:0 12:0.24557967 13:0.33144975 14:0 15:0 16:0 17:0 18:0.25754267 19:0 20:0.24304064 21:0.28189692 22:0.3413091 23:0 24:0.48277503 25:0 26:0 27:0 28:0.32995519 29:0 30:0.35019028 31:0.33036599 32:0.35652152 33:0.13306779 34:0.31095752 35:0 36:0 37:0 38:0 39:0 40:0.14312656 41:0.25659451 42:0 43:0.51209158 44:0 45:0 46:0 47:0.17422366 48:0.14246035 49:0 50:0.24278226 51:0 52:0 53:0 54:0.25763369 55:0 56:0 57:0 58:0.27330434 59:0 60:0.22388147 61:0 62:0 63:0.021785511 64:0.98034793 65:0 66:0.19606958 67:0 68:1 69:0.67610449 70:0.7368058 71:1 #
2.1126760563380281461847570723123e-05 1:0 2:0.20483011 3:0.23426597 4:0.17846976 5:0 6:0 7:0 8:0 9:0 10:0.17445624 11:0 12:0.20447442 13:0.41395727 14:0 15:0 16:0 17:0 18:0.42887011 19:0 20:0.20236038 21:0 22:0.28418061 23:0 24:0.40196791 25:0 26:0 27:0 28:0.27472714 29:0 30:0.29157525 31:0.33036599 32:0.35652152 33:0.13306779 34:0.31095752 35:0 36:0 37:0 38:0 39:0 40:0.14312656 41:0.25659451 42:0 43:0.51209158 44:0 45:0 46:0 47:0.17422366 48:0.14246035 49:0 50:0.24278226 51:0 52:0 53:0 54:0.25763369 55:0 56:0 57:0 58:0.27330434 59:0 60:0.22388147 61:0 62:0 63:0.011903918 64:0.99992913 65:0 66:0 67:0 68:1 69:0.68175828 70:0.73157752 71:1 #
-1.4084507042253521539253678651615e-05 1:0 2:0.22622688 3:0.25873765 4:0.1971129 5:0 6:0 7:0 8:0 9:0 10:0.19268012 11:0 12:0.22583404 13:0.3047998 14:0 15:0 16:0 17:0 18:0.47367033 19:0 20:0.22349915 21:0 22:0.31386641 23:0 24:0.4439579 25:0 26:0 27:0 28:0.30342543 29:0 30:0 31:0.33036599 32:0.35652152 33:0.13306779 34:0.31095752 35:0 36:0 37:0 38:0 39:0 40:0.14312656 41:0.25659451 42:0 43:0.51209158 44:0 45:0 46:0 47:0.17422366 48:0.14246035 49:0 50:0.24278226 51:0 52:0 53:0 54:0.25763369 55:0 56:0 57:0 58:0.27330434 59:0 60:0.22388147 61:0 62:0 63:0.012985918 64:0.99991566 65:0 66:0 67:0 68:1 69:0.59857005 70:0.80107045 71:1 #
-2.8169014084507043078507357303231e-05 1:0.19383591 2:0.090358578 3:0.10334389 4:0.31491998 5:0.37013838 6:0 7:0.17700654 8:0 9:0 10:0.23087841 11:0.14430603 12:0.18040334 13:0.24348366 14:0.30308789 15:0.16768678 16:0 17:0 18:0 19:0.14311704 20:0.35707629 21:0.31062308 22:0.12536319 23:0.16419092 24:0.29553962 25:0 26:0.12507558 27:0 28:0 29:0 30:0 31:0.064658463 32:0.069777563 33:0.26043719 34:0 35:0.33239058 36:0 37:0.10970382 38:0.076649703 39:0 40:0.22409917 41:0.10044017 42:0.19397539 43:0.25056344 44:0.18759 45:0.1226992 46:0 47:0 48:0 49:0.17204729 50:0.47516778 51:0.45914501 52:0.08812885 53:0.11178132 54:0.30254078 55:0 56:0.075996339 57:0 58:0 59:0 60:0 61:0 62:0 63:0.0020576089 64:0.99999785 65:0 66:0 67:0.9994449 68:0.033314832 69:0.60869277 70:0.79340601 71:1 #
2.1126760563380281461847570723123e-05 1:0 2:0.2122775 3:0.1213918 4:0.36991742 5:0.43477914 6:0 7:0.10395943 8:0 9:0 10:0.2711989 11:0.16950756 12:0.21190888 13:0.21450414 14:0.35601902 15:0 16:0 17:0 18:0 19:0 20:0.20971796 21:0.24324675 22:0.14725654 23:0.19286513 24:0.27772197 25:0 26:0.14691871 27:0 28:0 29:0 30:0.1510883 31:0.064658463 32:0.069777563 33:0.26043719 34:0 35:0.33239058 36:0 37:0.10970382 38:0.076649703 39:0 40:0.22409917 41:0.10044017 42:0.19397539 43:0.25056344 44:0.18759 45:0.1226992 46:0 47:0 48:0 49:0.17204729 50:0.47516778 51:0.45914501 52:0.08812885 53:0.11178132 54:0.30254078 55:0 56:0.075996339 57:0 58:0 59:0 60:0 61:0 62:0 63:0.0034013409 64:0.99999422 65:0 66:0 67:0.9994449 68:0.033314832 69:0.57284796 70:0.81966168 71:1 #
2.1126760563380281461847570723123e-05 1:0 2:0.19380815 3:0 4:0 5:0 6:0 7:0.37965754 8:0 9:0 10:0 11:0 12:0 13:0.13056071 14:0 15:0.35966775 16:0 17:0 18:0 19:0 20:0.57441396 21:0.44416583 22:0 23:0 24:0.38033792 25:0 26:0 27:0 28:0 29:0 30:0 31:0.064658463 32:0.069777563 33:0.26043719 34:0 35:0.33239058 36:0 37:0.10970382 38:0.076649703 39:0 40:0.22409917 41:0.10044017 42:0.19397539 43:0.25056344 44:0.18759 45:0.1226992 46:0 47:0 48:0 49:0.17204729 50:0.47516778 51:0.45914501 52:0.08812885 53:0.11178132 54:0.30254078 55:0 56:0.075996339 57:0 58:0 59:0 60:0 61:0 62:0 63:0.010100495 64:0.99994898 65:0 66:0 67:0.9994449 68:0.033314832 69:0.73524982 70:0.67779619 71:1 #
-2.8169014084507043078507357303231e-05 1:0.1658749 2:0.15464853 3:0.17687286 4:0.3368656 5:0.42232743 6:0 7:0.15147318 8:0 9:0 10:0.26343197 11:0.12348975 12:0.23156998 13:0.36463159 14:0.17291145 15:0.14349779 16:0 17:0 18:0 19:0.12247228 20:0.30556771 21:0.26581541 22:0.10727942 23:0.14050622 24:0.20232619 25:0 26:0.1070333 27:0.13458672 28:0 29:0 30:0 31:0.064658463 32:0.069777563 33:0.26043719 34:0 35:0.33239058 36:0 37:0.10970382 38:0.076649703 39:0 40:0.22409917 41:0.10044017 42:0.19397539 43:0.25056344 44:0.18759 45:0.1226992 46:0 47:0 48:0 49:0.17204729 50:0.47516778 51:0.45914501 52:0.08812885 53:0.11178132 54:0.30254078 55:0 56:0.075996339 57:0 58:0 59:0 60:0 61:0.043726906 62:0 63:0.0013664658 64:0.91826504 65:0 66:0.39354214 67:0.9994449 68:0.033314832 69:0.65209091 70:0.75814074 71:1 #
2.1126760563380281461847570723123e-05 1:0.33319131 2:0 3:0 4:0.27066347 5:0.42416251 6:0 7:0.15213136 8:0 9:0 10:0.26457664 11:0 12:0.23257619 13:0.26158285 14:0.086831391 15:0.28824264 16:0 17:0 18:0 19:0.12300444 20:0.30689546 21:0.26697043 22:0.10774557 23:0.14111674 24:0.30480799 25:0 26:0.10749839 27:0 28:0 29:0.11380024 30:0 31:0.064658463 32:0.069777563 33:0.26043719 34:0 35:0.33239058 36:0 37:0.10970382 38:0.076649703 39:0 40:0.22409917 41:0.10044017 42:0.19397539 43:0.25056344 44:0.18759 45:0.1226992 46:0 47:0 48:0 49:0.17204729 50:0.47516778 51:0.45914501 52:0.08812885 53:0.11178132 54:0.30254078 55:0 56:0.075996339 57:0 58:0 59:0 60:0 61:0 62:0 63:0.001585503 64:0.90373671 65:0 66:0.4280858 67:0.9994449 68:0.033314832 69:0.61682975 70:0.78709662 71:1 #
2.1126760563380281461847570723123e-05 1:0.33144212 2:0.077252552 3:0.088354416 4:0.26924255 5:0.42193574 6:0 7:0.15133271 8:0 9:0 10:0.26318768 11:0.12337523 12:0.23135521 13:0.26020959 14:0.1727511 15:0.28672943 16:0 17:0 18:0 19:0.12235869 20:0.30528432 21:0.26556888 22:0.10717993 23:0.14037591 24:0.25267318 25:0 26:0.10693405 27:0 28:0 29:0 30:0 31:0.064658463 32:0.069777563 33:0.26043719 34:0 35:0.33239058 36:0 37:0.10970382 38:0.076649703 39:0 40:0.22409917 41:0.10044017 42:0.19397539 43:0.25056344 44:0.18759 45:0.1226992 46:0 47:0 48:0 49:0.17204729 50:0.47516778 51:0.45914501 52:0.08812885 53:0.11178132 54:0.30254078 55:0 56:0.075996339 57:0 58:0 59:0 60:0 61:0 62:0 63:0.001585503 64:0.90373671 65:0 66:0.4280858 67:0.9994449 68:0.033314832 69:0.61123478 70:0.79144937 71:1 #
-2.8169014084507043078507357303231e-05 1:0 2:0.20209906 3:0 4:0 5:0 6:0 7:0.39589885 8:0 9:0 10:0 11:0 12:0 13:0.13614596 14:0 15:0.37505394 16:0 17:0 18:0 19:0 20:0.59898674 21:0.46316677 22:0 23:0 24:0.26440558 25:0 26:0 27:0 28:0 29:0 30:0 31:0.064658463 32:0.069777563 33:0.26043719 34:0 35:0.33239058 36:0 37:0.10970382 38:0.076649703 39:0 40:0.22409917 41:0.10044017 42:0.19397539 43:0.25056344 44:0.18759 45:0.1226992 46:0 47:0 48:0 49:0.17204729 50:0.47516778 51:0.45914501 52:0.08812885 53:0.11178132 54:0.30254078 55:0 56:0.075996339 57:0 58:0 59:0 60:0 61:0 62:0 63:0.012499023 64:0.99992186 65:0 66:0 67:0.9994449 68:0.033314832 69:0.67777699 70:0.73526758 71:1 #
-2.8169014084507043078507357303231e-05 1:0.19383591 2:0.090358578 3:0.10334389 4:0.31491998 5:0.37013838 6:0 7:0.17700654 8:0 9:0 10:0.23087841 11:0.14430603 12:0.18040334 13:0.24348366 14:0.30308789 15:0.16768678 16:0 17:0 18:0 19:0.14311704 20:0.35707629 21:0.31062308 22:0.12536319 23:0.16419092 24:0.29553962 25:0 26:0.12507558 27:0 28:0 29:0 30:0 31:0.064658463 32:0.069777563 33:0.26043719 34:0 35:0.33239058 36:0 37:0.10970382 38:0.076649703 39:0 40:0.22409917 41:0.10044017 42:0.19397539 43:0.25056344 44:0.18759 45:0.1226992 46:0 47:0 48:0 49:0.17204729 50:0.47516778 51:0.45914501 52:0.08812885 53:0.11178132 54:0.30254078 55:0 56:0.075996339 57:0 58:0 59:0 60:0 61:0 62:0 63:0.0020576089 64:0.99999785 65:0 66:0 67:0.9994449 68:0.033314832 69:0.60869277 70:0.79340601 71:1 #
2.1126760563380281461847570723123e-05 1:0 2:0.2122775 3:0.1213918 4:0.36991742 5:0.43477914 6:0 7:0.10395943 8:0 9:0 10:0.2711989 11:0.16950756 12:0.21190888 13:0.21450414 14:0.35601902 15:0 16:0 17:0 18:0 19:0 20:0.20971796 21:0.24324675 22:0.14725654 23:0.19286513 24:0.27772197 25:0 26:0.14691871 27:0 28:0 29:0 30:0.1510883 31:0.064658463 32:0.069777563 33:0.26043719 34:0 35:0.33239058 36:0 37:0.10970382 38:0.076649703 39:0 40:0.22409917 41:0.10044017 42:0.19397539 43:0.25056344 44:0.18759 45:0.1226992 46:0 47:0 48:0 49:0.17204729 50:0.47516778 51:0.45914501 52:0.08812885 53:0.11178132 54:0.30254078 55:0 56:0.075996339 57:0 58:0 59:0 60:0 61:0 62:0 63:0.0034013409 64:0.99999422 65:0 66:0 67:0.9994449 68:0.033314832 69:0.57284796 70:0.81966168 71:1 #
2.1126760563380281461847570723123e-05 1:0 2:0.19380815 3:0 4:0 5:0 6:0 7:0.37965754 8:0 9:0 10:0 11:0 12:0 13:0.13056071 14:0 15:0.35966775 16:0 17:0 18:0 19:0 20:0.57441396 21:0.44416583 22:0 23:0 24:0.38033792 25:0 26:0 27:0 28:0 29:0 30:0 31:0.064658463 32:0.069777563 33:0.26043719 34:0 35:0.33239058 36:0 37:0.10970382 38:0.076649703 39:0 40:0.22409917 41:0.10044017 42:0.19397539 43:0.25056344 44:0.18759 45:0.1226992 46:0 47:0 48:0 49:0.17204729 50:0.47516778 51:0.45914501 52:0.08812885 53:0.11178132 54:0.30254078 55:0 56:0.075996339 57:0 58:0 59:0 60:0 61:0 62:0 63:0.010100495 64:0.99994898 65:0 66:0 67:0.9994449 68:0.033314832 69:0.73524982 70:0.67779619 71:1 #
-2.8169014084507043078507357303231e-05 1:0.1658749 2:0.15464853 3:0.17687286 4:0.3368656 5:0.42232743 6:0 7:0.15147318 8:0 9:0 10:0.26343197 11:0.12348975 12:0.23156998 13:0.36463159 14:0.17291145 15:0.14349779 16:0 17:0 18:0 19:0.12247228 20:0.30556771 21:0.26581541 22:0.10727942 23:0.14050622 24:0.20232619 25:0 26:0.1070333 27:0.13458672 28:0 29:0 30:0 31:0.064658463 32:0.069777563 33:0.26043719 34:0 35:0.33239058 36:0 37:0.10970382 38:0.076649703 39:0 40:0.22409917 41:0.10044017 42:0.19397539 43:0.25056344 44:0.18759 45:0.1226992 46:0 47:0 48:0 49:0.17204729 50:0.47516778 51:0.45914501 52:0.08812885 53:0.11178132 54:0.30254078 55:0 56:0.075996339 57:0 58:0 59:0 60:0 61:0.043726906 62:0 63:0.0013664658 64:0.91826504 65:0 66:0.39354214 67:0.9994449 68:0.033314832 69:0.65209091 70:0.75814074 71:1 #
2.1126760563380281461847570723123e-05 1:0.33319131 2:0 3:0 4:0.27066347 5:0.42416251 6:0 7:0.15213136 8:0 9:0 10:0.26457664 11:0 12:0.23257619 13:0.26158285 14:0.086831391 15:0.28824264 16:0 17:0 18:0 19:0.12300444 20:0.30689546 21:0.26697043 22:0.10774557 23:0.14111674 24:0.30480799 25:0 26:0.10749839 27:0 28:0 29:0.11380024 30:0 31:0.064658463 32:0.069777563 33:0.26043719 34:0 35:0.33239058 36:0 37:0.10970382 38:0.076649703 39:0 40:0.22409917 41:0.10044017 42:0.19397539 43:0.25056344 44:0.18759 45:0.1226992 46:0 47:0 48:0 49:0.17204729 50:0.47516778 51:0.45914501 52:0.08812885 53:0.11178132 54:0.30254078 55:0 56:0.075996339 57:0 58:0 59:0 60:0 61:0 62:0 63:0.001585503 64:0.90373671 65:0 66:0.4280858 67:0.9994449 68:0.033314832 69:0.61682975 70:0.78709662 71:1 #
2.1126760563380281461847570723123e-05 1:0.33144212 2:0.077252552 3:0.088354416 4:0.26924255 5:0.42193574 6:0 7:0.15133271 8:0 9:0 10:0.26318768 11:0.12337523 12:0.23135521 13:0.26020959 14:0.1727511 15:0.28672943 16:0 17:0 18:0 19:0.12235869 20:0.30528432 21:0.26556888 22:0.10717993 23:0.14037591 24:0.25267318 25:0 26:0.10693405 27:0 28:0 29:0 30:0 31:0.064658463 32:0.069777563 33:0.26043719 34:0 35:0.33239058 36:0 37:0.10970382 38:0.076649703 39:0 40:0.22409917 41:0.10044017 42:0.19397539 43:0.25056344 44:0.18759 45:0.1226992 46:0 47:0 48:0 49:0.17204729 50:0.47516778 51:0.45914501 52:0.08812885 53:0.11178132 54:0.30254078 55:0 56:0.075996339 57:0 58:0 59:0 60:0 61:0 62:0 63:0.001585503 64:0.90373671 65:0 66:0.4280858 67:0.9994449 68:0.033314832 69:0.61123478 70:0.79144937 71:1 #
-2.8169014084507043078507357303231e-05 1:0 2:0.20209906 3:0 4:0 5:0 6:0 7:0.39589885 8:0 9:0 10:0 11:0 12:0 13:0.13614596 14:0 15:0.37505394 16:0 17:0 18:0 19:0 20:0.59898674 21:0.46316677 22:0 23:0 24:0.26440558 25:0 26:0 27:0 28:0 29:0 30:0 31:0.064658463 32:0.069777563 33:0.26043719 34:0 35:0.33239058 36:0 37:0.10970382 38:0.076649703 39:0 40:0.22409917 41:0.10044017 42:0.19397539 43:0.25056344 44:0.18759 45:0.1226992 46:0 47:0 48:0 49:0.17204729 50:0.47516778 51:0.45914501 52:0.08812885 53:0.11178132 54:0.30254078 55:0 56:0.075996339 57:0 58:0 59:0 60:0 61:0 62:0 63:0.012499023 64:0.99992186 65:0 66:0 67:0.9994449 68:0.033314832 69:0.67777699 70:0.73526758 71:1 #
-2.1126760563380281461847570723123e-05 1:0 2:0 3:0 4:0.30938345 5:0 6:0.24688634 7:0 8:0 9:0 10:0.15121293 11:0 12:0.17723171 13:0.4784061 14:0 15:0 16:0 17:0.19925167 18:0.37173051 19:0 20:0.17539932 21:0.20344141 22:0.24631841 23:0 24:0.34841257 25:0 26:0.24575333 27:0 28:0 29:0.26016006 30:0 31:0 32:0 33:0.27855191 34:0 35:0 36:0.38829234 37:0 38:0 39:0 40:0.149804 41:0 42:0 43:0.53598273 44:0 45:0 46:0 47:0.18235192 48:0.29821342 49:0 50:0 51:0 52:0.23564662 53:0 54:0.40448001 55:0 56:0.20320566 57:0 58:0 59:0.28161985 60:0 61:0 62:0 63:0.008343189 64:0.6507687 65:0 66:0.7592302 67:0.99954116 68:0.030289127 69:0.70822072 70:0.70599109 71:1 #
3.5211267605633804695167143883339e-05 1:0 2:0 3:0 4:0 5:0 6:0 7:0 8:0 9:0 10:0.28193444 11:0 12:0 13:0.2229954 14:0 15:0 16:0 17:0 18:0 19:0 20:0.32702965 21:0.37931371 22:0 23:0 24:0.43307364 25:0 26:0 27:0 28:0.44397977 29:0.48506486 30:0 31:0 32:0 33:0.27855191 34:0 35:0 36:0.38829234 37:0 38:0 39:0 40:0.149804 41:0 42:0 43:0.53598273 44:0 45:0 46:0 47:0.18235192 48:0.29821342 49:0 50:0 51:0 52:0.23564662 53:0 54:0.40448001 55:0 56:0.20320566 57:0 58:0 59:0.28161985 60:0 61:0 62:0 63:0.083045483 64:0.99654573 65:0 66:0 67:0.99954116 68:0.030289127 69:0.70678765 70:0.70742577 71:1 #
7.0422535211267607696268393258077e-06 1:0.82994372 2:0 3:0 4:0 5:0 6:0 7:0 8:0 9:0 10:0.16475798 11:0 12:0 13:0.26062989 14:0 15:0 16:0 17:0.21709983 18:0 19:0 20:0.19111089 21:0.22166488 22:0 23:0 24:0.12654066 25:0 26:0 27:0 28:0.2594547 29:0 30:0 31:0 32:0 33:0.27855191 34:0 35:0 36:0.38829234 37:0 38:0 39:0 40:0.149804 41:0 42:0 43:0.53598273 44:0 45:0 46:0 47:0.18235192 48:0.29821342 49:0 50:0 51:0 52:0.23564662 53:0 54:0.40448001 55:0 56:0.20320566 57:0 58:0 59:0.28161985 60:0 61:0 62:0 63:0.062378287 64:0.9980526 65:0 66:0 67:0.99954116 68:0.030289127 69:0.64997548 70:0.75995517 71:1 #
-5.6338028169014086157014714606461e-05 1:0 2:0 3:0 4:0.31220549 5:0 6:0.49827659 7:0 8:0 9:0 10:0 11:0 12:0 13:0.24138492 14:0 15:0 16:0 17:0 18:0 19:0 20:0.35399842 21:0.41059417 22:0.49713039 23:0 24:0.23439373 25:0 26:0 27:0 28:0 29:0 30:0 31:0 32:0 33:0.27855191 34:0 35:0 36:0.38829234 37:0 38:0 39:0 40:0.149804 41:0 42:0 43:0.53598273 44:0 45:0 46:0 47:0.18235192 48:0.29821342 49:0 50:0 51:0 52:0.23564662 53:0 54:0.40448001 55:0 56:0.20320566 57:0 58:0 59:0.28161985 60:0 61:0 62:0 63:0.041630544 64:0.99913305 65:0 66:0 67:0.99954116 68:0.030289127 69:0.74582684 70:0.6661399 71:1 #
5.6338028169014086157014714606461e-05 1:0 2:0 3:0 4:0 5:0 6:0 7:0 8:0 9:0 10:0.28193444 11:0 12:0 13:0.2229954 14:0 15:0 16:0 17:0 18:0 19:0 20:0.32702965 21:0.37931371 22:0 23:0 24:0.43307364 25:0 26:0 27:0 28:0.44397977 29:0.48506486 30:0 31:0 32:0 33:0.27855191 34:0 35:0 36:0.38829234 37:0 38:0 39:0 40:0.149804 41:0 42:0 43:0.53598273 44:0 45:0 46:0 47:0.18235192 48:0.29821342 49:0 50:0 51:0 52:0.23564662 53:0 54:0.40448001 55:0 56:0.20320566 57:0 58:0 59:0.28161985 60:0 61:0 62:0 63:0.05547002 64:0.99846035 65:0 66:0 67:0.99954116 68:0.030289127 69:0.70029569 70:0.71385288 71:1 #
-2.1126760563380281461847570723123e-05 1:0 2:0 3:0 4:0.34815192 5:0 6:0.55564672 7:0 8:0 9:0 10:0 11:0 12:0 13:0.40376592 14:0 15:0 16:0 17:0.22421965 18:0.20915581 19:0 20:0.1973784 21:0.22893439 22:0.27718428 23:0 24:0.26138115 25:0 26:0.27654839 27:0 28:0 29:0 30:0 31:0 32:0 33:0.27855191 34:0 35:0 36:0.38829234 37:0 38:0 39:0 40:0.149804 41:0 42:0 43:0.53598273 44:0 45:0 46:0 47:0.18235192 48:0.29821342 49:0 50:0 51:0 52:0.23564662 53:0 54:0.40448001 55:0 56:0.20320566 57:0 58:0 59:0.28161985 60:0 61:0 62:0 63:0.019996 64:0.99980009 65:0 66:0 67:0.99954116 68:0.030289127 69:0.74127078 70:0.67120606 71:1 #
7.0422535211267609390334287766677e-05 1:0 2:0 3:0 4:0.27591923 5:0 6:0 7:0 8:0 9:0 10:0.26971421 11:0 12:0.31612316 13:0.42665964 14:0 15:0 16:0 17:0.35539952 18:0.33152255 19:0 20:0.31285477 21:0 22:0 23:0 24:0.20715119 25:0 26:0.4383432 27:0 28:0 29:0 30:0 31:0 32:0 33:0.27855191 34:0 35:0 36:0.38829234 37:0 38:0 39:0 40:0.149804 41:0 42:0 43:0.53598273 44:0 45:0 46:0 47:0.18235192 48:0.29821342 49:0 50:0 51:0 52:0.23564662 53:0 54:0.40448001 55:0 56:0.20320566 57:0 58:0 59:0.28161985 60:0 61:0 62:0 63:0.024492448 64:0.51434141 65:0 66:0.85723567 67:0.99954116 68:0.030289127 69:0.60814291 70:0.79382753 71:1 #
3.5211267605633804695167143883339e-05 1:0 2:0 3:0 4:0.38050553 5:0 6:0.30364138 7:0 8:0 9:0 10:0.18597426 11:0 12:0.21797431 13:0.44128773 14:0 15:0 16:0 17:0.24505629 18:0.22859256 19:0 20:0.21572068 21:0.25020918 22:0.30294287 23:0 24:0.28567117 25:0 26:0.30224788 27:0 28:0 29:0 30:0 31:0 32:0 33:0.27855191 34:0 35:0 36:0.38829234 37:0 38:0 39:0 40:0.149804 41:0 42:0 43:0.53598273 44:0 45:0 46:0 47:0.18235192 48:0.29821342 49:0 50:0 51:0 52:0.23564662 53:0 54:0.40448001 55:0 56:0.20320566 57:0 58:0 59:0.28161985 60:0 61:0 62:0 63:0.011638928 64:0.76816922 65:0 66:0.64014101 67:0.99954116 68:0.030289127 69:0.72042799 70:0.69352973 71:1 #
7.0422535211267607696268393258077e-06 1:0 2:0 3:0 4:0.34134007 5:0 6:0.27238753 7:0 8:0 9:0 10:0.16683191 11:0 12:0 13:0.39586595 14:0 15:0 16:0 17:0.21983263 18:0.20506352 19:0 20:0.19351654 21:0.22445513 22:0.27176097 23:0 24:0.38440055 25:0 26:0.27113751 27:0 28:0.26272064 29:0.28703234 30:0 31:0 32:0 33:0.27855191 34:0 35:0 36:0.38829234 37:0 38:0 39:0 40:0.149804 41:0 42:0 43:0.53598273 44:0 45:0 46:0 47:0.18235192 48:0.29821342 49:0 50:0 51:0 52:0.23564662 53:0 54:0.40448001 55:0 56:0.20320566 57:0 58:0 59:0.28161985 60:0 61:0 62:0 63:0.01388755 64:0.99990356 65:0 66:0 67:0.99954116 68:0.030289127 69:0.69887489 70:0.71524394 71:1 #
-5.6338028169014086157014714606461e-05 1:0 2:0 3:0 4:0 5:0 6:0 7:0 8:0 9:0 10:0 11:0 12:0 13:0.47817296 14:0 15:0 16:0 17:0.39830914 18:0 19:0 20:0.35062769 21:0.40668452 22:0 23:0 24:0.23216185 25:0 26:0 27:0 28:0 29:0.52006656 30:0 31:0 32:0 33:0.27855191 34:0 35:0 36:0.38829234 37:0 38:0 39:0 40:0.149804 41:0 42:0 43:0.53598273 44:0 45:0 46:0 47:0.18235192 48:0.29821342 49:0 50:0 51:0 52:0.23564662 53:0 54:0.40448001 55:0 56:0.20320566 57:0 58:0 59:0.28161985 60:0 61:0 62:0 63:0.099503718 64:0.9950372 65:0 66:0 67:0.99954116 68:0.030289127 69:0.63987577 70:0.76847839 71:1 #
-5.6338028169014086157014714606461e-05 1:0 2:0 3:0 4:0.29152268 5:0 6:0.46526709 7:0 8:0 9:0 10:0 11:0 12:0 13:0.4507876 14:0 15:0 16:0 17:0 18:0.35027045 19:0 20:0.33054698 21:0 22:0.4641968 23:0 24:0.21886577 25:0 26:0 27:0 28:0 29:0 30:0 31:0 32:0 33:0.27855191 34:0 35:0 36:0.38829234 37:0 38:0 39:0 40:0.149804 41:0 42:0 43:0.53598273 44:0 45:0 46:0 47:0.18235192 48:0.29821342 49:0 50:0 51:0 52:0.23564662 53:0 54:0.40448001 55:0 56:0.20320566 57:0 58:0 59:0.28161985 60:0 61:0 62:0 63:0.03569153 64:0.99936283 65:0 66:0 67:0.99954116 68:0.030289127 69:0.76079029 70:0.64899778 71:1 #
-2.1126760563380281461847570723123e-05 1:0 2:0 3:0 4:0.30938345 5:0 6:0.24688634 7:0 8:0 9:0 10:0.15121293 11:0 12:0.17723171 13:0.4784061 14:0 15:0 16:0 17:0.19925167 18:0.37173051 19:0 20:0.17539932 21:0.20344141 22:0.24631841 23:0 24:0.34841257 25:0 26:0.24575333 27:0 28:0 29:0.26016006 30:0 31:0 32:0 33:0.27855191 34:0 35:0 36:0.38829234 37:0 38:0 39:0 40:0.149804 41:0 42:0 43:0.53598273 44:0 45:0 46:0 47:0.18235192 48:0.29821342 49:0 50:0 51:0 52:0.23564662 53:0 54:0.40448001 55:0 56:0.20320566 57:0 58:0 59:0.28161985 60:0 61:0 62:0 63:0.008343189 64:0.6507687 65:0 66:0.7592302 67:0.99954116 68:0.030289127 69:0.70822072 70:0.70599109 71:1 #
3.5211267605633804695167143883339e-05 1:0 2:0 3:0 4:0 5:0 6:0 7:0 8:0 9:0 10:0.28193444 11:0 12:0 13:0.2229954 14:0 15:0 16:0 17:0 18:0 19:0 20:0.32702965 21:0.37931371 22:0 23:0 24:0.43307364 25:0 26:0 27:0 28:0.44397977 29:0.48506486 30:0 31:0 32:0 33:0.27855191 34:0 35:0 36:0.38829234 37:0 38:0 39:0 40:0.149804 41:0 42:0 43:0.53598273 44:0 45:0 46:0 47:0.18235192 48:0.29821342 49:0 50:0 51:0 52:0.23564662 53:0 54:0.40448001 55:0 56:0.20320566 57:0 58:0 59:0.28161985 60:0 61:0 62:0 63:0.083045483 64:0.99654573 65:0 66:0 67:0.99954116 68:0.030289127 69:0.70678765 70:0.70742577 71:1 #
7.0422535211267607696268393258077e-06 1:0.82994372 2:0 3:0 4:0 5:0 6:0 7:0 8:0 9:0 10:0.16475798 11:0 12:0 13:0.26062989 14:0 15:0 16:0 17:0.21709983 18:0 19:0 20:0.19111089 21:0.22166488 22:0 23:0 24:0.12654066 25:0 26:0 27:0 28:0.2594547 29:0 30:0 31:0 32:0 33:0.27855191 34:0 35:0 36:0.38829234 37:0 38:0 39:0 40:0.149804 41:0 42:0 43:0.53598273 44:0 45:0 46:0 47:0.18235192 48:0.29821342 49:0 50:0 51:0 52:0.23564662 53:0 54:0.40448001 55:0 56:0.20320566 57:0 58:0 59:0.28161985 60:0 61:0 62:0 63:0.062378287 64:0.9980526 65:0 66:0 67:0.99954116 68:0.030289127 69:0.64997548 70:0.75995517 71:1 #
-5.6338028169014086157014714606461e-05 1:0 2:0 3:0 4:0.31220549 5:0 6:0.49827659 7:0 8:0 9:0 10:0 11:0 12:0 13:0.24138492 14:0 15:0 16:0 17:0 18:0 19:0 20:0.35399842 21:0.41059417 22:0.49713039 23:0 24:0.23439373 25:0 26:0 27:0 28:0 29:0 30:0 31:0 32:0 33:0.27855191 34:0 35:0 36:0.38829234 37:0 38:0 39:0 40:0.149804 41:0 42:0 43:0.53598273 44:0 45:0 46:0 47:0.18235192 48:0.29821342 49:0 50:0 51:0 52:0.23564662 53:0 54:0.40448001 55:0 56:0.20320566 57:0 58:0 59:0.28161985 60:0 61:0 62:0 63:0.041630544 64:0.99913305 65:0 66:0 67:0.99954116 68:0.030289127 69:0.74582684 70:0.6661399 71:1 #
