SVM-light Version V6.20
1 # kernel type
3 # kernel parameter -d 
1 # kernel parameter -g 
1 # kernel parameter -s 
1 # kernel parameter -r 
empty# kernel parameter -u 
72 # highest feature index 
2 # number of training documents 
1345 # number of support vectors plus 1 
0 # threshold b, each following line is a SV (starting with alpha*y)
-7.0422535211267607696268393258077e-06 1:0 2:0 3:0 4:0.23227036 5:0 6:0.35942918 7:0 8:0 9:0 10:0 11:0 12:0 13:0 14:0 15:0.54208791 16:0.28370959 17:0 18:0 19:0 20:0 21:0.55217886 22:0.32471538 23:0 24:0.17935751 25:0 26:0 27:0 28:0 29:0 30:0 31:0.099285536 32:0 33:0.33369443 34:0 35:0.25316897 36:0.1106377 37:0 38:0.19477268 39:0 40:0 41:0.26326999 42:0 43:0.20791066 44:0.48085272 45:0.28290755 46:0 47:0 48:0.087104566 49:0 50:0 51:0 52:0.32488787 53:0.19885723 54:0 55:0.32247946 56:0.18717958 57:0 58:0 59:0.1750199 60:0.1355734 61:0 62:0 63:0.041630544 64:0.99913305 65:0 66:0 67:0 68:1 69:0.70929343 70:0.70491332 71:1 #
-7.0422535211267607696268393258077e-06 1:0 2:0.19580227 3:0 4:0.17315711 5:0.26965028 6:0 7:0 8:0 9:0 10:0 11:0 12:0.33163244 13:0 14:0.41869053 15:0.26941702 16:0 17:0 18:0 19:0.20757271 20:0 21:0 22:0 23:0 24:0.40113205 25:0.3768788 26:0 27:0 28:0.26572582 29:0 30:0.29061708 31:0.099285536 32:0 33:0.33369443 34:0 35:0.25316897 36:0.1106377 37:0 38:0.19477268 39:0 40:0 41:0.26326999 42:0 43:0.20791066 44:0.48085272 45:0.28290755 46:0 47:0 48:0.087104566 49:0 50:0 51:0 52:0.32488787 53:0.19885723 54:0 55:0.32247946 56:0.18717958 57:0 58:0 59:0.1750199 60:0.1355734 61:0 62:0 63:0.016664352 64:0.99986112 65:0 66:0 67:0 68:1 69:0.68175906 70:0.7315768 71:1 #
-7.0422535211267607696268393258077e-06 1:0 2:0 3:0 4:0 5:0 6:0 7:0 8:0 9:0 10:0 11:0 12:0 13:0 14:0 15:0.4773728 16:0 17:0 18:0 19:0 20:0 21:0.72938859 22:0.42892566 23:0 24:0.23691837 25:0 26:0 27:0 28:0 29:0 30:0 31:0.099285536 32:0 33:0.33369443 34:0 35:0.25316897 36:0.1106377 37:0 38:0.19477268 39:0 40:0 41:0.26326999 42:0 43:0.20791066 44:0.48085272 45:0.28290755 46:0 47:0 48:0.087104566 49:0 50:0 51:0 52:0.32488787 53:0.19885723 54:0 55:0.32247946 56:0.18717958 57:0 58:0 59:0.1750199 60:0.1355734 61:0 62:0 63:0.083045483 64:0.99654573 65:0 66:0 67:0 68:1 69:0.71139491 70:0.70279253 71:1 #
2.1126760563380281461847570723123e-05 1:0 2:0.21542124 3:0 4:0.19050708 5:0.29666868 6:0 7:0 8:0 9:0 10:0 11:0 12:0.36486131 13:0 14:0.46064246 15:0.29641202 16:0 17:0 18:0 19:0.22837107 20:0 21:0 22:0 23:0 24:0.29421642 25:0.41464126 26:0 27:0 28:0.29235098 29:0 30:0 31:0.099285536 32:0 33:0.33369443 34:0 35:0.25316897 36:0.1106377 37:0 38:0.19477268 39:0 40:0 41:0.26326999 42:0 43:0.20791066 44:0.48085272 45:0.28290755 46:0 47:0 48:0.087104566 49:0 50:0 51:0 52:0.32488787 53:0.19885723 54:0 55:0.32247946 56:0.18717958 57:0 58:0 59:0.1750199 60:0.1355734 61:0 62:0 63:0.022216737 64:0.99975318 65:0 66:0 67:0 68:1 69:0.69377899 70:0.72018796 71:1 #
-7.0422535211267607696268393258077e-06 1:0 2:0 3:0 4:0.23227036 5:0 6:0.35942918 7:0 8:0 9:0 10:0 11:0 12:0 13:0 14:0 15:0.54208791 16:0.28370959 17:0 18:0 19:0 20:0 21:0.55217886 22:0.32471538 23:0 24:0.17935751 25:0 26:0 27:0 28:0 29:0 30:0 31:0.099285536 32:0 33:0.33369443 34:0 35:0.25316897 36:0.1106377 37:0 38:0.19477268 39:0 40:0 41:0.26326999 42:0 43:0.20791066 44:0.48085272 45:0.28290755 46:0 47:0 48:0.087104566 49:0 50:0 51:0 52:0.32488787 53:0.19885723 54:0 55:0.32247946 56:0.18717958 57:0 58:0 59:0.1750199 60:0.1355734 61:0 62:0 63:0.041630544 64:0.99913305 65:0 66:0 67:0 68:1 69:0.70929343 70:0.70491332 71:1 #
-7.0422535211267607696268393258077e-06 1:0 2:0.19580227 3:0 4:0.17315711 5:0.26965028 6:0 7:0 8:0 9:0 10:0 11:0 12:0.33163244 13:0 14:0.41869053 15:0.26941702 16:0 17:0 18:0 19:0.20757271 20:0 21:0 22:0 23:0 24:0.40113205 25:0.3768788 26:0 27:0 28:0.26572582 29:0 30:0.29061708 31:0.099285536 32:0 33:0.33369443 34:0 35:0.25316897 36:0.1106377 37:0 38:0.19477268 39:0 40:0 41:0.26326999 42:0 43:0.20791066 44:0.48085272 45:0.28290755 46:0 47:0 48:0.087104566 49:0 50:0 51:0 52:0.32488787 53:0.19885723 54:0 55:0.32247946 56:0.18717958 57:0 58:0 59:0.1750199 60:0.1355734 61:0 62:0 63:0.016664352 64:0.99986112 65:0 66:0 67:0 68:1 69:0.68175906 70:0.7315768 71:1 #
-7.0422535211267607696268393258077e-06 1:0 2:0 3:0 4:0 5:0 6:0 7:0 8:0 9:0 10:0 11:0 12:0 13:0 14:0 15:0.4773728 16:0 17:0 18:0 19:0 20:0 21:0.72938859 22:0.42892566 23:0 24:0.23691837 25:0 26:0 27:0 28:0 29:0 30:0 31:0.099285536 32:0 33:0.33369443 34:0 35:0.25316897 36:0.1106377 37:0 38:0.19477268 39:0 40:0 41:0.26326999 42:0 43:0.20791066 44:0.48085272 45:0.28290755 46:0 47:0 48:0.087104566 49:0 50:0 51:0 52:0.32488787 53:0.19885723 54:0 55:0.32247946 56:0.18717958 57:0 58:0 59:0.1750199 60:0.1355734 61:0 62:0 63:0.083045483 64:0.99654573 65:0 66:0 67:0 68:1 69:0.71139491 70:0.70279253 71:1 #
2.1126760563380281461847570723123e-05 1:0 2:0.21542124 3:0 4:0.19050708 5:0.29666868 6:0 7:0 8:0 9:0 10:0 11:0 12:0.36486131 13:0 14:0.46064246 15:0.29641202 16:0 17:0 18:0 19:0.22837107 20:0 21:0 22:0 23:0 24:0.29421642 25:0.41464126 26:0 27:0 28:0.29235098 29:0 30:0 31:0.099285536 32:0 33:0.33369443 34:0 35:0.25316897 36:0.1106377 37:0 38:0.19477268 39:0 40:0 41:0.26326999 42:0 43:0.20791066 44:0.48085272 45:0.28290755 46:0 47:0 48:0.087104566 49:0 50:0 51:0 52:0.32488787 53:0.19885723 54:0 55:0.32247946 56:0.18717958 57:0 58:0 59:0.1750199 60:0.1355734 61:0 62:0 63:0.022216737 64:0.99975318 65:0 66:0 67:0 68:1 69:0.69377899 70:0.72018796 71:1 #
2.8169014084507043078507357303231e-05 1:0 2:0.20071532 3:0.22526157 4:0.35500389 5:0.27641633 6:0.27467722 7:0 8:0 9:0 10:0 11:0 12:0.16997686 13:0.30209249 14:0 15:0.41426578 16:0.216812 17:0 18:0.23513892 19:0 20:0.33487654 21:0.21098866 22:0.2481488 23:0 24:0.13706574 25:0 26:0 27:0 28:0 29:0 30:0 31:0.17071876 32:0.18209593 33:0.28688923 34:0 35:0.21765856 36:0.19023851 37:0 38:0 39:0 40:0 41:0.15089519 42:0.25381294 43:0 44:0.55120873 45:0.16215061 46:0 47:0.18756841 48:0.14977393 49:0.23311478 50:0.36437804 51:0 52:0 53:0 54:0 55:0.13862365 56:0 57:0 58:0 59:0.30094194 60:0 61:0 62:0 63:0.012985918 64:0.99991566 65:0 66:0 67:0.9950372 68:0.099503718 69:0.7578004 70:0.65248638 71:1 #
-2.1126760563380281461847570723123e-05 1:0 2:0.1787546 3:0.2006152 4:0.31616211 5:0.49234599 6:0 7:0 8:0 9:0 10:0 11:0 12:0.3027586 13:0.26903987 14:0.19111848 15:0.36894003 16:0.19309011 17:0 18:0 19:0.18950024 20:0.29823694 21:0 22:0 23:0 24:0.12206907 25:0 26:0 27:0 28:0 29:0.26778489 30:0 31:0.17071876 32:0.18209593 33:0.28688923 34:0 35:0.21765856 36:0.19023851 37:0 38:0 39:0 40:0 41:0.15089519 42:0.25381294 43:0 44:0.55120873 45:0.16215061 46:0 47:0.18756841 48:0.14977393 49:0.23311478 50:0.36437804 51:0 52:0 53:0 54:0 55:0.13862365 56:0 57:0 58:0 59:0.30094194 60:0 61:0 62:0 63:0.010639502 64:0.70220715 65:0.11703452 66:0.70220715 67:0.9950372 68:0.099503718 69:0.77215195 70:0.63543791 71:1 #
-2.1126760563380281461847570723123e-05 1:0 2:0 3:0 4:0.24560264 5:0.38246667 6:0 7:0 8:0 9:0 10:0 11:0 12:0.23519047 13:0 14:0 15:0.19106789 16:0 17:0 18:0 19:0 20:0.46335584 21:0 22:0 23:0 24:0.37930521 25:0 26:0 27:0 28:0 29:0.416044 30:0.41220555 31:0.17071876 32:0.18209593 33:0.28688923 34:0 35:0.21765856 36:0.19023851 37:0 38:0 39:0 40:0 41:0.15089519 42:0.25381294 43:0 44:0.55120873 45:0.16215061 46:0 47:0.18756841 48:0.14977393 49:0.23311478 50:0.36437804 51:0 52:0 53:0 54:0 55:0.13862365 56:0 57:0 58:0 59:0.30094194 60:0 61:0 62:0 63:0.031158848 64:0.87244773 65:0.21811193 66:0.43622386 67:0.9950372 68:0.099503718 69:0.60335892 70:0.79746979 71:1 #
2.8169014084507043078507357303231e-05 1:0 2:0 3:0 4:0 5:0 6:0 7:0 8:0 9:0 10:0 11:0 12:0 13:0 14:0 15:0.28524372 16:0 17:0 18:0 19:0 20:0 21:0.43583027 22:0.51259035 23:0 24:0.28313082 25:0 26:0 27:0 28:0 29:0.62110871 30:0 31:0.17071876 32:0.18209593 33:0.28688923 34:0 35:0.21765856 36:0.19023851 37:0 38:0 39:0 40:0 41:0.15089519 42:0.25381294 43:0 44:0.55120873 45:0.16215061 46:0 47:0.18756841 48:0.14977393 49:0.23311478 50:0.36437804 51:0 52:0 53:0 54:0 55:0.13862365 56:0 57:0 58:0 59:0.30094194 60:0 61:0 62:0 63:0.11111111 64:0.8888889 65:0.44444445 66:0 67:0.9950372 68:0.099503718 69:0.70710677 70:0.70710677 71:1 #
-2.1126760563380281461847570723123e-05 1:0 2:0.19366537 3:0.21734945 4:0.34253469 5:0.5334149 6:0 7:0 8:0 9:0 10:0 11:0 12:0.32801315 13:0.29148176 14:0 15:0.26647672 16:0.20919667 17:0 18:0 19:0 20:0.32311431 21:0 22:0 23:0 24:0.13225143 25:0 26:0 27:0 28:0 29:0.29012209 30:0 31:0.17071876 32:0.18209593 33:0.28688923 34:0 35:0.21765856 36:0.19023851 37:0 38:0 39:0 40:0 41:0.15089519 42:0.25381294 43:0 44:0.55120873 45:0.16215061 46:0 47:0.18756841 48:0.14977393 49:0.23311478 50:0.36437804 51:0 52:0 53:0 54:0 55:0.13862365 56:0 57:0 58:0 59:0.30094194 60:0 61:0 62:0 63:0.011784295 64:0.70705765 65:0 66:0.70705765 67:0.9950372 68:0.099503718 69:0.77872491 70:0.62736553 71:1 #
2.8169014084507043078507357303231e-05 1:0 2:0.1787546 3:0.2006152 4:0.31616211 5:0.49234599 6:0 7:0 8:0 9:0 10:0 11:0 12:0.3027586 13:0.26903987 14:0.19111848 15:0.36894003 16:0.19309011 17:0 18:0 19:0.18950024 20:0.29823694 21:0 22:0 23:0 24:0.12206907 25:0 26:0 27:0 28:0 29:0.26778489 30:0 31:0.17071876 32:0.18209593 33:0.28688923 34:0 35:0.21765856 36:0.19023851 37:0 38:0 39:0 40:0 41:0.15089519 42:0.25381294 43:0 44:0.55120873 45:0.16215061 46:0 47:0.18756841 48:0.14977393 49:0.23311478 50:0.36437804 51:0 52:0 53:0 54:0 55:0.13862365 56:0 57:0 58:0 59:0.30094194 60:0 61:0 62:0 63:0.010713125 64:0.70706618 65:0 66:0.70706618 67:0.9950372 68:0.099503718 69:0.77204645 70:0.63556606 71:1 #
-2.1126760563380281461847570723123e-05 1:0 2:0.16605812 3:0.18636602 4:0.29370594 5:0.45737591 6:0 7:0 8:0 9:0 10:0 11:0 12:0.28125444 13:0.24993066 14:0.17754382 15:0.45698023 16:0.17937542 17:0 18:0.38907573 19:0 20:0.27705395 21:0 22:0 23:0 24:0 25:0 26:0 27:0 28:0 29:0 30:0 31:0.17071876 32:0.18209593 33:0.28688923 34:0 35:0.21765856 36:0.19023851 37:0 38:0 39:0 40:0 41:0.15089519 42:0.25381294 43:0 44:0.55120873 45:0.16215061 46:0 47:0.18756841 48:0.14977393 49:0.23311478 50:0.36437804 51:0 52:0 53:0 54:0 55:0.13862365 56:0 57:0 58:0 59:0.30094194 60:0 61:0 62:0 63:0.011638928 64:0.64014101 65:0 66:0.76816922 67:0.9950372 68:0.099503718 69:0.77874595 70:0.62733942 71:1 #
2.8169014084507043078507357303231e-05 1:0 2:0.20071532 3:0.22526157 4:0.35500389 5:0.27641633 6:0.27467722 7:0 8:0 9:0 10:0 11:0 12:0.16997686 13:0.30209249 14:0 15:0.41426578 16:0.216812 17:0 18:0.23513892 19:0 20:0.33487654 21:0.21098866 22:0.2481488 23:0 24:0.13706574 25:0 26:0 27:0 28:0 29:0 30:0 31:0.17071876 32:0.18209593 33:0.28688923 34:0 35:0.21765856 36:0.19023851 37:0 38:0 39:0 40:0 41:0.15089519 42:0.25381294 43:0 44:0.55120873 45:0.16215061 46:0 47:0.18756841 48:0.14977393 49:0.23311478 50:0.36437804 51:0 52:0 53:0 54:0 55:0.13862365 56:0 57:0 58:0 59:0.30094194 60:0 61:0 62:0 63:0.012985918 64:0.99991566 65:0 66:0 67:0.9950372 68:0.099503718 69:0.7578004 70:0.65248638 71:1 #
-2.1126760563380281461847570723123e-05 1:0 2:0.1787546 3:0.2006152 4:0.31616211 5:0.49234599 6:0 7:0 8:0 9:0 10:0 11:0 12:0.3027586 13:0.26903987 14:0.19111848 15:0.36894003 16:0.19309011 17:0 18:0 19:0.18950024 20:0.29823694 21:0 22:0 23:0 24:0.12206907 25:0 26:0 27:0 28:0 29:0.26778489 30:0 31:0.17071876 32:0.18209593 33:0.28688923 34:0 35:0.21765856 36:0.19023851 37:0 38:0 39:0 40:0 41:0.15089519 42:0.25381294 43:0 44:0.55120873 45:0.16215061 46:0 47:0.18756841 48:0.14977393 49:0.23311478 50:0.36437804 51:0 52:0 53:0 54:0 55:0.13862365 56:0 57:0 58:0 59:0.30094194 60:0 61:0 62:0 63:0.010639502 64:0.70220715 65:0.11703452 66:0.70220715 67:0.9950372 68:0.099503718 69:0.77215195 70:0.63543791 71:1 #
-2.1126760563380281461847570723123e-05 1:0 2:0 3:0 4:0.24560264 5:0.38246667 6:0 7:0 8:0 9:0 10:0 11:0 12:0.23519047 13:0 14:0 15:0.19106789 16:0 17:0 18:0 19:0 20:0.46335584 21:0 22:0 23:0 24:0.37930521 25:0 26:0 27:0 28:0 29:0.416044 30:0.41220555 31:0.17071876 32:0.18209593 33:0.28688923 34:0 35:0.21765856 36:0.19023851 37:0 38:0 39:0 40:0 41:0.15089519 42:0.25381294 43:0 44:0.55120873 45:0.16215061 46:0 47:0.18756841 48:0.14977393 49:0.23311478 50:0.36437804 51:0 52:0 53:0 54:0 55:0.13862365 56:0 57:0 58:0 59:0.30094194 60:0 61:0 62:0 63:0.031158848 64:0.87244773 65:0.21811193 66:0.43622386 67:0.9950372 68:0.099503718 69:0.60335892 70:0.79746979 71:1 #
2.8169014084507043078507357303231e-05 1:0 2:0 3:0 4:0 5:0 6:0 7:0 8:0 9:0 10:0 11:0 12:0 13:0 14:0 15:0.28524372 16:0 17:0 18:0 19:0 20:0 21:0.43583027 22:0.51259035 23:0 24:0.28313082 25:0 26:0 27:0 28:0 29:0.62110871 30:0 31:0.17071876 32:0.18209593 33:0.28688923 34:0 35:0.21765856 36:0.19023851 37:0 38:0 39:0 40:0 41:0.15089519 42:0.25381294 43:0 44:0.55120873 45:0.16215061 46:0 47:0.18756841 48:0.14977393 49:0.23311478 50:0.36437804 51:0 52:0 53:0 54:0 55:0.13862365 56:0 57:0 58:0 59:0.30094194 60:0 61:0 62:0 63:0.11111111 64:0.8888889 65:0.44444445 66:0 67:0.9950372 68:0.099503718 69:0.70710677 70:0.70710677 71:1 #
-2.1126760563380281461847570723123e-05 1:0 2:0.19366537 3:0.21734945 4:0.34253469 5:0.5334149 6:0 7:0 8:0 9:0 10:0 11:0 12:0.32801315 13:0.29148176 14:0 15:0.26647672 16:0.20919667 17:0 18:0 19:0 20:0.32311431 21:0 22:0 23:0 24:0.13225143 25:0 26:0 27:0 28:0 29:0.29012209 30:0 31:0.17071876 32:0.18209593 33:0.28688923 34:0 35:0.21765856 36:0.19023851 37:0 38:0 39:0 40:0 41:0.15089519 42:0.25381294 43:0 44:0.55120873 45:0.16215061 46:0 47:0.18756841 48:0.14977393 49:0.23311478 50:0.36437804 51:0 52:0 53:0 54:0 55:0.13862365 56:0 57:0 58:0 59:0.30094194 60:0 61:0 62:0 63:0.011784295 64:0.70705765 65:0 66:0.70705765 67:0.9950372 68:0.099503718 69:0.77872491 70:0.62736553 71:1 #
2.8169014084507043078507357303231e-05 1:0 2:0.1787546 3:0.2006152 4:0.31616211 5:0.49234599 6:0 7:0 8:0 9:0 10:0 11:0 12:0.3027586 13:0.26903987 14:0.19111848 15:0.36894003 16:0.19309011 17:0 18:0 19:0.18950024 20:0.29823694 21:0 22:0 23:0 24:0.12206907 25:0 26:0 27:0 28:0 29:0.26778489 30:0 31:0.17071876 32:0.18209593 33:0.28688923 34:0 35:0.21765856 36:0.19023851 37:0 38:0 39:0 40:0 41:0.15089519 42:0.25381294 43:0 44:0.55120873 45:0.16215061 46:0 47:0.18756841 48:0.14977393 49:0.23311478 50:0.36437804 51:0 52:0 53:0 54:0 55:0.13862365 56:0 57:0 58:0 59:0.30094194 60:0 61:0 62:0 63:0.010713125 64:0.70706618 65:0 66:0.70706618 67:0.9950372 68:0.099503718 69:0.77204645 70:0.63556606 71:1 #
-2.1126760563380281461847570723123e-05 1:0 2:0.16605812 3:0.18636602 4:0.29370594 5:0.45737591 6:0 7:0 8:0 9:0 10:0 11:0 12:0.28125444 13:0.24993066 14:0.17754382 15:0.45698023 16:0.17937542 17:0 18:0.38907573 19:0 20:0.27705395 21:0 22:0 23:0 24:0 25:0 26:0 27:0 28:0 29:0 30:0 31:0.17071876 32:0.18209593 33:0.28688923 34:0 35:0.21765856 36:0.19023851 37:0 38:0 39:0 40:0 41:0.15089519 42:0.25381294 43:0 44:0.55120873 45:0.16215061 46:0 47:0.18756841 48:0.14977393 49:0.23311478 50:0.36437804 51:0 52:0 53:0 54:0 55:0.13862365 56:0 57:0 58:0 59:0.30094194 60:0 61:0 62:0 63:0.011638928 64:0.64014101 65:0 66:0.76816922 67:0.9950372 68:0.099503718 69:0.77874595 70:0.62733942 71:1 #
7.0422535211267607696268393258077e-06 1:0 2:0.086269625 3:0.09681987 4:0.2288768 5:0.23761348 6:0 7:0 8:0.088729613 9:0 10:0 11:0.15142457 12:0.29223159 13:0 14:0.27670982 15:0.41546386 16:0 17:0.16839921 18:0.20213053 19:0.18291126 20:0 21:0.18137044 22:0.2133141 23:0 24:0.41238639 25:0 26:0.24866681 27:0 28:0.11707763 29:0.12923697 30:0.25608924 31:0.068855613 32:0.073444344 33:0.23142077 34:0.130126 35:0.26336321 36:0 37:0 38:0 39:0.18415397 40:0.09884271 41:0.3651613 42:0 43:0.28837666 44:0.33347666 45:0 46:0.10759048 47:0 48:0.24163193 49:0 50:0 51:0 52:0.11265667 53:0.1379097 54:0 55:0.5031969 56:0 57:0.16199252 58:0.21773645 59:0.12137824 60:0.18804331 61:0 62:0 63:0.002292529 64:0.86657596 65:0.061898284 66:0.49518627 67:0 68:1 69:0.73521322 70:0.67783594 71:1 #
-2.1126760563380281461847570723123e-05 1:0 2:0 3:0 4:0.24133591 5:0.37582228 6:0 7:0 8:0 9:0 10:0 11:0 12:0.46220925 13:0 14:0.29177278 15:0.56324571 16:0 17:0 18:0.31970054 19:0 20:0 21:0.28686526 22:0 23:0 24:0 25:0 26:0 27:0 28:0 29:0 30:0 31:0.068855613 32:0.073444344 33:0.23142077 34:0.130126 35:0.26336321 36:0 37:0 38:0 39:0.18415397 40:0.09884271 41:0.3651613 42:0 43:0.28837666 44:0.33347666 45:0 46:0.10759048 47:0 48:0.24163193 49:0 50:0 51:0 52:0.11265667 53:0.1379097 54:0 55:0.5031969 56:0 57:0.16199252 58:0.21773645 59:0.12137824 60:0.18804331 61:0 62:0 63:0.031234752 64:0.99951208 65:0 66:0 67:0 68:1 69:0.6669628 70:0.74509102 71:1 #
7.0422535211267607696268393258077e-06 1:0 2:0 3:0 4:0.25194055 5:0.39233643 6:0 7:0 8:0.14650625 9:0 10:0 11:0 12:0.36188951 13:0 14:0.30459368 15:0.29399776 16:0 17:0 18:0.1668743 19:0 20:0 21:0.29947051 22:0.35221443 23:0 24:0.29182005 25:0 26:0.2052936 27:0 28:0.1933132 29:0 30:0.21142137 31:0.068855613 32:0.073444344 33:0.23142077 34:0.130126 35:0.26336321 36:0 37:0 38:0 39:0.18415397 40:0.09884271 41:0.3651613 42:0 43:0.28837666 44:0.33347666 45:0 46:0.10759048 47:0 48:0.24163193 49:0 50:0 51:0 52:0.11265667 53:0.1379097 54:0 55:0.5031969 56:0 57:0.16199252 58:0.21773645 59:0.12137824 60:0.18804331 61:0 62:0 63:0.0073619024 64:0.99385679 65:0.11042853 66:0 67:0 68:1 69:0.6772486 70:0.73575425 71:1 #
7.0422535211267607696268393258077e-06 1:0 2:0 3:0 4:0 5:0 6:0 7:0 8:0.29501557 9:0 10:0.48786286 11:0 12:0 13:0 14:0 15:0 16:0 17:0 18:0 19:0 20:0 21:0.30151775 22:0.35462222 23:0 24:0.39175329 25:0 26:0 27:0.55210066 28:0 29:0 30:0 31:0.068855613 32:0.073444344 33:0.23142077 34:0.130126 35:0.26336321 36:0 37:0 38:0 39:0.18415397 40:0.09884271 41:0.3651613 42:0 43:0.28837666 44:0.33347666 45:0 46:0.10759048 47:0 48:0.24163193 49:0 50:0 51:0 52:0.11265667 53:0.1379097 54:0 55:0.5031969 56:0 57:0.16199252 58:0.21773645 59:0.12137824 60:0.18804331 61:0 62:0.31559721 63:0.063119441 64:0.94679159 65:0 66:0 67:0 68:1 69:0.60853916 70:0.79352385 71:1 #
7.0422535211267607696268393258077e-06 1:0 2:0.086269625 3:0.09681987 4:0.2288768 5:0.23761348 6:0 7:0 8:0.088729613 9:0 10:0 11:0.15142457 12:0.29223159 13:0 14:0.27670982 15:0.41546386 16:0 17:0.16839921 18:0.20213053 19:0.18291126 20:0 21:0.18137044 22:0.2133141 23:0 24:0.41238639 25:0 26:0.24866681 27:0 28:0.11707763 29:0.12923697 30:0.25608924 31:0.068855613 32:0.073444344 33:0.23142077 34:0.130126 35:0.26336321 36:0 37:0 38:0 39:0.18415397 40:0.09884271 41:0.3651613 42:0 43:0.28837666 44:0.33347666 45:0 46:0.10759048 47:0 48:0.24163193 49:0 50:0 51:0 52:0.11265667 53:0.1379097 54:0 55:0.5031969 56:0 57:0.16199252 58:0.21773645 59:0.12137824 60:0.18804331 61:0 62:0 63:0.002292529 64:0.86657596 65:0.061898284 66:0.49518627 67:0 68:1 69:0.73521322 70:0.67783594 71:1 #
-2.1126760563380281461847570723123e-05 1:0 2:0 3:0 4:0.24133591 5:0.37582228 6:0 7:0 8:0 9:0 10:0 11:0 12:0.46220925 13:0 14:0.29177278 15:0.56324571 16:0 17:0 18:0.31970054 19:0 20:0 21:0.28686526 22:0 23:0 24:0 25:0 26:0 27:0 28:0 29:0 30:0 31:0.068855613 32:0.073444344 33:0.23142077 34:0.130126 35:0.26336321 36:0 37:0 38:0 39:0.18415397 40:0.09884271 41:0.3651613 42:0 43:0.28837666 44:0.33347666 45:0 46:0.10759048 47:0 48:0.24163193 49:0 50:0 51:0 52:0.11265667 53:0.1379097 54:0 55:0.5031969 56:0 57:0.16199252 58:0.21773645 59:0.12137824 60:0.18804331 61:0 62:0 63:0.031234752 64:0.99951208 65:0 66:0 67:0 68:1 69:0.6669628 70:0.74509102 71:1 #
7.0422535211267607696268393258077e-06 1:0 2:0 3:0 4:0.25194055 5:0.39233643 6:0 7:0 8:0.14650625 9:0 10:0 11:0 12:0.36188951 13:0 14:0.30459368 15:0.29399776 16:0 17:0 18:0.1668743 19:0 20:0 21:0.29947051 22:0.35221443 23:0 24:0.29182005 25:0 26:0.2052936 27:0 28:0.1933132 29:0 30:0.21142137 31:0.068855613 32:0.073444344 33:0.23142077 34:0.130126 35:0.26336321 36:0 37:0 38:0 39:0.18415397 40:0.09884271 41:0.3651613 42:0 43:0.28837666 44:0.33347666 45:0 46:0.10759048 47:0 48:0.24163193 49:0 50:0 51:0 52:0.11265667 53:0.1379097 54:0 55:0.5031969 56:0 57:0.16199252 58:0.21773645 59:0.12137824 60:0.18804331 61:0 62:0 63:0.0073619024 64:0.99385679 65:0.11042853 66:0 67:0 68:1 69:0.6772486 70:0.73575425 71:1 #
7.0422535211267607696268393258077e-06 1:0 2:0 3:0 4:0 5:0 6:0 7:0 8:0.29501557 9:0 10:0.48786286 11:0 12:0 13:0 14:0 15:0 16:0 17:0 18:0 19:0 20:0 21:0.30151775 22:0.35462222 23:0 24:0.39175329 25:0 26:0 27:0.55210066 28:0 29:0 30:0 31:0.068855613 32:0.073444344 33:0.23142077 34:0.130126 35:0.26336321 36:0 37:0 38:0 39:0.18415397 40:0.09884271 41:0.3651613 42:0 43:0.28837666 44:0.33347666 45:0 46:0.10759048 47:0 48:0.24163193 49:0 50:0 51:0 52:0.11265667 53:0.1379097 54:0 55:0.5031969 56:0 57:0.16199252 58:0.21773645 59:0.12137824 60:0.18804331 61:0 62:0.31559721 63:0.063119441 64:0.94679159 65:0 66:0 67:0 68:1 69:0.60853916 70:0.79352385 71:1 #
1.4084507042253521539253678651615e-05 1:0 2:0.32209602 3:0 4:0.42726687 5:0 6:0.22039284 7:0.30998403 8:0 9:0 10:0 11:0.28267914 12:0.13638438 13:0 14:0.17218718 15:0.33239457 16:0.17396352 17:0 18:0 19:0.17072923 20:0 21:0.16929103 22:0.19910723 23:0 24:0.21995495 25:0.30998403 26:0 27:0 28:0 29:0.24125938 30:0 31:0.25721094 32:0.27435219 33:0.3241781 34:0 35:0 36:0.14331004 37:0 38:0 39:0.17197733 40:0 41:0.11367203 42:0 43:0.1346543 44:0.62285298 45:0.24430186 46:0 47:0.14129862 48:0.22565472 49:0 50:0 51:0 52:0 53:0 54:0 55:0.20885533 56:0.24245545 57:0 58:0 59:0.22670491 60:0 61:0 62:0 63:0.0093786186 64:0.91910458 65:0 66:0.39390197 67:0 68:1 69:0.75243074 70:0.65867138 71:1 #
1.4084507042253521539253678651615e-05 1:0 2:0.2516413 3:0 4:0.22253819 5:0 6:0 7:0.48435739 8:0 9:0 10:0 11:0 12:0.21310382 13:0 14:0.26904652 15:0.17312478 16:0.27182209 17:0 18:0 19:0 20:0 21:0.26452124 22:0.31110975 23:0 24:0.1718424 25:0.48435739 26:0 27:0 28:0 29:0 30:0 31:0.25721094 32:0.27435219 33:0.3241781 34:0 35:0 36:0.14331004 37:0 38:0 39:0.17197733 40:0 41:0.11367203 42:0 43:0.1346543 44:0.62285298 45:0.24430186 46:0 47:0.14129862 48:0.22565472 49:0 50:0 51:0 52:0 53:0 54:0 55:0.20885533 56:0.24245545 57:0 58:0 59:0.22670491 60:0 61:0 62:0 63:0.028559774 64:0.79967368 65:0 66:0.59975523 67:0 68:1 69:0.68030363 70:0.73293042 71:1 #
-4.2253521126760562923695141446245e-05 1:0 2:0.41302168 3:0.23176585 4:0.1826272 5:0 6:0 7:0 8:0.21239953 9:0 10:0.35124192 11:0 12:0.17488483 13:0 14:0.22079453 15:0.28415164 16:0.22307231 17:0 18:0 19:0.21892503 20:0 21:0 22:0 23:0 24:0.28204685 25:0.39749059 26:0 27:0 28:0.28025857 29:0 30:0 31:0.25721094 32:0.27435219 33:0.3241781 34:0 35:0 36:0.14331004 37:0 38:0 39:0.17197733 40:0 41:0.11367203 42:0 43:0.1346543 44:0.62285298 45:0.24430186 46:0 47:0.14129862 48:0.22565472 49:0 50:0 51:0 52:0 53:0 54:0 55:0.20885533 56:0.24245545 57:0 58:0 59:0.22670491 60:0 61:0 62:0 63:0.02499219 64:0.99968767 65:0 66:0 67:0 68:1 69:0.67611849 70:0.73679286 71:1 #
1.4084507042253521539253678651615e-05 1:0 2:0.16712499 3:0.18756334 4:0.2955929 5:0 6:0.22870913 7:0 8:0 9:0 10:0 11:0 12:0.14153071 13:0 14:0.17868447 15:0.5748952 16:0.18052784 17:0 18:0.1957877 19:0.35434306 20:0 21:0 22:0 23:0 24:0.22825472 25:0.32168096 26:0 27:0 28:0 29:0.25036305 30:0 31:0.25721094 32:0.27435219 33:0.3241781 34:0 35:0 36:0.14331004 37:0 38:0 39:0.17197733 40:0 41:0.11367203 42:0 43:0.1346543 44:0.62285298 45:0.24430186 46:0 47:0.14129862 48:0.22565472 49:0 50:0 51:0 52:0 53:0 54:0 55:0.20885533 56:0.24245545 57:0 58:0 59:0.22670491 60:0 61:0 62:0 63:0.020828813 64:0.99978304 65:0 66:0 67:0 68:1 69:0.68455482 70:0.72896141 71:1 #
1.4084507042253521539253678651615e-05 1:0 2:0.31308159 3:0.35136956 4:0.13843635 5:0 6:0 7:0 8:0.32200915 9:0.28673413 10:0.26625085 11:0 12:0.13256742 13:0 14:0.1673682 15:0.4307892 16:0.16909483 17:0 18:0.18338826 19:0.16595107 20:0 21:0 22:0 23:0 24:0.21379912 25:0.3013086 26:0 27:0 28:0.21244355 29:0 30:0 31:0.25721094 32:0.27435219 33:0.3241781 34:0 35:0 36:0.14331004 37:0 38:0 39:0.17197733 40:0 41:0.11367203 42:0 43:0.1346543 44:0.62285298 45:0.24430186 46:0 47:0.14129862 48:0.22565472 49:0 50:0 51:0 52:0 53:0 54:0 55:0.20885533 56:0.24245545 57:0 58:0 59:0.22670491 60:0 61:0 62:0 63:0.01281946 64:0.99991781 65:0 66:0 67:0 68:1 69:0.62762344 70:0.77851707 71:1 #
-4.2253521126760562923695141446245e-05 1:0 2:0 3:0 4:0.3356308 5:0 6:0.25968769 7:0 8:0 9:0 10:0 11:0 12:0.16070098 13:0 14:0 15:0.39165869 16:0.20498025 17:0 18:0.22230704 19:0 20:0 21:0 22:0 23:0 24:0.38875759 25:0 26:0 27:0 28:0 29:0.28427461 30:0.56330371 31:0.25721094 32:0.27435219 33:0.3241781 34:0 35:0 36:0.14331004 37:0 38:0 39:0.17197733 40:0 41:0.11367203 42:0 43:0.1346543 44:0.62285298 45:0.24430186 46:0 47:0.14129862 48:0.22565472 49:0 50:0 51:0 52:0 53:0 54:0 55:0.20885533 56:0.24245545 57:0 58:0 59:0.22670491 60:0 61:0 62:0 63:0.02499219 64:0.99968767 65:0 66:0 67:0 68:1 69:0.70144093 70:0.71272761 71:1 #
1.4084507042253521539253678651615e-05 1:0 2:0.33964548 3:0.38118204 4:0.15018219 5:0 6:0 7:0 8:0.34933048 9:0.31106254 10:0 11:0 12:0.14381531 13:0 14:0.18156882 15:0.46734017 16:0.18344194 17:0 18:0.19894812 19:0.18003145 20:0 21:0 22:0 23:0 24:0.11596961 25:0.32687357 26:0 27:0 28:0 29:0 30:0 31:0.25721094 32:0.27435219 33:0.3241781 34:0 35:0 36:0.14331004 37:0 38:0 39:0.17197733 40:0 41:0.11367203 42:0 43:0.1346543 44:0.62285298 45:0.24430186 46:0 47:0.14129862 48:0.22565472 49:0 50:0 51:0 52:0 53:0 54:0 55:0.20885533 56:0.24245545 57:0 58:0 59:0.22670491 60:0 61:0 62:0 63:0.016664352 64:0.99986112 65:0 66:0 67:0 68:1 69:0.57319075 70:0.81942195 71:1 #
1.4084507042253521539253678651615e-05 1:0 2:0.44795391 3:0.16757865 4:0.39614663 5:0.20563416 6:0 7:0 8:0.15357579 9:0.27350417 10:0 11:0.26209003 12:0.25290146 13:0 14:0.31929162 15:0.30818439 16:0.16129276 17:0 18:0 19:0.15829407 20:0 21:0 22:0 23:0 24:0.10196719 25:0.28740615 26:0 27:0 28:0 29:0 30:0 31:0.25721094 32:0.27435219 33:0.3241781 34:0 35:0 36:0.14331004 37:0 38:0 39:0.17197733 40:0 41:0.11367203 42:0 43:0.1346543 44:0.62285298 45:0.24430186 46:0 47:0.14129862 48:0.22565472 49:0 50:0 51:0 52:0 53:0 54:0 55:0.20885533 56:0.24245545 57:0 58:0 59:0.22670491 60:0 61:0 62:0 63:0.0046224524 64:0.55469429 65:0 66:0.83204138 67:0 68:1 69:0.74962181 70:0.66186637 71:1 #
1.4084507042253521539253678651615e-05 1:0 2:0.32209602 3:0 4:0.42726687 5:0 6:0.22039284 7:0.30998403 8:0 9:0 10:0 11:0.28267914 12:0.13638438 13:0 14:0.17218718 15:0.33239457 16:0.17396352 17:0 18:0 19:0.17072923 20:0 21:0.16929103 22:0.19910723 23:0 24:0.21995495 25:0.30998403 26:0 27:0 28:0 29:0.24125938 30:0 31:0.25721094 32:0.27435219 33:0.3241781 34:0 35:0 36:0.14331004 37:0 38:0 39:0.17197733 40:0 41:0.11367203 42:0 43:0.1346543 44:0.62285298 45:0.24430186 46:0 47:0.14129862 48:0.22565472 49:0 50:0 51:0 52:0 53:0 54:0 55:0.20885533 56:0.24245545 57:0 58:0 59:0.22670491 60:0 61:0 62:0 63:0.0093786186 64:0.91910458 65:0 66:0.39390197 67:0 68:1 69:0.75243074 70:0.65867138 71:1 #
1.4084507042253521539253678651615e-05 1:0 2:0.2516413 3:0 4:0.22253819 5:0 6:0 7:0.48435739 8:0 9:0 10:0 11:0 12:0.21310382 13:0 14:0.26904652 15:0.17312478 16:0.27182209 17:0 18:0 19:0 20:0 21:0.26452124 22:0.31110975 23:0 24:0.1718424 25:0.48435739 26:0 27:0 28:0 29:0 30:0 31:0.25721094 32:0.27435219 33:0.3241781 34:0 35:0 36:0.14331004 37:0 38:0 39:0.17197733 40:0 41:0.11367203 42:0 43:0.1346543 44:0.62285298 45:0.24430186 46:0 47:0.14129862 48:0.22565472 49:0 50:0 51:0 52:0 53:0 54:0 55:0.20885533 56:0.24245545 57:0 58:0 59:0.22670491 60:0 61:0 62:0 63:0.028559774 64:0.79967368 65:0 66:0.59975523 67:0 68:1 69:0.68030363 70:0.73293042 71:1 #
-4.2253521126760562923695141446245e-05 1:0 2:0.41302168 3:0.23176585 4:0.1826272 5:0 6:0 7:0 8:0.21239953 9:0 10:0.35124192 11:0 12:0.17488483 13:0 14:0.22079453 15:0.28415164 16:0.22307231 17:0 18:0 19:0.21892503 20:0 21:0 22:0 23:0 24:0.28204685 25:0.39749059 26:0 27:0 28:0.28025857 29:0 30:0 31:0.25721094 32:0.27435219 33:0.3241781 34:0 35:0 36:0.14331004 37:0 38:0 39:0.17197733 40:0 41:0.11367203 42:0 43:0.1346543 44:0.62285298 45:0.24430186 46:0 47:0.14129862 48:0.22565472 49:0 50:0 51:0 52:0 53:0 54:0 55:0.20885533 56:0.24245545 57:0 58:0 59:0.22670491 60:0 61:0 62:0 63:0.02499219 64:0.99968767 65:0 66:0 67:0 68:1 69:0.67611849 70:0.73679286 71:1 #
1.4084507042253521539253678651615e-05 1:0 2:0.16712499 3:0.18756334 4:0.2955929 5:0 6:0.22870913 7:0 8:0 9:0 10:0 11:0 12:0.14153071 13:0 14:0.17868447 15:0.5748952 16:0.18052784 17:0 18:0.1957877 19:0.35434306 20:0 21:0 22:0 23:0 24:0.22825472 25:0.32168096 26:0 27:0 28:0 29:0.25036305 30:0 31:0.25721094 32:0.27435219 33:0.3241781 34:0 35:0 36:0.14331004 37:0 38:0 39:0.17197733 40:0 41:0.11367203 42:0 43:0.1346543 44:0.62285298 45:0.24430186 46:0 47:0.14129862 48:0.22565472 49:0 50:0 51:0 52:0 53:0 54:0 55:0.20885533 56:0.24245545 57:0 58:0 59:0.22670491 60:0 61:0 62:0 63:0.020828813 64:0.99978304 65:0 66:0 67:0 68:1 69:0.68455482 70:0.72896141 71:1 #
1.4084507042253521539253678651615e-05 1:0 2:0.31308159 3:0.35136956 4:0.13843635 5:0 6:0 7:0 8:0.32200915 9:0.28673413 10:0.26625085 11:0 12:0.13256742 13:0 14:0.1673682 15:0.4307892 16:0.16909483 17:0 18:0.18338826 19:0.16595107 20:0 21:0 22:0 23:0 24:0.21379912 25:0.3013086 26:0 27:0 28:0.21244355 29:0 30:0 31:0.25721094 32:0.27435219 33:0.3241781 34:0 35:0 36:0.14331004 37:0 38:0 39:0.17197733 40:0 41:0.11367203 42:0 43:0.1346543 44:0.62285298 45:0.24430186 46:0 47:0.14129862 48:0.22565472 49:0 50:0 51:0 52:0 53:0 54:0 55:0.20885533 56:0.24245545 57:0 58:0 59:0.22670491 60:0 61:0 62:0 63:0.01281946 64:0.99991781 65:0 66:0 67:0 68:1 69:0.62762344 70:0.77851707 71:1 #
-4.2253521126760562923695141446245e-05 1:0 2:0 3:0 4:0.3356308 5:0 6:0.25968769 7:0 8:0 9:0 10:0 11:0 12:0.16070098 13:0 14:0 15:0.39165869 16:0.20498025 17:0 18:0.22230704 19:0 20:0 21:0 22:0 23:0 24:0.38875759 25:0 26:0 27:0 28:0 29:0.28427461 30:0.56330371 31:0.25721094 32:0.27435219 33:0.3241781 34:0 35:0 36:0.14331004 37:0 38:0 39:0.17197733 40:0 41:0.11367203 42:0 43:0.1346543 44:0.62285298 45:0.24430186 46:0 47:0.14129862 48:0.22565472 49:0 50:0 51:0 52:0 53:0 54:0 55:0.20885533 56:0.24245545 57:0 58:0 59:0.22670491 60:0 61:0 62:0 63:0.02499219 64:0.99968767 65:0 66:0 67:0 68:1 69:0.70144093 70:0.71272761 71:1 #
1.4084507042253521539253678651615e-05 1:0 2:0.33964548 3:0.38118204 4:0.15018219 5:0 6:0 7:0 8:0.34933048 9:0.31106254 10:0 11:0 12:0.14381531 13:0 14:0.18156882 15:0.46734017 16:0.18344194 17:0 18:0.19894812 19:0.18003145 20:0 21:0 22:0 23:0 24:0.11596961 25:0.32687357 26:0 27:0 28:0 29:0 30:0 31:0.25721094 32:0.27435219 33:0.3241781 34:0 35:0 36:0.14331004 37:0 38:0 39:0.17197733 40:0 41:0.11367203 42:0 43:0.1346543 44:0.62285298 45:0.24430186 46:0 47:0.14129862 48:0.22565472 49:0 50:0 51:0 52:0 53:0 54:0 55:0.20885533 56:0.24245545 57:0 58:0 59:0.22670491 60:0 61:0 62:0 63:0.016664352 64:0.99986112 65:0 66:0 67:0 68:1 69:0.57319075 70:0.81942195 71:1 #
1.4084507042253521539253678651615e-05 1:0 2:0.44795391 3:0.16757865 4:0.39614663 5:0.20563416 6:0 7:0 8:0.15357579 9:0.27350417 10:0 11:0.26209003 12:0.25290146 13:0 14:0.31929162 15:0.30818439 16:0.16129276 17:0 18:0 19:0.15829407 20:0 21:0 22:0 23:0 24:0.10196719 25:0.28740615 26:0 27:0 28:0 29:0 30:0 31:0.25721094 32:0.27435219 33:0.3241781 34:0 35:0 36:0.14331004 37:0 38:0 39:0.17197733 40:0 41:0.11367203 42:0 43:0.1346543 44:0.62285298 45:0.24430186 46:0 47:0.14129862 48:0.22565472 49:0 50:0 51:0 52:0 53:0 54:0 55:0.20885533 56:0.24245545 57:0 58:0 59:0.22670491 60:0 61:0 62:0 63:0.0046224524 64:0.55469429 65:0 66:0.83204138 67:0 68:1 69:0.74962181 70:0.66186637 71:1 #
2.1126760563380281461847570723123e-05 1:0 2:0 3:0 4:0.19758464 5:0 6:0 7:0 8:0.22979535 9:0 10:0 11:0 12:0 13:0 14:0 15:0.15371203 16:0 17:0 18:0 19:0 20:0 21:0.23486006 22:0.27622452 23:0 24:0.45772034 25:0 26:0.32200342 27:0 28:0 29:0 30:0.6632297 31:0.1478661 32:0.1577203 33:0.49697161 34:0 35:0.18852247 36:0.16477291 37:0 38:0 39:0.19773355 40:0 41:0.26139227 42:0.21983717 43:0 44:0.35806733 45:0.14044489 46:0 47:0 48:0.12972498 49:0 50:0 51:0 52:0 53:0 54:0 55:0.3602019 56:0 57:0.1739379 58:0 59:0 60:0.40381938 61:0 62:0 63:0.020545535 64:0.98618573 65:0.16436428 66:0 67:0 68:1 69:0.6003648 70:0.79972631 71:1 #
-2.1126760563380281461847570723123e-05 1:0 2:0.21846266 3:0.24517931 4:0 5:0 6:0 7:0 8:0 9:0 10:0 11:0 12:0.18500629 13:0.32880366 14:0 15:0.15029846 16:0 17:0 18:0 19:0.23159532 20:0 21:0.22964439 22:0 23:0 24:0.44755548 25:0 26:0 27:0 28:0 29:0 30:0.64850098 31:0.1478661 32:0.1577203 33:0.49697161 34:0 35:0.18852247 36:0.16477291 37:0 38:0 39:0.19773355 40:0 41:0.26139227 42:0.21983717 43:0 44:0.35806733 45:0.14044489 46:0 47:0 48:0.12972498 49:0 50:0 51:0 52:0 53:0 54:0 55:0.3602019 56:0 57:0.1739379 58:0 59:0 60:0.40381938 61:0 62:0 63:0.030303031 64:0.969697 65:0.24242425 66:0 67:0 68:1 69:0.68212014 70:0.73124009 71:1 #
2.1126760563380281461847570723123e-05 1:0 2:0.14366001 3:0.16122876 4:0.5081811 5:0 6:0.39319503 7:0.27651575 8:0 9:0 10:0 11:0 12:0.12165926 13:0.21621974 14:0 15:0.29650667 16:0.15518105 17:0 18:0 19:0.15229598 20:0 21:0.15101306 22:0.17761007 23:0 24:0.29431036 25:0 26:0.20704551 27:0 28:0.19496287 29:0 30:0.21322559 31:0.1478661 32:0.1577203 33:0.49697161 34:0 35:0.18852247 36:0.16477291 37:0 38:0 39:0.19773355 40:0 41:0.26139227 42:0.21983717 43:0 44:0.35806733 45:0.14044489 46:0 47:0 48:0.12972498 49:0 50:0 51:0 52:0 53:0 54:0 55:0.3602019 56:0 57:0.1739379 58:0 59:0 60:0.40381938 61:0 62:0 63:0.0078400634 64:0.98784798 65:0.10976089 66:0.10976089 67:0 68:1 69:0.69295675 70:0.72097915 71:1 #
-2.1126760563380281461847570723123e-05 1:0 2:0 3:0 4:0.48778725 5:0 6:0.25161046 7:0 8:0.18910249 9:0 10:0 11:0 12:0 13:0 14:0 15:0.25298446 16:0 17:0 18:0 19:0 20:0 21:0.19327033 22:0.22730984 23:0 24:0.37666583 25:0 26:0.26498207 27:0 28:0 29:0 30:0.54578298 31:0.1478661 32:0.1577203 33:0.49697161 34:0 35:0.18852247 36:0.16477291 37:0 38:0 39:0.19773355 40:0 41:0.26139227 42:0.21983717 43:0 44:0.35806733 45:0.14044489 46:0 47:0 48:0.12972498 49:0 50:0 51:0 52:0 53:0 54:0 55:0.3602019 56:0 57:0.1739379 58:0 59:0 60:0.40381938 61:0 62:0 63:0.010567377 64:0.9299292 65:0.11624115 66:0.34872344 67:0 68:1 69:0.55221975 70:0.83369857 71:1 #
2.1126760563380281461847570723123e-05 1:0 2:0.14470641 3:0.16240312 4:0.5118826 5:0.1992833 6:0.1980295 7:0.27852985 8:0 9:0 10:0 11:0 12:0.24509081 13:0.21779464 14:0 15:0.19911091 16:0.15631136 17:0 18:0 19:0.15340528 20:0 21:0.15211301 22:0 23:0 24:0.29645407 25:0 26:0.2085536 27:0 28:0 29:0 30:0.42955735 31:0.1478661 32:0.1577203 33:0.49697161 34:0 35:0.18852247 36:0.16477291 37:0 38:0 39:0.19773355 40:0 41:0.26139227 42:0.21983717 43:0 44:0.35806733 45:0.14044489 46:0 47:0 48:0.12972498 49:0 50:0 51:0 52:0 53:0 54:0 55:0.3602019 56:0 57:0.1739379 58:0 59:0 60:0.40381938 61:0 62:0 63:0.0049407571 64:0.55336481 65:0.069170602 66:0.83004725 67:0 68:1 69:0.66858649 70:0.7436344 71:1 #
-2.1126760563380281461847570723123e-05 1:0 2:0.22645283 3:0.25414661 4:0.20026283 5:0 6:0.30989876 7:0 8:0 9:0 10:0 11:0 12:0.1917728 13:0.34082949 14:0 15:0.31159109 16:0.24461357 17:0 18:0 19:0 20:0 21:0.2380435 22:0.27996865 23:0 24:0.30928305 25:0 26:0 27:0 28:0.30732208 29:0 30:0.33610979 31:0.1478661 32:0.1577203 33:0.49697161 34:0 35:0.18852247 36:0.16477291 37:0 38:0 39:0.19773355 40:0 41:0.26139227 42:0.21983717 43:0 44:0.35806733 45:0.14044489 46:0 47:0 48:0.12972498 49:0 50:0 51:0 52:0 53:0 54:0 55:0.3602019 56:0 57:0.1739379 58:0 59:0 60:0.40381938 61:0 62:0 63:0.027767068 64:0.99961442 65:0 66:0 67:0 68:1 69:0.71673721 70:0.69734335 71:1 #
2.1126760563380281461847570723123e-05 1:0 2:0 3:0 4:0.19758464 5:0 6:0 7:0 8:0.22979535 9:0 10:0 11:0 12:0 13:0 14:0 15:0.15371203 16:0 17:0 18:0 19:0 20:0 21:0.23486006 22:0.27622452 23:0 24:0.45772034 25:0 26:0.32200342 27:0 28:0 29:0 30:0.6632297 31:0.1478661 32:0.1577203 33:0.49697161 34:0 35:0.18852247 36:0.16477291 37:0 38:0 39:0.19773355 40:0 41:0.26139227 42:0.21983717 43:0 44:0.35806733 45:0.14044489 46:0 47:0 48:0.12972498 49:0 50:0 51:0 52:0 53:0 54:0 55:0.3602019 56:0 57:0.1739379 58:0 59:0 60:0.40381938 61:0 62:0 63:0.020545535 64:0.98618573 65:0.16436428 66:0 67:0 68:1 69:0.6003648 70:0.79972631 71:1 #
-2.1126760563380281461847570723123e-05 1:0 2:0.21846266 3:0.24517931 4:0 5:0 6:0 7:0 8:0 9:0 10:0 11:0 12:0.18500629 13:0.32880366 14:0 15:0.15029846 16:0 17:0 18:0 19:0.23159532 20:0 21:0.22964439 22:0 23:0 24:0.44755548 25:0 26:0 27:0 28:0 29:0 30:0.64850098 31:0.1478661 32:0.1577203 33:0.49697161 34:0 35:0.18852247 36:0.16477291 37:0 38:0 39:0.19773355 40:0 41:0.26139227 42:0.21983717 43:0 44:0.35806733 45:0.14044489 46:0 47:0 48:0.12972498 49:0 50:0 51:0 52:0 53:0 54:0 55:0.3602019 56:0 57:0.1739379 58:0 59:0 60:0.40381938 61:0 62:0 63:0.030303031 64:0.969697 65:0.24242425 66:0 67:0 68:1 69:0.68212014 70:0.73124009 71:1 #
2.1126760563380281461847570723123e-05 1:0 2:0.14366001 3:0.16122876 4:0.5081811 5:0 6:0.39319503 7:0.27651575 8:0 9:0 10:0 11:0 12:0.12165926 13:0.21621974 14:0 15:0.29650667 16:0.15518105 17:0 18:0 19:0.15229598 20:0 21:0.15101306 22:0.17761007 23:0 24:0.29431036 25:0 26:0.20704551 27:0 28:0.19496287 29:0 30:0.21322559 31:0.1478661 32:0.1577203 33:0.49697161 34:0 35:0.18852247 36:0.16477291 37:0 38:0 39:0.19773355 40:0 41:0.26139227 42:0.21983717 43:0 44:0.35806733 45:0.14044489 46:0 47:0 48:0.12972498 49:0 50:0 51:0 52:0 53:0 54:0 55:0.3602019 56:0 57:0.1739379 58:0 59:0 60:0.40381938 61:0 62:0 63:0.0078400634 64:0.98784798 65:0.10976089 66:0.10976089 67:0 68:1 69:0.69295675 70:0.72097915 71:1 #
-2.1126760563380281461847570723123e-05 1:0 2:0 3:0 4:0.48778725 5:0 6:0.25161046 7:0 8:0.18910249 9:0 10:0 11:0 12:0 13:0 14:0 15:0.25298446 16:0 17:0 18:0 19:0 20:0 21:0.19327033 22:0.22730984 23:0 24:0.37666583 25:0 26:0.26498207 27:0 28:0 29:0 30:0.54578298 31:0.1478661 32:0.1577203 33:0.49697161 34:0 35:0.18852247 36:0.16477291 37:0 38:0 39:0.19773355 40:0 41:0.26139227 42:0.21983717 43:0 44:0.35806733 45:0.14044489 46:0 47:0 48:0.12972498 49:0 50:0 51:0 52:0 53:0 54:0 55:0.3602019 56:0 57:0.1739379 58:0 59:0 60:0.40381938 61:0 62:0 63:0.010567377 64:0.9299292 65:0.11624115 66:0.34872344 67:0 68:1 69:0.55221975 70:0.83369857 71:1 #
2.1126760563380281461847570723123e-05 1:0 2:0.14470641 3:0.16240312 4:0.5118826 5:0.1992833 6:0.1980295 7:0.27852985 8:0 9:0 10:0 11:0 12:0.24509081 13:0.21779464 14:0 15:0.19911091 16:0.15631136 17:0 18:0 19:0.15340528 20:0 21:0.15211301 22:0 23:0 24:0.29645407 25:0 26:0.2085536 27:0 28:0 29:0 30:0.42955735 31:0.1478661 32:0.1577203 33:0.49697161 34:0 35:0.18852247 36:0.16477291 37:0 38:0 39:0.19773355 40:0 41:0.26139227 42:0.21983717 43:0 44:0.35806733 45:0.14044489 46:0 47:0 48:0.12972498 49:0 50:0 51:0 52:0 53:0 54:0 55:0.3602019 56:0 57:0.1739379 58:0 59:0 60:0.40381938 61:0 62:0 63:0.0049407571 64:0.55336481 65:0.069170602 66:0.83004725 67:0 68:1 69:0.66858649 70:0.7436344 71:1 #
-2.1126760563380281461847570723123e-05 1:0 2:0.22645283 3:0.25414661 4:0.20026283 5:0 6:0.30989876 7:0 8:0 9:0 10:0 11:0 12:0.1917728 13:0.34082949 14:0 15:0.31159109 16:0.24461357 17:0 18:0 19:0 20:0 21:0.2380435 22:0.27996865 23:0 24:0.30928305 25:0 26:0 27:0 28:0.30732208 29:0 30:0.33610979 31:0.1478661 32:0.1577203 33:0.49697161 34:0 35:0.18852247 36:0.16477291 37:0 38:0 39:0.19773355 40:0 41:0.26139227 42:0.21983717 43:0 44:0.35806733 45:0.14044489 46:0 47:0 48:0.12972498 49:0 50:0 51:0 52:0 53:0 54:0 55:0.3602019 56:0 57:0.1739379 58:0 59:0 60:0.40381938 61:0 62:0 63:0.027767068 64:0.99961442 65:0 66:0 67:0 68:1 69:0.71673721 70:0.69734335 71:1 #
7.0422535211267607696268393258077e-06 1:0 2:0 3:0 4:0 5:0 6:0 7:0 8:0 9:0 10:0 11:0 12:0.31396967 13:0 14:0.39639106 15:0.25506786 16:0 17:0 18:0 19:0 20:0 21:0.38972387 22:0.45836356 23:0 24:0.25317848 25:0 26:0 27:0 28:0.50314647 29:0 30:0 31:0 32:0 33:0.19744684 34:0 35:0 36:0 37:0 38:0.2304938 39:0 40:0 41:0.10385115 42:0 43:0.12302064 44:0.28452033 45:0 46:0 47:0 48:0.20615894 49:0 50:0 51:0 52:0.57670802 53:0.23532747 54:0.19959798 55:0.47702739 56:0 57:0 58:0.18577145 59:0.20711839 60:0.16043745 61:0 62:0 63:0.099503718 64:0.9950372 65:0 66:0 67:0 68:1 69:0.70683819 70:0.70737529 71:1 #
7.0422535211267607696268393258077e-06 1:0 2:0 3:0 4:0 5:0 6:0 7:0 8:0 9:0 10:0 11:0 12:0 13:0 14:0 15:0.22416539 16:0 17:0 18:0 19:0 20:0 21:0.3425073 22:0.40283105 23:0 24:0.44500986 25:0 26:0 27:0 28:0 29:0.48811269 30:0.48360932 31:0 32:0 33:0.19744684 34:0 35:0 36:0 37:0 38:0.2304938 39:0 40:0 41:0.10385115 42:0 43:0.12302064 44:0.28452033 45:0 46:0 47:0 48:0.20615894 49:0 50:0 51:0 52:0.57670802 53:0.23532747 54:0.19959798 55:0.47702739 56:0 57:0 58:0.18577145 59:0.20711839 60:0.16043745 61:0 62:0 63:0.066519007 64:0.99778515 65:0 66:0 67:0 68:1 69:0.68800634 70:0.72570467 71:1 #
-2.1126760563380281461847570723123e-05 1:0 2:0 3:0 4:0 5:0 6:0 7:0 8:0 9:0 10:0 11:0 12:0.12943846 13:0 14:0.16341786 15:0.31546605 16:0 17:0 18:0 19:0.32406834 20:0 21:0.48200765 22:0.1889669 23:0.25432211 24:0.52188218 25:0 26:0 27:0 28:0.20742929 29:0.22897229 30:0.22685978 31:0 32:0 33:0.19744684 34:0 35:0 36:0 37:0 38:0.2304938 39:0 40:0 41:0.10385115 42:0 43:0.12302064 44:0.28452033 45:0 46:0 47:0 48:0.20615894 49:0 50:0 51:0 52:0.57670802 53:0.23532747 54:0.19959798 55:0.47702739 56:0 57:0 58:0.18577145 59:0.20711839 60:0.16043745 61:0 62:0 63:0.010203551 64:0.99994797 65:0 66:0 67:0 68:1 69:0.65812564 70:0.75290811 71:1 #
7.0422535211267607696268393258077e-06 1:0 2:0 3:0 4:0 5:0 6:0 7:0 8:0 9:0 10:0 11:0 12:0 13:0 14:0 15:0.44224092 16:0 17:0 18:0.37652659 19:0 20:0 21:0.67570978 22:0.39735922 23:0 24:0.21948256 25:0 26:0 27:0 28:0 29:0 30:0 31:0 32:0 33:0.19744684 34:0 35:0 36:0 37:0 38:0.2304938 39:0 40:0 41:0.10385115 42:0 43:0.12302064 44:0.28452033 45:0 46:0 47:0 48:0.20615894 49:0 50:0 51:0 52:0.57670802 53:0.23532747 54:0.19959798 55:0.47702739 56:0 57:0 58:0.18577145 59:0.20711839 60:0.16043745 61:0 62:0 63:0.05547002 64:0.99846035 65:0 66:0 67:0 68:1 69:0.74821496 70:0.66345638 71:1 #
7.0422535211267607696268393258077e-06 1:0 2:0 3:0 4:0 5:0 6:0 7:0 8:0 9:0 10:0 11:0 12:0.31396967 13:0 14:0.39639106 15:0.25506786 16:0 17:0 18:0 19:0 20:0 21:0.38972387 22:0.45836356 23:0 24:0.25317848 25:0 26:0 27:0 28:0.50314647 29:0 30:0 31:0 32:0 33:0.19744684 34:0 35:0 36:0 37:0 38:0.2304938 39:0 40:0 41:0.10385115 42:0 43:0.12302064 44:0.28452033 45:0 46:0 47:0 48:0.20615894 49:0 50:0 51:0 52:0.57670802 53:0.23532747 54:0.19959798 55:0.47702739 56:0 57:0 58:0.18577145 59:0.20711839 60:0.16043745 61:0 62:0 63:0.099503718 64:0.9950372 65:0 66:0 67:0 68:1 69:0.70683819 70:0.70737529 71:1 #
7.0422535211267607696268393258077e-06 1:0 2:0 3:0 4:0 5:0 6:0 7:0 8:0 9:0 10:0 11:0 12:0 13:0 14:0 15:0.22416539 16:0 17:0 18:0 19:0 20:0 21:0.3425073 22:0.40283105 23:0 24:0.44500986 25:0 26:0 27:0 28:0 29:0.48811269 30:0.48360932 31:0 32:0 33:0.19744684 34:0 35:0 36:0 37:0 38:0.2304938 39:0 40:0 41:0.10385115 42:0 43:0.12302064 44:0.28452033 45:0 46:0 47:0 48:0.20615894 49:0 50:0 51:0 52:0.57670802 53:0.23532747 54:0.19959798 55:0.47702739 56:0 57:0 58:0.18577145 59:0.20711839 60:0.16043745 61:0 62:0 63:0.066519007 64:0.99778515 65:0 66:0 67:0 68:1 69:0.68800634 70:0.72570467 71:1 #
-2.1126760563380281461847570723123e-05 1:0 2:0 3:0 4:0 5:0 6:0 7:0 8:0 9:0 10:0 11:0 12:0.12943846 13:0 14:0.16341786 15:0.31546605 16:0 17:0 18:0 19:0.32406834 20:0 21:0.48200765 22:0.1889669 23:0.25432211 24:0.52188218 25:0 26:0 27:0 28:0.20742929 29:0.22897229 30:0.22685978 31:0 32:0 33:0.19744684 34:0 35:0 36:0 37:0 38:0.2304938 39:0 40:0 41:0.10385115 42:0 43:0.12302064 44:0.28452033 45:0 46:0 47:0 48:0.20615894 49:0 50:0 51:0 52:0.57670802 53:0.23532747 54:0.19959798 55:0.47702739 56:0 57:0 58:0.18577145 59:0.20711839 60:0.16043745 61:0 62:0 63:0.010203551 64:0.99994797 65:0 66:0 67:0 68:1 69:0.65812564 70:0.75290811 71:1 #
7.0422535211267607696268393258077e-06 1:0 2:0 3:0 4:0 5:0 6:0 7:0 8:0 9:0 10:0 11:0 12:0 13:0 14:0 15:0.44224092 16:0 17:0 18:0.37652659 19:0 20:0 21:0.67570978 22:0.39735922 23:0 24:0.21948256 25:0 26:0 27:0 28:0 29:0 30:0 31:0 32:0 33:0.19744684 34:0 35:0 36:0 37:0 38:0.2304938 39:0 40:0 41:0.10385115 42:0 43:0.12302064 44:0.28452033 45:0 46:0 47:0 48:0.20615894 49:0 50:0 51:0 52:0.57670802 53:0.23532747 54:0.19959798 55:0.47702739 56:0 57:0 58:0.18577145 59:0.20711839 60:0.16043745 61:0 62:0 63:0.05547002 64:0.99846035 65:0 66:0 67:0 68:1 69:0.74821496 70:0.66345638 71:1 #
1.4084507042253521539253678651615e-05 1:0 2:0 3:0 4:0.16209199 5:0 6:0 7:0.35279542 8:0.37703323 9:0 10:0.3117471 11:0.3217195 12:0 13:0 14:0 15:0.25220066 16:0.19798931 17:0.35778415 18:0 19:0 20:0 21:0.19267152 22:0.22660558 23:0 24:0.25033256 25:0 26:0 27:0.35279542 28:0 29:0 30:0 31:0 32:0 33:0.16153295 34:0 35:0 36:0.21422757 37:0 38:0 39:0.51416194 40:0.275971 41:0.16992305 42:0 43:0 44:0.46553707 45:0.18259777 46:0.30039498 47:0 48:0.1686604 49:0 50:0 51:0 52:0 53:0 54:0 55:0.31220818 56:0 57:0 58:0.30396247 59:0 60:0 61:0 62:0 63:0.015615472 64:0.78077358 65:0 66:0.62461889 67:0.9950372 68:0.099503718 69:0.58001482 70:0.81460589 71:1 #
-7.0422535211267607696268393258077e-06 1:0 2:0 3:0 4:0.16249797 5:0 6:0 7:0.35367903 8:0.56696635 9:0 10:0 11:0.32252529 12:0.15560897 13:0 14:0 15:0.25283235 16:0.19848521 17:0.35868028 18:0 19:0 20:0 21:0.1931541 22:0.22717315 23:0 24:0.12547977 25:0 26:0 27:0 28:0.24936837 29:0 30:0 31:0 32:0 33:0.16153295 34:0 35:0 36:0.21422757 37:0 38:0 39:0.51416194 40:0.275971 41:0.16992305 42:0 43:0 44:0.46553707 45:0.18259777 46:0.30039498 47:0 48:0.1686604 49:0 50:0 51:0 52:0 53:0 54:0 55:0.31220818 56:0 57:0 58:0.30396247 59:0 60:0 61:0 62:0 63:0.012605821 64:0.83198416 65:0 66:0.55465615 67:0.9950372 68:0.099503718 69:0.56427288 70:0.82558835 71:1 #
-7.0422535211267607696268393258077e-06 1:0 2:0.28824294 3:0 4:0 5:0 6:0 7:0 8:0.59292442 9:0 10:0 11:0 12:0 13:0 14:0 15:0 16:0 17:0 18:0 19:0 20:0 21:0.30299625 22:0.35636112 23:0 24:0.19683714 25:0.5548079 26:0 27:0 28:0 29:0 30:0 31:0 32:0 33:0.16153295 34:0 35:0 36:0.21422757 37:0 38:0 39:0.51416194 40:0.275971 41:0.16992305 42:0 43:0 44:0.46553707 45:0.18259777 46:0.30039498 47:0 48:0.1686604 49:0 50:0 51:0 52:0 53:0 54:0 55:0.31220818 56:0 57:0 58:0.30396247 59:0 60:0 61:0 62:0 63:0.05547002 64:0.99846035 65:0 66:0 67:0.9950372 68:0.099503718 69:0.68140191 70:0.73190945 71:1 #
1.4084507042253521539253678651615e-05 1:0 2:0 3:0 4:0.16209199 5:0 6:0 7:0.35279542 8:0.37703323 9:0 10:0.3117471 11:0.3217195 12:0 13:0 14:0 15:0.25220066 16:0.19798931 17:0.35778415 18:0 19:0 20:0 21:0.19267152 22:0.22660558 23:0 24:0.25033256 25:0 26:0 27:0.35279542 28:0 29:0 30:0 31:0 32:0 33:0.16153295 34:0 35:0 36:0.21422757 37:0 38:0 39:0.51416194 40:0.275971 41:0.16992305 42:0 43:0 44:0.46553707 45:0.18259777 46:0.30039498 47:0 48:0.1686604 49:0 50:0 51:0 52:0 53:0 54:0 55:0.31220818 56:0 57:0 58:0.30396247 59:0 60:0 61:0 62:0 63:0.015615472 64:0.78077358 65:0 66:0.62461889 67:0.9950372 68:0.099503718 69:0.58001482 70:0.81460589 71:1 #
-7.0422535211267607696268393258077e-06 1:0 2:0 3:0 4:0.16249797 5:0 6:0 7:0.35367903 8:0.56696635 9:0 10:0 11:0.32252529 12:0.15560897 13:0 14:0 15:0.25283235 16:0.19848521 17:0.35868028 18:0 19:0 20:0 21:0.1931541 22:0.22717315 23:0 24:0.12547977 25:0 26:0 27:0 28:0.24936837 29:0 30:0 31:0 32:0 33:0.16153295 34:0 35:0 36:0.21422757 37:0 38:0 39:0.51416194 40:0.275971 41:0.16992305 42:0 43:0 44:0.46553707 45:0.18259777 46:0.30039498 47:0 48:0.1686604 49:0 50:0 51:0 52:0 53:0 54:0 55:0.31220818 56:0 57:0 58:0.30396247 59:0 60:0 61:0 62:0 63:0.012605821 64:0.83198416 65:0 66:0.55465615 67:0.9950372 68:0.099503718 69:0.56427288 70:0.82558835 71:1 #
-7.0422535211267607696268393258077e-06 1:0 2:0.28824294 3:0 4:0 5:0 6:0 7:0 8:0.59292442 9:0 10:0 11:0 12:0 13:0 14:0 15:0 16:0 17:0 18:0 19:0 20:0 21:0.30299625 22:0.35636112 23:0 24:0.19683714 25:0.5548079 26:0 27:0 28:0 29:0 30:0 31:0 32:0 33:0.16153295 34:0 35:0 36:0.21422757 37:0 38:0 39:0.51416194 40:0.275971 41:0.16992305 42:0 43:0 44:0.46553707 45:0.18259777 46:0.30039498 47:0 48:0.1686604 49:0 50:0 51:0 52:0 53:0 54:0 55:0.31220818 56:0 57:0 58:0.30396247 59:0 60:0 61:0 62:0 63:0.05547002 64:0.99846035 65:0 66:0 67:0.9950372 68:0.099503718 69:0.68140191 70:0.73190945 71:1 #
-7.0422535211267607696268393258077e-06 1:0 2:0 3:0 4:0 5:0 6:0 7:0 8:0.3670688 9:0 10:0 11:0 12:0.6044718 13:0 14:0.38157701 15:0.24553537 16:0 17:0 18:0 19:0 20:0 21:0 22:0 23:0 24:0.24371663 25:0 26:0 27:0 28:0.48434275 29:0 30:0 31:0.11678576 32:0.12456869 33:0.29438394 34:0 35:0.14889647 36:0 37:0 38:0.22910361 39:0 40:0 41:0.30967438 42:0 43:0.24455732 44:0.37707239 45:0.11092443 46:0 47:0 48:0 49:0 50:0 51:0 52:0.38215312 53:0.23390813 54:0 55:0.3793202 56:0 57:0.13737746 58:0.184651 59:0 60:0.3189396 61:0 62:0.24233772 63:0.04038962 64:0.96935087 65:0 66:0 67:0.99827439 68:0.058722023 69:0.72872418 70:0.68480736 71:1 #
-7.0422535211267607696268393258077e-06 1:0 2:0 3:0 4:0 5:0 6:0 7:0 8:0.31241891 9:0 10:0 11:0 12:0.51447695 13:0 14:0.32476714 15:0.20897962 16:0 17:0 18:0 19:0.32201728 20:0 21:0 22:0 23:0 24:0.20743166 25:0 26:0 27:0.58466977 28:0 29:0 30:0 31:0.11678576 32:0.12456869 33:0.29438394 34:0 35:0.14889647 36:0 37:0 38:0.22910361 39:0 40:0 41:0.30967438 42:0 43:0.24455732 44:0.37707239 45:0.11092443 46:0 47:0 48:0 49:0 50:0 51:0 52:0.38215312 53:0.23390813 54:0 55:0.3793202 56:0 57:0.13737746 58:0.184651 59:0 60:0.3189396 61:0 62:0.19601145 63:0.032668576 64:0.78404582 65:0 66:0.58803439 67:0.99827439 68:0.058722023 69:0.70684278 70:0.7073707 71:1 #
-7.0422535211267607696268393258077e-06 1:0 2:0 3:0 4:0 5:0 6:0 7:0 8:0.3670688 9:0 10:0 11:0 12:0.6044718 13:0 14:0.38157701 15:0.24553537 16:0 17:0 18:0 19:0 20:0 21:0 22:0 23:0 24:0.24371663 25:0 26:0 27:0 28:0.48434275 29:0 30:0 31:0.11678576 32:0.12456869 33:0.29438394 34:0 35:0.14889647 36:0 37:0 38:0.22910361 39:0 40:0 41:0.30967438 42:0 43:0.24455732 44:0.37707239 45:0.11092443 46:0 47:0 48:0 49:0 50:0 51:0 52:0.38215312 53:0.23390813 54:0 55:0.3793202 56:0 57:0.13737746 58:0.184651 59:0 60:0.3189396 61:0 62:0.17400444 63:0.029000739 64:0.69601774 65:0 66:0.69601774 67:0.99827439 68:0.058722023 69:0.70110893 70:0.71305418 71:1 #
-7.0422535211267607696268393258077e-06 1:0 2:0 3:0 4:0.5419032 5:0 6:0 7:0.58972979 8:0.31512275 9:0 10:0 11:0 12:0.25946474 13:0 14:0 15:0.21078825 16:0 17:0 18:0 19:0 20:0 21:0.32206807 22:0 23:0 24:0.20922688 25:0 26:0 27:0 28:0 29:0 30:0 31:0.11678576 32:0.12456869 33:0.29438394 34:0 35:0.14889647 36:0 37:0 38:0.22910361 39:0 40:0 41:0.30967438 42:0 43:0.24455732 44:0.37707239 45:0.11092443 46:0 47:0 48:0 49:0 50:0 51:0 52:0.38215312 53:0.23390813 54:0 55:0.3793202 56:0 57:0.13737746 58:0.184651 59:0 60:0.3189396 61:0 62:0 63:0.020828813 64:0.99978304 65:0 66:0 67:0.99827439 68:0.058722023 69:0.69467801 70:0.71932083 71:1 #
2.8169014084507043078507357303231e-05 1:0 2:0 3:0 4:0 5:0 6:0 7:0 8:0.25168088 9:0 10:0 11:0 12:0 13:0 14:0 15:0 16:0 17:0 18:0 19:0 20:0 21:0.25722793 22:0.30253193 23:0 24:0.50131327 25:0 26:0 27:0 28:0 29:0 30:0.72639519 31:0.11678576 32:0.12456869 33:0.29438394 34:0 35:0.14889647 36:0 37:0 38:0.22910361 39:0 40:0 41:0.30967438 42:0 43:0.24455732 44:0.37707239 45:0.11092443 46:0 47:0 48:0 49:0 50:0 51:0 52:0.38215312 53:0.23390813 54:0 55:0.3793202 56:0 57:0.13737746 58:0.184651 59:0 60:0.3189396 61:0 62:0 63:0.05547002 64:0.99846035 65:0 66:0 67:0.99827439 68:0.058722023 69:0.65968126 70:0.75154549 71:1 #
-7.0422535211267607696268393258077e-06 1:0 2:0 3:0 4:0 5:0 6:0 7:0 8:0.3670688 9:0 10:0 11:0 12:0.6044718 13:0 14:0.38157701 15:0.24553537 16:0 17:0 18:0 19:0 20:0 21:0 22:0 23:0 24:0.24371663 25:0 26:0 27:0 28:0.48434275 29:0 30:0 31:0.11678576 32:0.12456869 33:0.29438394 34:0 35:0.14889647 36:0 37:0 38:0.22910361 39:0 40:0 41:0.30967438 42:0 43:0.24455732 44:0.37707239 45:0.11092443 46:0 47:0 48:0 49:0 50:0 51:0 52:0.38215312 53:0.23390813 54:0 55:0.3793202 56:0 57:0.13737746 58:0.184651 59:0 60:0.3189396 61:0 62:0.24233772 63:0.04038962 64:0.96935087 65:0 66:0 67:0.99827439 68:0.058722023 69:0.72872418 70:0.68480736 71:1 #
-7.0422535211267607696268393258077e-06 1:0 2:0 3:0 4:0 5:0 6:0 7:0 8:0.31241891 9:0 10:0 11:0 12:0.51447695 13:0 14:0.32476714 15:0.20897962 16:0 17:0 18:0 19:0.32201728 20:0 21:0 22:0 23:0 24:0.20743166 25:0 26:0 27:0.58466977 28:0 29:0 30:0 31:0.11678576 32:0.12456869 33:0.29438394 34:0 35:0.14889647 36:0 37:0 38:0.22910361 39:0 40:0 41:0.30967438 42:0 43:0.24455732 44:0.37707239 45:0.11092443 46:0 47:0 48:0 49:0 50:0 51:0 52:0.38215312 53:0.23390813 54:0 55:0.3793202 56:0 57:0.13737746 58:0.184651 59:0 60:0.3189396 61:0 62:0.19601145 63:0.032668576 64:0.78404582 65:0 66:0.58803439 67:0.99827439 68:0.058722023 69:0.70684278 70:0.7073707 71:1 #
-7.0422535211267607696268393258077e-06 1:0 2:0 3:0 4:0 5:0 6:0 7:0 8:0.3670688 9:0 10:0 11:0 12:0.6044718 13:0 14:0.38157701 15:0.24553537 16:0 17:0 18:0 19:0 20:0 21:0 22:0 23:0 24:0.24371663 25:0 26:0 27:0 28:0.48434275 29:0 30:0 31:0.11678576 32:0.12456869 33:0.29438394 34:0 35:0.14889647 36:0 37:0 38:0.22910361 39:0 40:0 41:0.30967438 42:0 43:0.24455732 44:0.37707239 45:0.11092443 46:0 47:0 48:0 49:0 50:0 51:0 52:0.38215312 53:0.23390813 54:0 55:0.3793202 56:0 57:0.13737746 58:0.184651 59:0 60:0.3189396 61:0 62:0.17400444 63:0.029000739 64:0.69601774 65:0 66:0.69601774 67:0.99827439 68:0.058722023 69:0.70110893 70:0.71305418 71:1 #
-7.0422535211267607696268393258077e-06 1:0 2:0 3:0 4:0.5419032 5:0 6:0 7:0.58972979 8:0.31512275 9:0 10:0 11:0 12:0.25946474 13:0 14:0 15:0.21078825 16:0 17:0 18:0 19:0 20:0 21:0.32206807 22:0 23:0 24:0.20922688 25:0 26:0 27:0 28:0 29:0 30:0 31:0.11678576 32:0.12456869 33:0.29438394 34:0 35:0.14889647 36:0 37:0 38:0.22910361 39:0 40:0 41:0.30967438 42:0 43:0.24455732 44:0.37707239 45:0.11092443 46:0 47:0 48:0 49:0 50:0 51:0 52:0.38215312 53:0.23390813 54:0 55:0.3793202 56:0 57:0.13737746 58:0.184651 59:0 60:0.3189396 61:0 62:0 63:0.020828813 64:0.99978304 65:0 66:0 67:0.99827439 68:0.058722023 69:0.69467801 70:0.71932083 71:1 #
2.8169014084507043078507357303231e-05 1:0 2:0 3:0 4:0 5:0 6:0 7:0 8:0.25168088 9:0 10:0 11:0 12:0 13:0 14:0 15:0 16:0 17:0 18:0 19:0 20:0 21:0.25722793 22:0.30253193 23:0 24:0.50131327 25:0 26:0 27:0 28:0 29:0 30:0.72639519 31:0.11678576 32:0.12456869 33:0.29438394 34:0 35:0.14889647 36:0 37:0 38:0.22910361 39:0 40:0 41:0.30967438 42:0 43:0.24455732 44:0.37707239 45:0.11092443 46:0 47:0 48:0 49:0 50:0 51:0 52:0.38215312 53:0.23390813 54:0 55:0.3793202 56:0 57:0.13737746 58:0.184651 59:0 60:0.3189396 61:0 62:0 63:0.05547002 64:0.99846035 65:0 66:0 67:0.99827439 68:0.058722023 69:0.65968126 70:0.75154549 71:1 #
-3.5211267605633804695167143883339e-05 1:0 2:0 3:0 4:0.17831181 5:0 6:0 7:0 8:0 9:0 10:0 11:0 12:0.17075238 13:0 14:0.21557724 15:0.55487454 16:0.21780121 17:0 18:0.47242349 19:0 20:0.33640444 21:0.2119513 22:0.24928099 23:0 24:0.13769111 25:0 26:0 27:0 28:0.27363619 29:0 30:0 31:0.095321074 32:0 33:0.24027754 34:0 35:0 36:0.10621996 37:0.17425232 38:0.18699543 39:0.12746786 40:0.13683407 41:0 42:0 43:0 44:0.61553645 45:0.090537034 46:0.14894414 47:0.31418732 48:0.083626501 49:0.13015999 50:0 51:0.18651901 52:0.31191516 53:0.1909169 54:0 55:0.23220219 56:0 57:0.22425625 58:0 59:0 60:0.13015999 61:0 62:0 63:0.033314832 64:0.9994449 65:0 66:0 67:0.99986112 68:0.016664352 69:0.69152123 70:0.72235614 71:1 #
-3.5211267605633804695167143883339e-05 1:0 2:0 3:0 4:0.35420498 5:0 6:0.27405906 7:0 8:0 9:0 10:0 11:0 12:0.16959433 13:0 14:0.21411519 15:0.55111134 16:0.21632408 17:0 18:0.23460975 19:0 20:0.33412293 21:0.21051383 22:0.24759035 23:0 24:0.13675727 25:0 26:0.28862369 27:0 28:0 29:0 30:0 31:0.095321074 32:0 33:0.24027754 34:0 35:0 36:0.10621996 37:0.17425232 38:0.18699543 39:0.12746786 40:0.13683407 41:0 42:0 43:0 44:0.61553645 45:0.090537034 46:0.14894414 47:0.31418732 48:0.083626501 49:0.13015999 50:0 51:0.18651901 52:0.31191516 53:0.1909169 54:0 55:0.23220219 56:0 57:0.22425625 58:0 59:0 60:0.13015999 61:0 62:0 63:0.010163421 64:0.44719049 65:0 66:0.89438099 67:0.99986112 68:0.016664352 69:0.66207188 70:0.74944031 71:1 #
-3.5211267605633804695167143883339e-05 1:0 2:0.29861125 3:0.33512959 4:0.26407591 5:0 6:0 7:0 8:0 9:0 10:0 11:0 12:0 13:0 14:0 15:0.20543927 16:0 17:0 18:0 19:0.31656194 20:0 21:0.31389526 22:0.36917973 23:0 24:0.40783507 25:0 26:0.43036416 27:0 28:0 29:0 30:0 31:0.095321074 32:0 33:0.24027754 34:0 35:0 36:0.10621996 37:0.17425232 38:0.18699543 39:0.12746786 40:0.13683407 41:0 42:0 43:0 44:0.61553645 45:0.090537034 46:0.14894414 47:0.31418732 48:0.083626501 49:0.13015999 50:0 51:0.18651901 52:0.31191516 53:0.1909169 54:0 55:0.23220219 56:0 57:0.22425625 58:0 59:0 60:0.13015999 61:0 62:0 63:0.03569153 64:0.99936283 65:0 66:0 67:0.99986112 68:0.016664352 69:0.58753276 70:0.80920041 71:1 #
5.6338028169014086157014714606461e-05 1:0 2:0.10438176 3:0 4:0.092309676 5:0 6:0 7:0.20091327 8:0.10735822 9:0.191195 10:0 11:0.18321586 12:0 13:0 14:0 15:0.14362562 16:0 17:0.20375431 18:0.12228372 19:0 20:0 21:0.54862201 22:0.51619798 23:0 24:0.35640436 25:0 26:0.15043697 27:0.20091327 28:0 29:0 30:0.15492733 31:0.095321074 32:0 33:0.24027754 34:0 35:0 36:0.10621996 37:0.17425232 38:0.18699543 39:0.12746786 40:0.13683407 41:0 42:0 43:0 44:0.61553645 45:0.090537034 46:0.14894414 47:0.31418732 48:0.083626501 49:0.13015999 50:0 51:0.18651901 52:0.31191516 53:0.1909169 54:0 55:0.23220219 56:0 57:0.22425625 58:0 59:0 60:0.13015999 61:0 62:0 63:0.0037657639 64:0.64017987 65:0 66:0.76821584 67:0.99986112 68:0.016664352 69:0.65295804 70:0.75739408 71:1 #
5.6338028169014086157014714606461e-05 1:0 2:0.35506535 3:0 4:0.15700045 5:0.24449021 6:0 7:0 8:0 9:0 10:0 11:0 12:0.15034452 13:0 14:0.18981203 15:0.12213935 16:0 17:0 18:0 19:0 20:0 21:0.37323889 22:0.43897519 23:0 24:0.36370388 25:0.34171361 26:0.25586343 27:0 28:0 29:0 30:0.26350066 31:0.095321074 32:0 33:0.24027754 34:0 35:0 36:0.10621996 37:0.17425232 38:0.18699543 39:0.12746786 40:0.13683407 41:0 42:0 43:0 44:0.61553645 45:0.090537034 46:0.14894414 47:0.31418732 48:0.083626501 49:0.13015999 50:0 51:0.18651901 52:0.31191516 53:0.1909169 54:0 55:0.23220219 56:0 57:0.22425625 58:0 59:0 60:0.13015999 61:0 62:0 63:0.0096358974 64:0.52997434 65:0 66:0.84795892 67:0.99986112 68:0.016664352 69:0.64005613 70:0.76832813 71:1 #
-3.5211267605633804695167143883339e-05 1:0 2:0.17622411 3:0.19777524 4:0.31168646 5:0 6:0.24116121 7:0 8:0 9:0 10:0 11:0 12:0 13:0 14:0 15:0.60619539 16:0.19035669 17:0 18:0.41289473 19:0.18681765 20:0.29401505 21:0 22:0 23:0 24:0.12034103 25:0 26:0.25397751 27:0 28:0 29:0 30:0 31:0.095321074 32:0 33:0.24027754 34:0 35:0 36:0.10621996 37:0.17425232 38:0.18699543 39:0.12746786 40:0.13683407 41:0 42:0 43:0 44:0.61553645 45:0.090537034 46:0.14894414 47:0.31418732 48:0.083626501 49:0.13015999 50:0 51:0.18651901 52:0.31191516 53:0.1909169 54:0 55:0.23220219 56:0 57:0.22425625 58:0 59:0 60:0.13015999 61:0 62:0 63:0.022721406 64:0.99974185 65:0 66:0 67:0.99986112 68:0.016664352 69:0.65795976 70:0.75305313 71:1 #
5.6338028169014086157014714606461e-05 1:0 2:0 3:0 4:0.19850947 5:0 6:0 7:0.43205854 8:0 9:0 10:0 11:0 12:0 13:0 14:0 15:0.30886301 16:0 17:0 18:0.26296782 19:0 20:0 21:0.47191873 22:0.27751744 23:0 24:0.30657518 25:0 26:0.32351062 27:0 28:0 29:0 30:0.33316705 31:0.095321074 32:0 33:0.24027754 34:0 35:0 36:0.10621996 37:0.17425232 38:0.18699543 39:0.12746786 40:0.13683407 41:0 42:0 43:0 44:0.61553645 45:0.090537034 46:0.14894414 47:0.31418732 48:0.083626501 49:0.13015999 50:0 51:0.18651901 52:0.31191516 53:0.1909169 54:0 55:0.23220219 56:0 57:0.22425625 58:0 59:0 60:0.13015999 61:0 62:0 63:0.031234752 64:0.99951208 65:0 66:0 67:0.99986112 68:0.016664352 69:0.64258766 70:0.76621217 71:1 #
-3.5211267605633804695167143883339e-05 1:0 2:0.10665138 3:0 4:0.18863362 5:0 6:0 7:0.20528181 8:0.10969256 9:0.19535223 10:0 11:0.18719961 12:0.090318307 13:0 14:0 15:0.29349709 16:0.11520446 17:0.20818463 18:0.12494259 19:0 20:0.17793882 21:0.44844076 22:0.3955664 23:0 24:0.36415383 25:0 26:0.15370798 27:0.20528181 28:0.14473799 29:0.15977004 30:0.15829599 31:0.095321074 32:0 33:0.24027754 34:0 35:0 36:0.10621996 37:0.17425232 38:0.18699543 39:0.12746786 40:0.13683407 41:0 42:0 43:0 44:0.61553645 45:0.090537034 46:0.14894414 47:0.31418732 48:0.083626501 49:0.13015999 50:0 51:0.18651901 52:0.31191516 53:0.1909169 54:0 55:0.23220219 56:0 57:0.22425625 58:0 59:0 60:0.13015999 61:0 62:0 63:0.0027677903 64:0.58123595 65:0 66:0.81373036 67:0.99986112 68:0.016664352 69:0.66441 70:0.74736828 71:1 #
-3.5211267605633804695167143883339e-05 1:0 2:0 3:0 4:0.26092213 5:0 6:0.40376666 7:0 8:0 9:0 10:0 11:0 12:0 13:0 14:0 15:0.60895735 16:0.15935333 17:0 18:0.51846993 19:0.15639068 20:0 21:0.15507327 22:0 23:0 24:0.1007411 25:0 26:0.21261224 27:0 28:0 29:0 30:0 31:0.095321074 32:0 33:0.24027754 34:0 35:0 36:0.10621996 37:0.17425232 38:0.18699543 39:0.12746786 40:0.13683407 41:0 42:0 43:0 44:0.61553645 45:0.090537034 46:0.14894414 47:0.31418732 48:0.083626501 49:0.13015999 50:0 51:0.18651901 52:0.31191516 53:0.1909169 54:0 55:0.23220219 56:0 57:0.22425625 58:0 59:0 60:0.13015999 61:0 62:0 63:0.022721406 64:0.99974185 65:0 66:0 67:0.99986112 68:0.016664352 69:0.69136816 70:0.72250259 71:1 #
5.6338028169014086157014714606461e-05 1:0 2:0 3:0 4:0.20963791 5:0 6:0 7:0 8:0 9:0 10:0 11:0 12:0 13:0 14:0 15:0.65235573 16:0.25606486 17:0 18:0.55541962 19:0 20:0.39550447 21:0 22:0 23:0 24:0 25:0 26:0 27:0 28:0 29:0 30:0 31:0.095321074 32:0 33:0.24027754 34:0 35:0 36:0.10621996 37:0.17425232 38:0.18699543 39:0.12746786 40:0.13683407 41:0 42:0 43:0 44:0.61553645 45:0.090537034 46:0.14894414 47:0.31418732 48:0.083626501 49:0.13015999 50:0 51:0.18651901 52:0.31191516 53:0.1909169 54:0 55:0.23220219 56:0 57:0.22425625 58:0 59:0 60:0.13015999 61:0 62:0 63:0.071247049 64:0.9974587 65:0 66:0 67:0.99986112 68:0.016664352 69:0.69234502 70:0.72156662 71:1 #
-3.5211267605633804695167143883339e-05 1:0 2:0.19291763 3:0.10825513 4:0.17060608 5:0 6:0 7:0.18566322 8:0.099209346 9:0.17668261 10:0 11:0.16930911 12:0 13:0 14:0 15:0.26544785 16:0.10419448 17:0.18828861 18:0.11300194 19:0 20:0 21:0.50697964 22:0.47701669 23:0 24:0.32935199 25:0 26:0.13901825 27:0.18566322 28:0 29:0.14450097 30:0.14316779 31:0.095321074 32:0 33:0.24027754 34:0 35:0 36:0.10621996 37:0.17425232 38:0.18699543 39:0.12746786 40:0.13683407 41:0 42:0 43:0 44:0.61553645 45:0.090537034 46:0.14894414 47:0.31418732 48:0.083626501 49:0.13015999 50:0 51:0.18651901 52:0.31191516 53:0.1909169 54:0 55:0.23220219 56:0 57:0.22425625 58:0 59:0 60:0.13015999 61:0 62:0 63:0.0029252023 64:0.67572176 65:0 66:0.73715097 67:0.99986112 68:0.016664352 69:0.65635455 70:0.75445259 71:1 #
5.6338028169014086157014714606461e-05 1:0 2:0 3:0 4:0.19213679 5:0 6:0 7:0 8:0 9:0 10:0 11:0 12:0.18399127 13:0 14:0 15:0.29894772 16:0.23468792 17:0 18:0.25452587 19:0 20:0 21:0 22:0 23:0 24:0.44509998 25:0 26:0 27:0 28:0 29:0.32547438 30:0.64494306 31:0.095321074 32:0 33:0.24027754 34:0 35:0 36:0.10621996 37:0.17425232 38:0.18699543 39:0.12746786 40:0.13683407 41:0 42:0 43:0 44:0.61553645 45:0.090537034 46:0.14894414 47:0.31418732 48:0.083626501 49:0.13015999 50:0 51:0.18651901 52:0.31191516 53:0.1909169 54:0 55:0.23220219 56:0 57:0.22425625 58:0 59:0 60:0.13015999 61:0 62:0 63:0.062378287 64:0.9980526 65:0 66:0 67:0.99986112 68:0.016664352 69:0.73641437 70:0.67653078 71:1 #
-3.5211267605633804695167143883339e-05 1:0 2:0 3:0 4:0.28843924 5:0 6:0.44634828 7:0 8:0 9:0 10:0 11:0 12:0 13:0 14:0 15:0.56098217 16:0.17615889 17:0 18:0.38209885 19:0 20:0 21:0.34285489 22:0.20161991 23:0 24:0.11136536 25:0 26:0.23503453 27:0 28:0 29:0 30:0 31:0.095321074 32:0 33:0.24027754 34:0 35:0 36:0.10621996 37:0.17425232 38:0.18699543 39:0.12746786 40:0.13683407 41:0 42:0 43:0 44:0.61553645 45:0.090537034 46:0.14894414 47:0.31418732 48:0.083626501 49:0.13015999 50:0 51:0.18651901 52:0.31191516 53:0.1909169 54:0 55:0.23220219 56:0 57:0.22425625 58:0 59:0 60:0.13015999 61:0 62:0 63:0.010163421 64:0.44719049 65:0 66:0.89438099 67:0.99986112 68:0.016664352 69:0.68383449 70:0.72963715 71:1 #
-3.5211267605633804695167143883339e-05 1:0 2:0 3:0 4:0.17831181 5:0 6:0 7:0 8:0 9:0 10:0 11:0 12:0.17075238 13:0 14:0.21557724 15:0.55487454 16:0.21780121 17:0 18:0.47242349 19:0 20:0.33640444 21:0.2119513 22:0.24928099 23:0 24:0.13769111 25:0 26:0 27:0 28:0.27363619 29:0 30:0 31:0.095321074 32:0 33:0.24027754 34:0 35:0 36:0.10621996 37:0.17425232 38:0.18699543 39:0.12746786 40:0.13683407 41:0 42:0 43:0 44:0.61553645 45:0.090537034 46:0.14894414 47:0.31418732 48:0.083626501 49:0.13015999 50:0 51:0.18651901 52:0.31191516 53:0.1909169 54:0 55:0.23220219 56:0 57:0.22425625 58:0 59:0 60:0.13015999 61:0 62:0 63:0.033314832 64:0.9994449 65:0 66:0 67:0.99986112 68:0.016664352 69:0.69152123 70:0.72235614 71:1 #
-3.5211267605633804695167143883339e-05 1:0 2:0 3:0 4:0.35420498 5:0 6:0.27405906 7:0 8:0 9:0 10:0 11:0 12:0.16959433 13:0 14:0.21411519 15:0.55111134 16:0.21632408 17:0 18:0.23460975 19:0 20:0.33412293 21:0.21051383 22:0.24759035 23:0 24:0.13675727 25:0 26:0.28862369 27:0 28:0 29:0 30:0 31:0.095321074 32:0 33:0.24027754 34:0 35:0 36:0.10621996 37:0.17425232 38:0.18699543 39:0.12746786 40:0.13683407 41:0 42:0 43:0 44:0.61553645 45:0.090537034 46:0.14894414 47:0.31418732 48:0.083626501 49:0.13015999 50:0 51:0.18651901 52:0.31191516 53:0.1909169 54:0 55:0.23220219 56:0 57:0.22425625 58:0 59:0 60:0.13015999 61:0 62:0 63:0.010163421 64:0.44719049 65:0 66:0.89438099 67:0.99986112 68:0.016664352 69:0.66207188 70:0.74944031 71:1 #
-3.5211267605633804695167143883339e-05 1:0 2:0.29861125 3:0.33512959 4:0.26407591 5:0 6:0 7:0 8:0 9:0 10:0 11:0 12:0 13:0 14:0 15:0.20543927 16:0 17:0 18:0 19:0.31656194 20:0 21:0.31389526 22:0.36917973 23:0 24:0.40783507 25:0 26:0.43036416 27:0 28:0 29:0 30:0 31:0.095321074 32:0 33:0.24027754 34:0 35:0 36:0.10621996 37:0.17425232 38:0.18699543 39:0.12746786 40:0.13683407 41:0 42:0 43:0 44:0.61553645 45:0.090537034 46:0.14894414 47:0.31418732 48:0.083626501 49:0.13015999 50:0 51:0.18651901 52:0.31191516 53:0.1909169 54:0 55:0.23220219 56:0 57:0.22425625 58:0 59:0 60:0.13015999 61:0 62:0 63:0.03569153 64:0.99936283 65:0 66:0 67:0.99986112 68:0.016664352 69:0.58753276 70:0.80920041 71:1 #
5.6338028169014086157014714606461e-05 1:0 2:0.10438176 3:0 4:0.092309676 5:0 6:0 7:0.20091327 8:0.10735822 9:0.191195 10:0 11:0.18321586 12:0 13:0 14:0 15:0.14362562 16:0 17:0.20375431 18:0.12228372 19:0 20:0 21:0.54862201 22:0.51619798 23:0 24:0.35640436 25:0 26:0.15043697 27:0.20091327 28:0 29:0 30:0.15492733 31:0.095321074 32:0 33:0.24027754 34:0 35:0 36:0.10621996 37:0.17425232 38:0.18699543 39:0.12746786 40:0.13683407 41:0 42:0 43:0 44:0.61553645 45:0.090537034 46:0.14894414 47:0.31418732 48:0.083626501 49:0.13015999 50:0 51:0.18651901 52:0.31191516 53:0.1909169 54:0 55:0.23220219 56:0 57:0.22425625 58:0 59:0 60:0.13015999 61:0 62:0 63:0.0037657639 64:0.64017987 65:0 66:0.76821584 67:0.99986112 68:0.016664352 69:0.65295804 70:0.75739408 71:1 #
5.6338028169014086157014714606461e-05 1:0 2:0.35506535 3:0 4:0.15700045 5:0.24449021 6:0 7:0 8:0 9:0 10:0 11:0 12:0.15034452 13:0 14:0.18981203 15:0.12213935 16:0 17:0 18:0 19:0 20:0 21:0.37323889 22:0.43897519 23:0 24:0.36370388 25:0.34171361 26:0.25586343 27:0 28:0 29:0 30:0.26350066 31:0.095321074 32:0 33:0.24027754 34:0 35:0 36:0.10621996 37:0.17425232 38:0.18699543 39:0.12746786 40:0.13683407 41:0 42:0 43:0 44:0.61553645 45:0.090537034 46:0.14894414 47:0.31418732 48:0.083626501 49:0.13015999 50:0 51:0.18651901 52:0.31191516 53:0.1909169 54:0 55:0.23220219 56:0 57:0.22425625 58:0 59:0 60:0.13015999 61:0 62:0 63:0.0096358974 64:0.52997434 65:0 66:0.84795892 67:0.99986112 68:0.016664352 69:0.64005613 70:0.76832813 71:1 #
-3.5211267605633804695167143883339e-05 1:0 2:0.17622411 3:0.19777524 4:0.31168646 5:0 6:0.24116121 7:0 8:0 9:0 10:0 11:0 12:0 13:0 14:0 15:0.60619539 16:0.19035669 17:0 18:0.41289473 19:0.18681765 20:0.29401505 21:0 22:0 23:0 24:0.12034103 25:0 26:0.25397751 27:0 28:0 29:0 30:0 31:0.095321074 32:0 33:0.24027754 34:0 35:0 36:0.10621996 37:0.17425232 38:0.18699543 39:0.12746786 40:0.13683407 41:0 42:0 43:0 44:0.61553645 45:0.090537034 46:0.14894414 47:0.31418732 48:0.083626501 49:0.13015999 50:0 51:0.18651901 52:0.31191516 53:0.1909169 54:0 55:0.23220219 56:0 57:0.22425625 58:0 59:0 60:0.13015999 61:0 62:0 63:0.022721406 64:0.99974185 65:0 66:0 67:0.99986112 68:0.016664352 69:0.65795976 70:0.75305313 71:1 #
5.6338028169014086157014714606461e-05 1:0 2:0 3:0 4:0.19850947 5:0 6:0 7:0.43205854 8:0 9:0 10:0 11:0 12:0 13:0 14:0 15:0.30886301 16:0 17:0 18:0.26296782 19:0 20:0 21:0.47191873 22:0.27751744 23:0 24:0.30657518 25:0 26:0.32351062 27:0 28:0 29:0 30:0.33316705 31:0.095321074 32:0 33:0.24027754 34:0 35:0 36:0.10621996 37:0.17425232 38:0.18699543 39:0.12746786 40:0.13683407 41:0 42:0 43:0 44:0.61553645 45:0.090537034 46:0.14894414 47:0.31418732 48:0.083626501 49:0.13015999 50:0 51:0.18651901 52:0.31191516 53:0.1909169 54:0 55:0.23220219 56:0 57:0.22425625 58:0 59:0 60:0.13015999 61:0 62:0 63:0.031234752 64:0.99951208 65:0 66:0 67:0.99986112 68:0.016664352 69:0.64258766 70:0.76621217 71:1 #
-3.5211267605633804695167143883339e-05 1:0 2:0.10665138 3:0 4:0.18863362 5:0 6:0 7:0.20528181 8:0.10969256 9:0.19535223 10:0 11:0.18719961 12:0.090318307 13:0 14:0 15:0.29349709 16:0.11520446 17:0.20818463 18:0.12494259 19:0 20:0.17793882 21:0.44844076 22:0.3955664 23:0 24:0.36415383 25:0 26:0.15370798 27:0.20528181 28:0.14473799 29:0.15977004 30:0.15829599 31:0.095321074 32:0 33:0.24027754 34:0 35:0 36:0.10621996 37:0.17425232 38:0.18699543 39:0.12746786 40:0.13683407 41:0 42:0 43:0 44:0.61553645 45:0.090537034 46:0.14894414 47:0.31418732 48:0.083626501 49:0.13015999 50:0 51:0.18651901 52:0.31191516 53:0.1909169 54:0 55:0.23220219 56:0 57:0.22425625 58:0 59:0 60:0.13015999 61:0 62:0 63:0.0027677903 64:0.58123595 65:0 66:0.81373036 67:0.99986112 68:0.016664352 69:0.66441 70:0.74736828 71:1 #
-3.5211267605633804695167143883339e-05 1:0 2:0 3:0 4:0.26092213 5:0 6:0.40376666 7:0 8:0 9:0 10:0 11:0 12:0 13:0 14:0 15:0.60895735 16:0.15935333 17:0 18:0.51846993 19:0.15639068 20:0 21:0.15507327 22:0 23:0 24:0.1007411 25:0 26:0.21261224 27:0 28:0 29:0 30:0 31:0.095321074 32:0 33:0.24027754 34:0 35:0 36:0.10621996 37:0.17425232 38:0.18699543 39:0.12746786 40:0.13683407 41:0 42:0 43:0 44:0.61553645 45:0.090537034 46:0.14894414 47:0.31418732 48:0.083626501 49:0.13015999 50:0 51:0.18651901 52:0.31191516 53:0.1909169 54:0 55:0.23220219 56:0 57:0.22425625 58:0 59:0 60:0.13015999 61:0 62:0 63:0.022721406 64:0.99974185 65:0 66:0 67:0.99986112 68:0.016664352 69:0.69136816 70:0.72250259 71:1 #
5.6338028169014086157014714606461e-05 1:0 2:0 3:0 4:0.20963791 5:0 6:0 7:0 8:0 9:0 10:0 11:0 12:0 13:0 14:0 15:0.65235573 16:0.25606486 17:0 18:0.55541962 19:0 20:0.39550447 21:0 22:0 23:0 24:0 25:0 26:0 27:0 28:0 29:0 30:0 31:0.095321074 32:0 33:0.24027754 34:0 35:0 36:0.10621996 37:0.17425232 38:0.18699543 39:0.12746786 40:0.13683407 41:0 42:0 43:0 44:0.61553645 45:0.090537034 46:0.14894414 47:0.31418732 48:0.083626501 49:0.13015999 50:0 51:0.18651901 52:0.31191516 53:0.1909169 54:0 55:0.23220219 56:0 57:0.22425625 58:0 59:0 60:0.13015999 61:0 62:0 63:0.071247049 64:0.9974587 65:0 66:0 67:0.99986112 68:0.016664352 69:0.69234502 70:0.72156662 71:1 #
-3.5211267605633804695167143883339e-05 1:0 2:0.19291763 3:0.10825513 4:0.17060608 5:0 6:0 7:0.18566322 8:0.099209346 9:0.17668261 10:0 11:0.16930911 12:0 13:0 14:0 15:0.26544785 16:0.10419448 17:0.18828861 18:0.11300194 19:0 20:0 21:0.50697964 22:0.47701669 23:0 24:0.32935199 25:0 26:0.13901825 27:0.18566322 28:0 29:0.14450097 30:0.14316779 31:0.095321074 32:0 33:0.24027754 34:0 35:0 36:0.10621996 37:0.17425232 38:0.18699543 39:0.12746786 40:0.13683407 41:0 42:0 43:0 44:0.61553645 45:0.090537034 46:0.14894414 47:0.31418732 48:0.083626501 49:0.13015999 50:0 51:0.18651901 52:0.31191516 53:0.1909169 54:0 55:0.23220219 56:0 57:0.22425625 58:0 59:0 60:0.13015999 61:0 62:0 63:0.0029252023 64:0.67572176 65:0 66:0.73715097 67:0.99986112 68:0.016664352 69:0.65635455 70:0.75445259 71:1 #
5.6338028169014086157014714606461e-05 1:0 2:0 3:0 4:0.19213679 5:0 6:0 7:0 8:0 9:0 10:0 11:0 12:0.18399127 13:0 14:0 15:0.29894772 16:0.23468792 17:0 18:0.25452587 19:0 20:0 21:0 22:0 23:0 24:0.44509998 25:0 26:0 27:0 28:0 29:0.32547438 30:0.64494306 31:0.095321074 32:0 33:0.24027754 34:0 35:0 36:0.10621996 37:0.17425232 38:0.18699543 39:0.12746786 40:0.13683407 41:0 42:0 43:0 44:0.61553645 45:0.090537034 46:0.14894414 47:0.31418732 48:0.083626501 49:0.13015999 50:0 51:0.18651901 52:0.31191516 53:0.1909169 54:0 55:0.23220219 56:0 57:0.22425625 58:0 59:0 60:0.13015999 61:0 62:0 63:0.062378287 64:0.9980526 65:0 66:0 67:0.99986112 68:0.016664352 69:0.73641437 70:0.67653078 71:1 #
-3.5211267605633804695167143883339e-05 1:0 2:0 3:0 4:0.28843924 5:0 6:0.44634828 7:0 8:0 9:0 10:0 11:0 12:0 13:0 14:0 15:0.56098217 16:0.17615889 17:0 18:0.38209885 19:0 20:0 21:0.34285489 22:0.20161991 23:0 24:0.11136536 25:0 26:0.23503453 27:0 28:0 29:0 30:0 31:0.095321074 32:0 33:0.24027754 34:0 35:0 36:0.10621996 37:0.17425232 38:0.18699543 39:0.12746786 40:0.13683407 41:0 42:0 43:0 44:0.61553645 45:0.090537034 46:0.14894414 47:0.31418732 48:0.083626501 49:0.13015999 50:0 51:0.18651901 52:0.31191516 53:0.1909169 54:0 55:0.23220219 56:0 57:0.22425625 58:0 59:0 60:0.13015999 61:0 62:0 63:0.010163421 64:0.44719049 65:0 66:0.89438099 67:0.99986112 68:0.016664352 69:0.68383449 70:0.72963715 71:1 #
7.0422535211267607696268393258077e-06 1:0 2:0.22023357 3:0.2471668 4:0 5:0 6:0 7:0 8:0 9:0 10:0 11:0 12:0 13:0 14:0 15:0.60606724 16:0 17:0 18:0.51600933 19:0.23347269 20:0 21:0 22:0 23:0 24:0.15039448 25:0.423904 26:0 27:0 28:0 29:0 30:0 31:0.21140952 32:0.22549844 33:0 34:0 35:0 36:0 37:0 38:0 39:0 40:0 41:0 42:0 43:0 44:0.68258917 45:0 46:0 47:0.46455058 48:0.18547249 49:0 50:0 51:0 52:0 53:0 54:0 55:0.17166457 56:0.39856306 57:0 58:0 59:0 60:0 61:0 62:0 63:1 64:0 65:0 66:0 67:0.99846035 68:0.05547002 69:0.67671025 70:0.73624945 71:1 #
7.0422535211267607696268393258077e-06 1:0 2:0.28478721 3:0.31961495 4:0 5:0 6:0 7:0 8:0 9:0 10:0 11:0 12:0 13:0 14:0 15:0.39185715 16:0 17:0 18:0.33362952 19:0 20:0 21:0.29936364 22:0.35208875 23:0 24:0.19447728 25:0.54815632 26:0 27:0 28:0 29:0 30:0 31:0.21140952 32:0.22549844 33:0 34:0 35:0 36:0 37:0 38:0 39:0 40:0 41:0 42:0 43:0 44:0.68258917 45:0 46:0 47:0.46455058 48:0.18547249 49:0 50:0 51:0 52:0 53:0 54:0 55:0.17166457 56:0.39856306 57:0 58:0 59:0 60:0 61:0 62:0 63:0.16439898 64:0.98639393 65:0 66:0 67:0.99846035 68:0.05547002 69:0.70628309 70:0.70792955 71:1 #
-3.5211267605633804695167143883339e-05 1:0 2:0.22023357 3:0.2471668 4:0 5:0 6:0 7:0 8:0 9:0 10:0 11:0 12:0 13:0 14:0 15:0.60606724 16:0 17:0 18:0.51600933 19:0.23347269 20:0 21:0 22:0 23:0 24:0.15039448 25:0.423904 26:0 27:0 28:0 29:0 30:0 31:0.21140952 32:0.22549844 33:0 34:0 35:0 36:0 37:0 38:0 39:0 40:0 41:0 42:0 43:0 44:0.68258917 45:0 46:0 47:0.46455058 48:0.18547249 49:0 50:0 51:0 52:0 53:0 54:0 55:0.17166457 56:0.39856306 57:0 58:0 59:0 60:0 61:0 62:0 63:1 64:0 65:0 66:0 67:0.99846035 68:0.05547002 69:0.65230608 70:0.75795561 71:1 #
7.0422535211267607696268393258077e-06 1:0 2:0.32380432 3:0.36340362 4:0 5:0 6:0 7:0 8:0 9:0 10:0 11:0 12:0 13:0 14:0 15:0.22277166 16:0 17:0 18:0 19:0 20:0 21:0.34037781 22:0.40032646 23:0 24:0.22112153 25:0.62325621 26:0 27:0 28:0 29:0 30:0 31:0.21140952 32:0.22549844 33:0 34:0 35:0 36:0 37:0 38:0 39:0 40:0 41:0 42:0 43:0 44:0.68258917 45:0 46:0 47:0.46455058 48:0.18547249 49:0 50:0 51:0 52:0 53:0 54:0 55:0.17166457 56:0.39856306 57:0 58:0 59:0 60:0 61:0 62:0 63:0.099503718 64:0.9950372 65:0 66:0 67:0.99846035 68:0.05547002 69:0.77052969 70:0.63740408 71:1 #
7.0422535211267607696268393258077e-06 1:0 2:0.28478721 3:0.31961495 4:0 5:0 6:0 7:0 8:0 9:0 10:0 11:0 12:0 13:0 14:0 15:0.39185715 16:0 17:0 18:0.33362952 19:0 20:0 21:0.29936364 22:0.35208875 23:0 24:0.19447728 25:0.54815632 26:0 27:0 28:0 29:0 30:0 31:0.21140952 32:0.22549844 33:0 34:0 35:0 36:0 37:0 38:0 39:0 40:0 41:0 42:0 43:0 44:0.68258917 45:0 46:0 47:0.46455058 48:0.18547249 49:0 50:0 51:0 52:0 53:0 54:0 55:0.17166457 56:0.39856306 57:0 58:0 59:0 60:0 61:0 62:0 63:0.16439898 64:0.98639393 65:0 66:0 67:0.99846035 68:0.05547002 69:0.70628309 70:0.70792955 71:1 #
7.0422535211267607696268393258077e-06 1:0 2:0 3:0 4:0 5:0 6:0 7:0 8:0 9:0 10:0 11:0 12:0 13:0 14:0 15:0.46893582 16:0 17:0 18:0.39925477 19:0 20:0 21:0.35824877 22:0.42134494 23:0 24:0.23273113 25:0 26:0 27:0 28:0 29:0.51054609 30:0 31:0.21140952 32:0.22549844 33:0 34:0 35:0 36:0 37:0 38:0 39:0 40:0 41:0 42:0 43:0 44:0.68258917 45:0 46:0 47:0.46455058 48:0.18547249 49:0 50:0 51:0 52:0 53:0 54:0 55:0.17166457 56:0.39856306 57:0 58:0 59:0 60:0 61:0 62:0 63:0.19611613 64:0.98058069 65:0 66:0 67:0.99846035 68:0.05547002 69:0.61366546 70:0.78956616 71:1 #
7.0422535211267607696268393258077e-06 1:0 2:0.22023357 3:0.2471668 4:0 5:0 6:0 7:0 8:0 9:0 10:0 11:0 12:0 13:0 14:0 15:0.60606724 16:0 17:0 18:0.51600933 19:0.23347269 20:0 21:0 22:0 23:0 24:0.15039448 25:0.423904 26:0 27:0 28:0 29:0 30:0 31:0.21140952 32:0.22549844 33:0 34:0 35:0 36:0 37:0 38:0 39:0 40:0 41:0 42:0 43:0 44:0.68258917 45:0 46:0 47:0.46455058 48:0.18547249 49:0 50:0 51:0 52:0 53:0 54:0 55:0.17166457 56:0.39856306 57:0 58:0 59:0 60:0 61:0 62:0 63:1 64:0 65:0 66:0 67:0.99846035 68:0.05547002 69:0.67671025 70:0.73624945 71:1 #
7.0422535211267607696268393258077e-06 1:0 2:0.28478721 3:0.31961495 4:0 5:0 6:0 7:0 8:0 9:0 10:0 11:0 12:0 13:0 14:0 15:0.39185715 16:0 17:0 18:0.33362952 19:0 20:0 21:0.29936364 22:0.35208875 23:0 24:0.19447728 25:0.54815632 26:0 27:0 28:0 29:0 30:0 31:0.21140952 32:0.22549844 33:0 34:0 35:0 36:0 37:0 38:0 39:0 40:0 41:0 42:0 43:0 44:0.68258917 45:0 46:0 47:0.46455058 48:0.18547249 49:0 50:0 51:0 52:0 53:0 54:0 55:0.17166457 56:0.39856306 57:0 58:0 59:0 60:0 61:0 62:0 63:0.16439898 64:0.98639393 65:0 66:0 67:0.99846035 68:0.05547002 69:0.70628309 70:0.70792955 71:1 #
-3.5211267605633804695167143883339e-05 1:0 2:0.22023357 3:0.2471668 4:0 5:0 6:0 7:0 8:0 9:0 10:0 11:0 12:0 13:0 14:0 15:0.60606724 16:0 17:0 18:0.51600933 19:0.23347269 20:0 21:0 22:0 23:0 24:0.15039448 25:0.423904 26:0 27:0 28:0 29:0 30:0 31:0.21140952 32:0.22549844 33:0 34:0 35:0 36:0 37:0 38:0 39:0 40:0 41:0 42:0 43:0 44:0.68258917 45:0 46:0 47:0.46455058 48:0.18547249 49:0 50:0 51:0 52:0 53:0 54:0 55:0.17166457 56:0.39856306 57:0 58:0 59:0 60:0 61:0 62:0 63:1 64:0 65:0 66:0 67:0.99846035 68:0.05547002 69:0.65230608 70:0.75795561 71:1 #
7.0422535211267607696268393258077e-06 1:0 2:0.32380432 3:0.36340362 4:0 5:0 6:0 7:0 8:0 9:0 10:0 11:0 12:0 13:0 14:0 15:0.22277166 16:0 17:0 18:0 19:0 20:0 21:0.34037781 22:0.40032646 23:0 24:0.22112153 25:0.62325621 26:0 27:0 28:0 29:0 30:0 31:0.21140952 32:0.22549844 33:0 34:0 35:0 36:0 37:0 38:0 39:0 40:0 41:0 42:0 43:0 44:0.68258917 45:0 46:0 47:0.46455058 48:0.18547249 49:0 50:0 51:0 52:0 53:0 54:0 55:0.17166457 56:0.39856306 57:0 58:0 59:0 60:0 61:0 62:0 63:0.099503718 64:0.9950372 65:0 66:0 67:0.99846035 68:0.05547002 69:0.77052969 70:0.63740408 71:1 #
7.0422535211267607696268393258077e-06 1:0 2:0.28478721 3:0.31961495 4:0 5:0 6:0 7:0 8:0 9:0 10:0 11:0 12:0 13:0 14:0 15:0.39185715 16:0 17:0 18:0.33362952 19:0 20:0 21:0.29936364 22:0.35208875 23:0 24:0.19447728 25:0.54815632 26:0 27:0 28:0 29:0 30:0 31:0.21140952 32:0.22549844 33:0 34:0 35:0 36:0 37:0 38:0 39:0 40:0 41:0 42:0 43:0 44:0.68258917 45:0 46:0 47:0.46455058 48:0.18547249 49:0 50:0 51:0 52:0 53:0 54:0 55:0.17166457 56:0.39856306 57:0 58:0 59:0 60:0 61:0 62:0 63:0.16439898 64:0.98639393 65:0 66:0 67:0.99846035 68:0.05547002 69:0.70628309 70:0.70792955 71:1 #
7.0422535211267607696268393258077e-06 1:0 2:0 3:0 4:0 5:0 6:0 7:0 8:0 9:0 10:0 11:0 12:0 13:0 14:0 15:0.46893582 16:0 17:0 18:0.39925477 19:0 20:0 21:0.35824877 22:0.42134494 23:0 24:0.23273113 25:0 26:0 27:0 28:0 29:0.51054609 30:0 31:0.21140952 32:0.22549844 33:0 34:0 35:0 36:0 37:0 38:0 39:0 40:0 41:0 42:0 43:0 44:0.68258917 45:0 46:0 47:0.46455058 48:0.18547249 49:0 50:0 51:0 52:0 53:0 54:0 55:0.17166457 56:0.39856306 57:0 58:0 59:0 60:0 61:0 62:0 63:0.19611613 64:0.98058069 65:0 66:0 67:0.99846035 68:0.05547002 69:0.61366546 70:0.78956616 71:1 #
2.1126760563380281461847570723123e-05 1:0 2:0.44674805 3:0.25069129 4:0 5:0 6:0 7:0 8:0.22974356 9:0 10:0.37992346 11:0 12:0 13:0 14:0 15:0.30735478 16:0 17:0 18:0 19:0.23680191 20:0 21:0 22:0 23:0 24:0.30507812 25:0.42994869 26:0 27:0 28:0 29:0.33462739 30:0 31:0.40173942 32:0.10712811 33:0 34:0 35:0 36:0 37:0 38:0 39:0.13430624 40:0.28834987 41:0 42:0 43:0 44:0.32427934 45:0 46:0.15693468 47:0 48:0.26433864 49:0 50:0 51:0 52:0.16432437 53:0 54:0.34123486 55:0.4893187 56:0.37869272 57:0 58:0 59:0 60:0 61:0 62:0 63:0.062378287 64:0.9980526 65:0 66:0 67:0 68:1 69:0.68052906 70:0.73272109 71:1 #
2.1126760563380281461847570723123e-05 1:0 2:0.48933402 3:0.27458829 4:0 5:0 6:0 7:0 8:0 9:0 10:0 11:0 12:0 13:0 14:0 15:0.16832659 16:0 17:0 18:0 19:0 20:0 21:0.25718996 22:0.30248725 23:0.40710407 24:0.33415949 25:0.47093329 26:0 27:0 28:0 29:0 30:0 31:0.40173942 32:0.10712811 33:0 34:0 35:0 36:0 37:0 38:0 39:0.13430624 40:0.28834987 41:0 42:0 43:0 44:0.32427934 45:0 46:0.15693468 47:0 48:0.26433864 49:0 50:0 51:0 52:0.16432437 53:0 54:0.34123486 55:0.4893187 56:0.37869272 57:0 58:0 59:0 60:0 61:0 62:0 63:0.062378287 64:0.9980526 65:0 66:0 67:0 68:1 69:0.69660413 70:0.71745569 71:1 #
-2.8169014084507043078507357303231e-05 1:0 2:0.69598126 3:0.39054778 4:0 5:0 6:0 7:0 8:0 9:0 10:0 11:0 12:0 13:0 14:0 15:0.47882286 16:0 17:0 18:0 19:0 20:0 21:0.36580208 22:0 23:0 24:0 25:0 26:0 27:0 28:0 29:0 30:0 31:0.40173942 32:0.10712811 33:0 34:0 35:0 36:0 37:0 38:0 39:0.13430624 40:0.28834987 41:0 42:0 43:0 44:0.32427934 45:0 46:0.15693468 47:0 48:0.26433864 49:0 50:0 51:0 52:0.16432437 53:0 54:0.34123486 55:0.4893187 56:0.37869272 57:0 58:0 59:0 60:0 61:0 62:0 63:0.16439898 64:0.98639393 65:0 66:0 67:0 68:1 69:0.69992322 70:0.71421814 71:1 #
2.1126760563380281461847570723123e-05 1:0 2:0 3:0 4:0 5:0 6:0 7:0 8:0 9:0 10:0 11:0 12:0 13:0 14:0 15:0.18765962 16:0 17:0 18:0 19:0.28916523 20:0 21:0.28672934 22:0.33722922 23:0.45386174 24:0.55880874 25:0 26:0 27:0 28:0 29:0.40862259 30:0 31:0.40173942 32:0.10712811 33:0 34:0 35:0 36:0 37:0 38:0 39:0.13430624 40:0.28834987 41:0 42:0 43:0 44:0.32427934 45:0 46:0.15693468 47:0 48:0.26433864 49:0 50:0 51:0 52:0.16432437 53:0 54:0.34123486 55:0.4893187 56:0.37869272 57:0 58:0 59:0 60:0 61:0 62:0 63:0.047565151 64:0.99886817 65:0 66:0 67:0 68:1 69:0.64643961 70:0.7629652 71:1 #
-2.8169014084507043078507357303231e-05 1:0 2:0.21065204 3:0 4:0 5:0 6:0 7:0 8:0.4333176 9:0.38584915 10:0.3582854 11:0 12:0 13:0 14:0 15:0.14492488 16:0 17:0 18:0 19:0 20:0 21:0 22:0 23:0.35050619 24:0.28770277 25:0 26:0 27:0.40546152 28:0 29:0.31556913 30:0 31:0.40173942 32:0.10712811 33:0 34:0 35:0 36:0 37:0 38:0 39:0.13430624 40:0.28834987 41:0 42:0 43:0 44:0.32427934 45:0 46:0.15693468 47:0 48:0.26433864 49:0 50:0 51:0 52:0.16432437 53:0 54:0.34123486 55:0.4893187 56:0.37869272 57:0 58:0 59:0 60:0 61:0 62:0 63:0.041630544 64:0.99913305 65:0 66:0 67:0 68:1 69:0.61293185 70:0.7901358 71:1 #
-2.8169014084507043078507357303231e-05 1:0 2:0.40222517 3:0.11285371 4:0 5:0 6:0 7:0 8:0.10342367 9:0.18418792 10:0 11:0.35300243 12:0 13:0 14:0 15:0.20754287 16:0 17:0.19628695 18:0 19:0.21320225 20:0 21:0.21140626 22:0.12431998 23:0.33463341 24:0.41201109 25:0.38710007 26:0 27:0.19355004 28:0 29:0 30:0 31:0.40173942 32:0.10712811 33:0 34:0 35:0 36:0 37:0 38:0 39:0.13430624 40:0.28834987 41:0 42:0 43:0 44:0.32427934 45:0 46:0.15693468 47:0 48:0.26433864 49:0 50:0 51:0 52:0.16432437 53:0 54:0.34123486 55:0.4893187 56:0.37869272 57:0 58:0 59:0 60:0 61:0 62:0 63:0.0052909311 64:0.99998599 65:0 66:0 67:0 68:1 69:0.69887096 70:0.71524775 71:1 #
2.1126760563380281461847570723123e-05 1:0 2:0 3:0 4:0 5:0 6:0 7:0 8:0 9:0 10:0 11:0 12:0 13:0 14:0 15:0.23822658 16:0 17:0 18:0 19:0.367084 20:0 21:0.36399174 22:0.42809936 23:0 24:0.47292393 25:0 26:0 27:0 28:0 29:0.51873046 30:0 31:0.40173942 32:0.10712811 33:0 34:0 35:0 36:0 37:0 38:0 39:0.13430624 40:0.28834987 41:0 42:0 43:0 44:0.32427934 45:0 46:0.15693468 47:0 48:0.26433864 49:0 50:0 51:0 52:0.16432437 53:0 54:0.34123486 55:0.4893187 56:0.37869272 57:0 58:0 59:0 60:0 61:0 62:0 63:0.099503718 64:0.9950372 65:0 66:0 67:0 68:1 69:0.65298879 70:0.75736755 71:1 #
2.1126760563380281461847570723123e-05 1:0 2:0.44674805 3:0.25069129 4:0 5:0 6:0 7:0 8:0.22974356 9:0 10:0.37992346 11:0 12:0 13:0 14:0 15:0.30735478 16:0 17:0 18:0 19:0.23680191 20:0 21:0 22:0 23:0 24:0.30507812 25:0.42994869 26:0 27:0 28:0 29:0.33462739 30:0 31:0.40173942 32:0.10712811 33:0 34:0 35:0 36:0 37:0 38:0 39:0.13430624 40:0.28834987 41:0 42:0 43:0 44:0.32427934 45:0 46:0.15693468 47:0 48:0.26433864 49:0 50:0 51:0 52:0.16432437 53:0 54:0.34123486 55:0.4893187 56:0.37869272 57:0 58:0 59:0 60:0 61:0 62:0 63:0.062378287 64:0.9980526 65:0 66:0 67:0 68:1 69:0.68052906 70:0.73272109 71:1 #
2.1126760563380281461847570723123e-05 1:0 2:0.48933402 3:0.27458829 4:0 5:0 6:0 7:0 8:0 9:0 10:0 11:0 12:0 13:0 14:0 15:0.16832659 16:0 17:0 18:0 19:0 20:0 21:0.25718996 22:0.30248725 23:0.40710407 24:0.33415949 25:0.47093329 26:0 27:0 28:0 29:0 30:0 31:0.40173942 32:0.10712811 33:0 34:0 35:0 36:0 37:0 38:0 39:0.13430624 40:0.28834987 41:0 42:0 43:0 44:0.32427934 45:0 46:0.15693468 47:0 48:0.26433864 49:0 50:0 51:0 52:0.16432437 53:0 54:0.34123486 55:0.4893187 56:0.37869272 57:0 58:0 59:0 60:0 61:0 62:0 63:0.062378287 64:0.9980526 65:0 66:0 67:0 68:1 69:0.69660413 70:0.71745569 71:1 #
-2.8169014084507043078507357303231e-05 1:0 2:0.69598126 3:0.39054778 4:0 5:0 6:0 7:0 8:0 9:0 10:0 11:0 12:0 13:0 14:0 15:0.47882286 16:0 17:0 18:0 19:0 20:0 21:0.36580208 22:0 23:0 24:0 25:0 26:0 27:0 28:0 29:0 30:0 31:0.40173942 32:0.10712811 33:0 34:0 35:0 36:0 37:0 38:0 39:0.13430624 40:0.28834987 41:0 42:0 43:0 44:0.32427934 45:0 46:0.15693468 47:0 48:0.26433864 49:0 50:0 51:0 52:0.16432437 53:0 54:0.34123486 55:0.4893187 56:0.37869272 57:0 58:0 59:0 60:0 61:0 62:0 63:0.16439898 64:0.98639393 65:0 66:0 67:0 68:1 69:0.69992322 70:0.71421814 71:1 #
2.1126760563380281461847570723123e-05 1:0 2:0 3:0 4:0 5:0 6:0 7:0 8:0 9:0 10:0 11:0 12:0 13:0 14:0 15:0.18765962 16:0 17:0 18:0 19:0.28916523 20:0 21:0.28672934 22:0.33722922 23:0.45386174 24:0.55880874 25:0 26:0 27:0 28:0 29:0.40862259 30:0 31:0.40173942 32:0.10712811 33:0 34:0 35:0 36:0 37:0 38:0 39:0.13430624 40:0.28834987 41:0 42:0 43:0 44:0.32427934 45:0 46:0.15693468 47:0 48:0.26433864 49:0 50:0 51:0 52:0.16432437 53:0 54:0.34123486 55:0.4893187 56:0.37869272 57:0 58:0 59:0 60:0 61:0 62:0 63:0.047565151 64:0.99886817 65:0 66:0 67:0 68:1 69:0.64643961 70:0.7629652 71:1 #
-2.8169014084507043078507357303231e-05 1:0 2:0.21065204 3:0 4:0 5:0 6:0 7:0 8:0.4333176 9:0.38584915 10:0.3582854 11:0 12:0 13:0 14:0 15:0.14492488 16:0 17:0 18:0 19:0 20:0 21:0 22:0 23:0.35050619 24:0.28770277 25:0 26:0 27:0.40546152 28:0 29:0.31556913 30:0 31:0.40173942 32:0.10712811 33:0 34:0 35:0 36:0 37:0 38:0 39:0.13430624 40:0.28834987 41:0 42:0 43:0 44:0.32427934 45:0 46:0.15693468 47:0 48:0.26433864 49:0 50:0 51:0 52:0.16432437 53:0 54:0.34123486 55:0.4893187 56:0.37869272 57:0 58:0 59:0 60:0 61:0 62:0 63:0.041630544 64:0.99913305 65:0 66:0 67:0 68:1 69:0.61293185 70:0.7901358 71:1 #
-2.8169014084507043078507357303231e-05 1:0 2:0.40222517 3:0.11285371 4:0 5:0 6:0 7:0 8:0.10342367 9:0.18418792 10:0 11:0.35300243 12:0 13:0 14:0 15:0.20754287 16:0 17:0.19628695 18:0 19:0.21320225 20:0 21:0.21140626 22:0.12431998 23:0.33463341 24:0.41201109 25:0.38710007 26:0 27:0.19355004 28:0 29:0 30:0 31:0.40173942 32:0.10712811 33:0 34:0 35:0 36:0 37:0 38:0 39:0.13430624 40:0.28834987 41:0 42:0 43:0 44:0.32427934 45:0 46:0.15693468 47:0 48:0.26433864 49:0 50:0 51:0 52:0.16432437 53:0 54:0.34123486 55:0.4893187 56:0.37869272 57:0 58:0 59:0 60:0 61:0 62:0 63:0.0052909311 64:0.99998599 65:0 66:0 67:0 68:1 69:0.69887096 70:0.71524775 71:1 #
2.1126760563380281461847570723123e-05 1:0 2:0 3:0 4:0 5:0 6:0 7:0 8:0 9:0 10:0 11:0 12:0 13:0 14:0 15:0.23822658 16:0 17:0 18:0 19:0.367084 20:0 21:0.36399174 22:0.42809936 23:0 24:0.47292393 25:0 26:0 27:0 28:0 29:0.51873046 30:0 31:0.40173942 32:0.10712811 33:0 34:0 35:0 36:0 37:0 38:0 39:0.13430624 40:0.28834987 41:0 42:0 43:0 44:0.32427934 45:0 46:0.15693468 47:0 48:0.26433864 49:0 50:0 51:0 52:0.16432437 53:0 54:0.34123486 55:0.4893187 56:0.37869272 57:0 58:0 59:0 60:0 61:0 62:0 63:0.099503718 64:0.9950372 65:0 66:0 67:0 68:1 69:0.65298879 70:0.75736755 71:1 #
2.8169014084507043078507357303231e-05 1:0 2:0 3:0 4:0 5:0 6:0 7:0 8:0 9:0 10:0 11:0 12:0 13:0 14:0 15:0.46893582 16:0 17:0 18:0.39925477 19:0 20:0 21:0.35824877 22:0.42134494 23:0 24:0.23273113 25:0 26:0 27:0 28:0 29:0.51054609 30:0 31:0 32:0 33:0.27779689 34:0 35:0 36:0.36841866 37:0 38:0 39:0 40:0 41:0.1461129 42:0 43:0 44:0.53373939 45:0 46:0 47:0.18162386 48:0.29005435 49:0 50:0 51:0 52:0 53:0 54:0.28082347 55:0.40269089 56:0 57:0.1944554 58:0 59:0.29140425 60:0 61:0 62:0 63:0.099503718 64:0.9950372 65:0 66:0 67:0.99954116 68:0.030289127 69:0.63987577 70:0.76847839 71:1 #
2.8169014084507043078507357303231e-05 1:0 2:0 3:0 4:0.34216392 5:0 6:0.52948505 7:0 8:0 9:0 10:0 11:0 12:0 13:0 14:0 15:0.3992824 16:0 17:0 18:0.22663428 19:0.20508511 20:0 21:0.2033575 22:0.23917362 23:0.32189307 24:0.26421654 25:0 26:0.27881205 27:0 28:0 29:0 30:0 31:0 32:0 33:0.27779689 34:0 35:0 36:0.36841866 37:0 38:0 39:0 40:0 41:0.1461129 42:0 43:0 44:0.53373939 45:0 46:0 47:0.18162386 48:0.29005435 49:0 50:0 51:0 52:0 53:0 54:0.28082347 55:0.40269089 56:0 57:0.1944554 58:0 59:0.29140425 60:0 61:0 62:0 63:0.019996 64:0.99980009 65:0 66:0 67:0.99954116 68:0.030289127 69:0.74127078 70:0.67120606 71:1 #
2.8169014084507043078507357303231e-05 1:0 2:0 3:0 4:0.28719434 5:0 6:0.22221091 7:0.31254119 8:0 9:0 10:0 11:0 12:0.13750945 13:0 14:0.17360759 15:0.44684878 16:0 17:0 18:0.19022486 19:0.34427527 20:0 21:0.17068756 22:0.20074971 23:0.27018008 24:0.33265412 25:0 26:0.23402013 27:0 28:0 29:0.2432496 30:0 31:0 32:0 33:0.27779689 34:0 35:0 36:0.36841866 37:0 38:0 39:0 40:0 41:0.1461129 42:0 43:0 44:0.53373939 45:0 46:0 47:0.18162386 48:0.29005435 49:0 50:0 51:0 52:0 53:0 54:0.28082347 55:0.40269089 56:0 57:0.1944554 58:0 59:0.29140425 60:0 61:0 62:0 63:0.008343189 64:0.6507687 65:0 66:0.7592302 67:0.99954116 68:0.030289127 69:0.70822072 70:0.70599109 71:1 #
-4.9295774647887327928486717043555e-05 1:0 2:0 3:0 4:0.34250504 5:0 6:0.26500648 7:0.37273344 8:0 9:0 10:0 11:0 12:0.16399238 13:0 14:0.20704265 15:0.39968047 16:0 17:0 18:0.22686023 19:0.20528959 20:0 21:0.20356025 22:0.23941207 23:0.32221401 24:0.26447994 25:0 26:0.27909002 27:0 28:0 29:0 30:0 31:0 32:0 33:0.27779689 34:0 35:0 36:0.36841866 37:0 38:0 39:0 40:0 41:0.1461129 42:0 43:0 44:0.53373939 45:0 46:0 47:0.18162386 48:0.29005435 49:0 50:0 51:0 52:0 53:0 54:0.28082347 55:0.40269089 56:0 57:0.1944554 58:0 59:0.29140425 60:0 61:0 62:0 63:0.011638928 64:0.76816922 65:0 66:0.64014101 67:0.99954116 68:0.030289127 69:0.72042799 70:0.69352973 71:1 #
-4.9295774647887327928486717043555e-05 1:0 2:0 3:0 4:0 5:0 6:0 7:0 8:0 9:0 10:0 11:0 12:0.27086052 13:0 14:0 15:0.22004612 16:0 17:0 18:0 19:0 20:0 21:0.33621341 22:0.3954286 23:0 24:0.43683237 25:0 26:0 27:0 28:0.43406266 29:0.47914314 30:0 31:0 32:0 33:0.27779689 34:0 35:0 36:0.36841866 37:0 38:0 39:0 40:0 41:0.1461129 42:0 43:0 44:0.53373939 45:0 46:0 47:0.18162386 48:0.29005435 49:0 50:0 51:0 52:0 53:0 54:0.28082347 55:0.40269089 56:0 57:0.1944554 58:0 59:0.29140425 60:0 61:0 62:0 63:0.05547002 64:0.99846035 65:0 66:0 67:0.99954116 68:0.030289127 69:0.70029569 70:0.71385288 71:1 #
2.8169014084507043078507357303231e-05 1:0.83621895 2:0 3:0 4:0 5:0 6:0 7:0 8:0 9:0 10:0 11:0 12:0.15545796 13:0 14:0 15:0.25258699 16:0 17:0 18:0.21505408 19:0 20:0 21:0.19296667 22:0.2269527 23:0 24:0.125358 25:0 26:0 27:0 28:0.24912637 29:0 30:0 31:0 32:0 33:0.27779689 34:0 35:0 36:0.36841866 37:0 38:0 39:0 40:0 41:0.1461129 42:0 43:0 44:0.53373939 45:0 46:0 47:0.18162386 48:0.29005435 49:0 50:0 51:0 52:0 53:0 54:0.28082347 55:0.40269089 56:0 57:0.1944554 58:0 59:0.29140425 60:0 61:0 62:0 63:0.062378287 64:0.9980526 65:0 66:0 67:0.99954116 68:0.030289127 69:0.64997548 70:0.75995517 71:1 #
-4.9295774647887327928486717043555e-05 1:0 2:0 3:0 4:0 5:0 6:0 7:0 8:0 9:0 10:0 11:0 12:0.27086052 13:0 14:0 15:0.22004612 16:0 17:0 18:0 19:0 20:0 21:0.33621341 22:0.3954286 23:0 24:0.43683237 25:0 26:0 27:0 28:0.43406266 29:0.47914314 30:0 31:0 32:0 33:0.27779689 34:0 35:0 36:0.36841866 37:0 38:0 39:0 40:0 41:0.1461129 42:0 43:0 44:0.53373939 45:0 46:0 47:0.18162386 48:0.29005435 49:0 50:0 51:0 52:0 53:0 54:0.28082347 55:0.40269089 56:0 57:0.1944554 58:0 59:0.29140425 60:0 61:0 62:0 63:0.083045483 64:0.99654573 65:0 66:0 67:0.99954116 68:0.030289127 69:0.70678765 70:0.70742577 71:1 #
2.8169014084507043078507357303231e-05 1:0 2:0 3:0 4:0.29483846 5:0 6:0.45625079 7:0 8:0 9:0 10:0 11:0 12:0 13:0 14:0 15:0.22937116 16:0 17:0 18:0 19:0 20:0 21:0.35046133 22:0.41218594 23:0.55474263 24:0.22767214 25:0 26:0 27:0 28:0 29:0 30:0 31:0 32:0 33:0.27779689 34:0 35:0 36:0.36841866 37:0 38:0 39:0 40:0 41:0.1461129 42:0 43:0 44:0.53373939 45:0 46:0 47:0.18162386 48:0.29005435 49:0 50:0 51:0 52:0 53:0 54:0.28082347 55:0.40269089 56:0 57:0.1944554 58:0 59:0.29140425 60:0 61:0 62:0 63:0.041630544 64:0.99913305 65:0 66:0 67:0.99954116 68:0.030289127 69:0.74582684 70:0.6661399 71:1 #
-4.9295774647887327928486717043555e-05 1:0 2:0 3:0 4:0.23316607 5:0 6:0 7:0.50748909 8:0 9:0 10:0 11:0 12:0.22328113 13:0 14:0.28189552 15:0.36278561 16:0 17:0 18:0.30887783 19:0.27950868 20:0 21:0.27715412 22:0 23:0 24:0.18004917 25:0 26:0.37999043 27:0 28:0 29:0 30:0 31:0 32:0 33:0.27779689 34:0 35:0 36:0.36841866 37:0 38:0 39:0 40:0 41:0.1461129 42:0 43:0 44:0.53373939 45:0 46:0 47:0.18162386 48:0.29005435 49:0 50:0 51:0 52:0 53:0 54:0.28082347 55:0.40269089 56:0 57:0.1944554 58:0 59:0.29140425 60:0 61:0 62:0 63:0.024492448 64:0.51434141 65:0 66:0.85723567 67:0.99954116 68:0.030289127 69:0.60814291 70:0.79382753 71:1 #
2.8169014084507043078507357303231e-05 1:0 2:0 3:0 4:0.27948907 5:0 6:0.43249825 7:0 8:0 9:0 10:0 11:0 12:0 13:0 14:0 15:0.43486005 16:0 17:0 18:0 19:0.33503854 20:0 21:0.3322162 22:0 23:0.52586257 24:0.21581946 25:0 26:0 27:0 28:0 29:0 30:0 31:0 32:0 33:0.27779689 34:0 35:0 36:0.36841866 37:0 38:0 39:0 40:0 41:0.1461129 42:0 43:0 44:0.53373939 45:0 46:0 47:0.18162386 48:0.29005435 49:0 50:0 51:0 52:0 53:0 54:0.28082347 55:0.40269089 56:0 57:0.1944554 58:0 59:0.29140425 60:0 61:0 62:0 63:0.03569153 64:0.99936283 65:0 66:0 67:0.99954116 68:0.030289127 69:0.76079029 70:0.64899778 71:1 #
2.8169014084507043078507357303231e-05 1:0 2:0 3:0 4:0.33284906 5:0 6:0.25753534 7:0 8:0 9:0 10:0 11:0 12:0.15936905 13:0 14:0 15:0.38841256 16:0 17:0 18:0.22046453 19:0.19950201 20:0 21:0.19782141 22:0.23266248 23:0.31313005 24:0.38553548 25:0 26:0.27122182 27:0 28:0.25539401 29:0.2819185 30:0 31:0 32:0 33:0.27779689 34:0 35:0 36:0.36841866 37:0 38:0 39:0 40:0 41:0.1461129 42:0 43:0 44:0.53373939 45:0 46:0 47:0.18162386 48:0.29005435 49:0 50:0 51:0 52:0 53:0 54:0.28082347 55:0.40269089 56:0 57:0.1944554 58:0 59:0.29140425 60:0 61:0 62:0 63:0.01388755 64:0.99990356 65:0 66:0 67:0.99954116 68:0.030289127 69:0.69887489 70:0.71524394 71:1 #
2.8169014084507043078507357303231e-05 1:0 2:0 3:0 4:0 5:0 6:0 7:0 8:0 9:0 10:0 11:0 12:0 13:0 14:0 15:0.46893582 16:0 17:0 18:0.39925477 19:0 20:0 21:0.35824877 22:0.42134494 23:0 24:0.23273113 25:0 26:0 27:0 28:0 29:0.51054609 30:0 31:0 32:0 33:0.27779689 34:0 35:0 36:0.36841866 37:0 38:0 39:0 40:0 41:0.1461129 42:0 43:0 44:0.53373939 45:0 46:0 47:0.18162386 48:0.29005435 49:0 50:0 51:0 52:0 53:0 54:0.28082347 55:0.40269089 56:0 57:0.1944554 58:0 59:0.29140425 60:0 61:0 62:0 63:0.099503718 64:0.9950372 65:0 66:0 67:0.99954116 68:0.030289127 69:0.63987577 70:0.76847839 71:1 #
2.8169014084507043078507357303231e-05 1:0 2:0 3:0 4:0.34216392 5:0 6:0.52948505 7:0 8:0 9:0 10:0 11:0 12:0 13:0 14:0 15:0.3992824 16:0 17:0 18:0.22663428 19:0.20508511 20:0 21:0.2033575 22:0.23917362 23:0.32189307 24:0.26421654 25:0 26:0.27881205 27:0 28:0 29:0 30:0 31:0 32:0 33:0.27779689 34:0 35:0 36:0.36841866 37:0 38:0 39:0 40:0 41:0.1461129 42:0 43:0 44:0.53373939 45:0 46:0 47:0.18162386 48:0.29005435 49:0 50:0 51:0 52:0 53:0 54:0.28082347 55:0.40269089 56:0 57:0.1944554 58:0 59:0.29140425 60:0 61:0 62:0 63:0.019996 64:0.99980009 65:0 66:0 67:0.99954116 68:0.030289127 69:0.74127078 70:0.67120606 71:1 #
2.8169014084507043078507357303231e-05 1:0 2:0 3:0 4:0.28719434 5:0 6:0.22221091 7:0.31254119 8:0 9:0 10:0 11:0 12:0.13750945 13:0 14:0.17360759 15:0.44684878 16:0 17:0 18:0.19022486 19:0.34427527 20:0 21:0.17068756 22:0.20074971 23:0.27018008 24:0.33265412 25:0 26:0.23402013 27:0 28:0 29:0.2432496 30:0 31:0 32:0 33:0.27779689 34:0 35:0 36:0.36841866 37:0 38:0 39:0 40:0 41:0.1461129 42:0 43:0 44:0.53373939 45:0 46:0 47:0.18162386 48:0.29005435 49:0 50:0 51:0 52:0 53:0 54:0.28082347 55:0.40269089 56:0 57:0.1944554 58:0 59:0.29140425 60:0 61:0 62:0 63:0.008343189 64:0.6507687 65:0 66:0.7592302 67:0.99954116 68:0.030289127 69:0.70822072 70:0.70599109 71:1 #
-4.9295774647887327928486717043555e-05 1:0 2:0 3:0 4:0.34250504 5:0 6:0.26500648 7:0.37273344 8:0 9:0 10:0 11:0 12:0.16399238 13:0 14:0.20704265 15:0.39968047 16:0 17:0 18:0.22686023 19:0.20528959 20:0 21:0.20356025 22:0.23941207 23:0.32221401 24:0.26447994 25:0 26:0.27909002 27:0 28:0 29:0 30:0 31:0 32:0 33:0.27779689 34:0 35:0 36:0.36841866 37:0 38:0 39:0 40:0 41:0.1461129 42:0 43:0 44:0.53373939 45:0 46:0 47:0.18162386 48:0.29005435 49:0 50:0 51:0 52:0 53:0 54:0.28082347 55:0.40269089 56:0 57:0.1944554 58:0 59:0.29140425 60:0 61:0 62:0 63:0.011638928 64:0.76816922 65:0 66:0.64014101 67:0.99954116 68:0.030289127 69:0.72042799 70:0.69352973 71:1 #
-4.9295774647887327928486717043555e-05 1:0 2:0 3:0 4:0 5:0 6:0 7:0 8:0 9:0 10:0 11:0 12:0.27086052 13:0 14:0 15:0.22004612 16:0 17:0 18:0 19:0 20:0 21:0.33621341 22:0.3954286 23:0 24:0.43683237 25:0 26:0 27:0 28:0.43406266 29:0.47914314 30:0 31:0 32:0 33:0.27779689 34:0 35:0 36:0.36841866 37:0 38:0 39:0 40:0 41:0.1461129 42:0 43:0 44:0.53373939 45:0 46:0 47:0.18162386 48:0.29005435 49:0 50:0 51:0 52:0 53:0 54:0.28082347 55:0.40269089 56:0 57:0.1944554 58:0 59:0.29140425 60:0 61:0 62:0 63:0.05547002 64:0.99846035 65:0 66:0 67:0.99954116 68:0.030289127 69:0.70029569 70:0.71385288 71:1 #
2.8169014084507043078507357303231e-05 1:0.83621895 2:0 3:0 4:0 5:0 6:0 7:0 8:0 9:0 10:0 11:0 12:0.15545796 13:0 14:0 15:0.25258699 16:0 17:0 18:0.21505408 19:0 20:0 21:0.19296667 22:0.2269527 23:0 24:0.125358 25:0 26:0 27:0 28:0.24912637 29:0 30:0 31:0 32:0 33:0.27779689 34:0 35:0 36:0.36841866 37:0 38:0 39:0 40:0 41:0.1461129 42:0 43:0 44:0.53373939 45:0 46:0 47:0.18162386 48:0.29005435 49:0 50:0 51:0 52:0 53:0 54:0.28082347 55:0.40269089 56:0 57:0.1944554 58:0 59:0.29140425 60:0 61:0 62:0 63:0.062378287 64:0.9980526 65:0 66:0 67:0.99954116 68:0.030289127 69:0.64997548 70:0.75995517 71:1 #
-4.9295774647887327928486717043555e-05 1:0 2:0 3:0 4:0 5:0 6:0 7:0 8:0 9:0 10:0 11:0 12:0.27086052 13:0 14:0 15:0.22004612 16:0 17:0 18:0 19:0 20:0 21:0.33621341 22:0.3954286 23:0 24:0.43683237 25:0 26:0 27:0 28:0.43406266 29:0.47914314 30:0 31:0 32:0 33:0.27779689 34:0 35:0 36:0.36841866 37:0 38:0 39:0 40:0 41:0.1461129 42:0 43:0 44:0.53373939 45:0 46:0 47:0.18162386 48:0.29005435 49:0 50:0 51:0 52:0 53:0 54:0.28082347 55:0.40269089 56:0 57:0.1944554 58:0 59:0.29140425 60:0 61:0 62:0 63:0.083045483 64:0.99654573 65:0 66:0 67:0.99954116 68:0.030289127 69:0.70678765 70:0.70742577 71:1 #
2.8169014084507043078507357303231e-05 1:0 2:0 3:0 4:0.29483846 5:0 6:0.45625079 7:0 8:0 9:0 10:0 11:0 12:0 13:0 14:0 15:0.22937116 16:0 17:0 18:0 19:0 20:0 21:0.35046133 22:0.41218594 23:0.55474263 24:0.22767214 25:0 26:0 27:0 28:0 29:0 30:0 31:0 32:0 33:0.27779689 34:0 35:0 36:0.36841866 37:0 38:0 39:0 40:0 41:0.1461129 42:0 43:0 44:0.53373939 45:0 46:0 47:0.18162386 48:0.29005435 49:0 50:0 51:0 52:0 53:0 54:0.28082347 55:0.40269089 56:0 57:0.1944554 58:0 59:0.29140425 60:0 61:0 62:0 63:0.041630544 64:0.99913305 65:0 66:0 67:0.99954116 68:0.030289127 69:0.74582684 70:0.6661399 71:1 #
