SVM-light Version V6.20
0 # kernel type
3 # kernel parameter -d 
1 # kernel parameter -g 
1 # kernel parameter -s 
1 # kernel parameter -r 
empty# kernel parameter -u 
88 # highest feature index 
2 # number of training documents 
2 # number of support vectors plus 1 
0 # threshold b, each following line is a SV (starting with alpha*y)
1 1:-5.5555556e-05 2:-5.5555556e-05 3:-6.6588342e-05 4:3.787869e-05 5:3.7259579e-05 6:-0.00014172662 7:0.00020464533 8:0.00013208624 9:-0.00014172662 10:0.00021428573 11:-0.00032777403 12:-0.0003656527 13:3.787869e-05 14:0.00027443722 15:3.787869e-05 16:0.00023655854 17:0.00064543629 18:0.00029906436 19:0.00013208624 20:0.00021428573 21:0.00042973305 22:-5.5555556e-05 23:-9.640381e-06 24:0.00023655854 25:0.00029211407 26:-0.00033280795 27:0.00021428573 28:0.00021428573 29:7.072345e-05 30:0.00021428573 31:0.00012909944 32:0.00017960531 33:-0.00033280795 34:0.00026118566 35:-0.00045226704 36:-0.00014172662 37:-0.00036294566 38:-0.00014172662 39:3.787869e-05 40:3.787869e-05 41:0.00021428573 42:-0.00019108134 43:-0.00032018078 83:0.00015975205 85:-0.00048290699 #
