SVM-light Version V6.20
1 # kernel type
3 # kernel parameter -d 
1 # kernel parameter -g 
1 # kernel parameter -s 
1 # kernel parameter -r 
empty# kernel parameter -u 
60 # highest feature index 
2 # number of training documents 
1345 # number of support vectors plus 1 
0 # threshold b, each following line is a SV (starting with alpha*y)
-7.0422535211267607696268393258077e-06 1:0 2:0 3:0 4:0 5:0 6:0 7:0 8:0 9:0.14285715 10:0.14285715 11:0 12:0 13:0 14:0 15:0 16:0 17:0 18:0 19:0 20:0 21:0 22:0 23:0.14285715 24:0.14285715 25:0 26:0.14285715 27:0 28:0 29:0 30:0 31:0 32:0 33:0 34:0 35:0 36:0.14285715 37:0.14285715 38:0 39:0 40:0 41:0 42:0 43:0 44:0 45:0 46:0 47:0 48:0 49:0 50:0 51:0 52:0 53:0.032000002 54:0.76800001 55:0 56:0 57:0.54617792 58:0.45382211 59:0.5 #
-7.0422535211267607696268393258077e-06 1:0 2:0 3:0 4:0 5:0 6:0 7:0.07692308 8:0.07692308 9:0 10:0 11:0 12:0 13:0 14:0 15:0 16:0 17:0 18:0.15384616 19:0.07692308 20:0 21:0 22:0.07692308 23:0.07692308 24:0 25:0 26:0 27:0 28:0 29:0 30:0 31:0 32:0 33:0.07692308 34:0.07692308 35:0 36:0 37:0 38:0 39:0 40:0 41:0.07692308 42:0 43:0 44:0 45:0.07692308 46:0 47:0.07692308 48:0 49:0.07692308 50:0 51:0 52:0 53:0.013114754 54:0.78688526 55:0 56:0 57:0.48734385 58:0.51265615 59:0.5 #
-7.0422535211267607696268393258077e-06 1:0 2:0 3:0 4:0 5:0 6:0 7:0 8:0 9:0 10:0 11:0 12:0 13:0 14:0 15:0 16:0 17:0 18:0 19:0 20:0 21:0 22:0 23:0.33333334 24:0 25:0 26:0 27:0 28:0 29:0 30:0 31:0 32:0 33:0 34:0 35:0 36:0.33333334 37:0.33333334 38:0 39:0 40:0 41:0 42:0 43:0 44:0 45:0 46:0 47:0 48:0 49:0 50:0 51:0 52:0 53:0.061538462 54:0.73846155 55:0 56:0 57:0.70005488 58:0.29994515 59:0.5 #
2.1126760563380281461847570723123e-05 1:0 2:0 3:0 4:0 5:0 6:0 7:0.090909094 8:0.090909094 9:0 10:0 11:0 12:0 13:0 14:0 15:0 16:0 17:0 18:0.18181819 19:0.090909094 20:0 21:0 22:0.090909094 23:0.090909094 24:0 25:0 26:0 27:0 28:0 29:0 30:0 31:0 32:0 33:0.090909094 34:0 35:0 36:0 37:0 38:0 39:0 40:0 41:0.090909094 42:0 43:0 44:0 45:0.090909094 46:0 47:0.090909094 48:0 49:0 50:0 51:0 52:0 53:0.017391304 54:0.78260869 55:0 56:0 57:0.56981748 58:0.43018249 59:0.5 #
-7.0422535211267607696268393258077e-06 1:0 2:0 3:0 4:0 5:0 6:0 7:0 8:0 9:0.14285715 10:0.14285715 11:0 12:0 13:0 14:0 15:0 16:0 17:0 18:0 19:0 20:0 21:0 22:0 23:0.14285715 24:0.14285715 25:0 26:0.14285715 27:0 28:0 29:0 30:0 31:0 32:0 33:0 34:0 35:0 36:0.14285715 37:0.14285715 38:0 39:0 40:0 41:0 42:0 43:0 44:0 45:0 46:0 47:0 48:0 49:0 50:0 51:0 52:0 53:0.032000002 54:0.76800001 55:0 56:0 57:0.54617792 58:0.45382211 59:0.5 #
-7.0422535211267607696268393258077e-06 1:0 2:0 3:0 4:0 5:0 6:0 7:0.07692308 8:0.07692308 9:0 10:0 11:0 12:0 13:0 14:0 15:0 16:0 17:0 18:0.15384616 19:0.07692308 20:0 21:0 22:0.07692308 23:0.07692308 24:0 25:0 26:0 27:0 28:0 29:0 30:0 31:0 32:0 33:0.07692308 34:0.07692308 35:0 36:0 37:0 38:0 39:0 40:0 41:0.07692308 42:0 43:0 44:0 45:0.07692308 46:0 47:0.07692308 48:0 49:0.07692308 50:0 51:0 52:0 53:0.013114754 54:0.78688526 55:0 56:0 57:0.48734385 58:0.51265615 59:0.5 #
-7.0422535211267607696268393258077e-06 1:0 2:0 3:0 4:0 5:0 6:0 7:0 8:0 9:0 10:0 11:0 12:0 13:0 14:0 15:0 16:0 17:0 18:0 19:0 20:0 21:0 22:0 23:0.33333334 24:0 25:0 26:0 27:0 28:0 29:0 30:0 31:0 32:0 33:0 34:0 35:0 36:0.33333334 37:0.33333334 38:0 39:0 40:0 41:0 42:0 43:0 44:0 45:0 46:0 47:0 48:0 49:0 50:0 51:0 52:0 53:0.061538462 54:0.73846155 55:0 56:0 57:0.70005488 58:0.29994515 59:0.5 #
2.1126760563380281461847570723123e-05 1:0 2:0 3:0 4:0 5:0 6:0 7:0.090909094 8:0.090909094 9:0 10:0 11:0 12:0 13:0 14:0 15:0 16:0 17:0 18:0.18181819 19:0.090909094 20:0 21:0 22:0.090909094 23:0.090909094 24:0 25:0 26:0 27:0 28:0 29:0 30:0 31:0 32:0 33:0.090909094 34:0 35:0 36:0 37:0 38:0 39:0 40:0 41:0.090909094 42:0 43:0 44:0 45:0.090909094 46:0 47:0.090909094 48:0 49:0 50:0 51:0 52:0 53:0.017391304 54:0.78260869 55:0 56:0 57:0.56981748 58:0.43018249 59:0.5 #
2.8169014084507043078507357303231e-05 1:0 2:0.07692308 3:0.07692308 4:0 5:0 6:0 7:0.07692308 8:0 9:0.07692308 10:0 11:0.07692308 12:0 13:0 14:0 15:0 16:0.07692308 17:0.07692308 18:0 19:0 20:0 21:0 22:0 23:0.07692308 24:0.07692308 25:0 26:0.07692308 27:0 28:0.07692308 29:0.07692308 30:0 31:0 32:0 33:0 34:0 35:0 36:0 37:0.07692308 38:0 39:0 40:0 41:0 42:0 43:0 44:0 45:0 46:0 47:0 48:0 49:0 50:0 51:0 52:0 53:0.010256411 54:0.7897436 55:0 56:0 57:0.53508067 58:0.46491933 59:0.5 #
-2.1126760563380281461847570723123e-05 1:0 2:0.071428575 3:0.071428575 4:0 5:0 6:0 7:0.14285715 8:0.071428575 9:0 10:0 11:0 12:0 13:0 14:0 15:0 16:0.071428575 17:0.071428575 18:0.071428575 19:0 20:0 21:0 22:0.071428575 23:0.071428575 24:0.071428575 25:0.071428575 26:0 27:0 28:0 29:0 30:0 31:0 32:0 33:0.071428575 34:0 35:0 36:0 37:0 38:0 39:0 40:0 41:0 42:0 43:0 44:0 45:0 46:0 47:0 48:0.071428575 49:0 50:0 51:0 52:0 53:0.0055555557 54:0.36666667 55:0.061111111 56:0.36666667 57:0.5115751 58:0.4884249 59:0.5 #
-2.1126760563380281461847570723123e-05 1:0 2:0 3:0 4:0 5:0 6:0 7:0.25 8:0 9:0 10:0 11:0 12:0 13:0 14:0 15:0 16:0 17:0 18:0 19:0 20:0 21:0 22:0 23:0.25 24:0 25:0 26:0 27:0 28:0 29:0 30:0 31:0 32:0 33:0 34:0 35:0 36:0 37:0 38:0 39:0 40:0 41:0 42:0 43:0 44:0 45:0 46:0 47:0 48:0.25 49:0.25 50:0 51:0 52:0 53:0.016000001 54:0.44800001 55:0.112 56:0.22400001 57:0.51266348 58:0.48733652 59:0.5 #
2.8169014084507043078507357303231e-05 1:0 2:0 3:0 4:0 5:0 6:0 7:0 8:0 9:0 10:0 11:0 12:0 13:0 14:0 15:0 16:0 17:0 18:0 19:0 20:0 21:0 22:0 23:0.33333334 24:0 25:0 26:0 27:0 28:0 29:0 30:0 31:0 32:0 33:0 34:0 35:0 36:0 37:0.33333334 38:0 39:0 40:0 41:0 42:0 43:0 44:0 45:0 46:0 47:0 48:0.33333334 49:0 50:0 51:0 52:0 53:0.061538462 54:0.49230769 55:0.24615385 56:0 57:0.52327365 58:0.47672635 59:0.5 #
-2.1126760563380281461847570723123e-05 1:0 2:0.1 3:0.1 4:0 5:0 6:0 7:0.2 8:0 9:0 10:0 11:0 12:0 13:0 14:0 15:0 16:0.1 17:0.1 18:0 19:0 20:0 21:0 22:0 23:0.1 24:0.1 25:0.1 26:0 27:0 28:0 29:0 30:0 31:0 32:0 33:0 34:0 35:0 36:0 37:0 38:0 39:0 40:0 41:0 42:0 43:0 44:0 45:0 46:0 47:0 48:0.1 49:0 50:0 51:0 52:0 53:0.0066115703 54:0.39669421 55:0 56:0.39669421 57:0.43309692 58:0.56690305 59:0.5 #
2.8169014084507043078507357303231e-05 1:0 2:0.071428575 3:0.071428575 4:0 5:0 6:0 7:0.14285715 8:0.071428575 9:0 10:0 11:0 12:0 13:0 14:0 15:0 16:0.071428575 17:0.071428575 18:0.071428575 19:0 20:0 21:0 22:0.071428575 23:0.071428575 24:0.071428575 25:0.071428575 26:0 27:0 28:0 29:0 30:0 31:0 32:0 33:0.071428575 34:0 35:0 36:0 37:0 38:0 39:0 40:0 41:0 42:0 43:0 44:0 45:0 46:0 47:0 48:0.071428575 49:0 50:0 51:0 52:0 53:0.0060150377 54:0.39699247 55:0 56:0.39699247 57:0.50801051 58:0.49198949 59:0.5 #
-2.1126760563380281461847570723123e-05 1:0 2:0.0625 3:0.0625 4:0 5:0 6:0 7:0.125 8:0.0625 9:0 10:0 11:0 12:0 13:0 14:0 15:0 16:0.0625 17:0.0625 18:0.0625 19:0 20:0 21:0.0625 22:0 23:0.0625 24:0.0625 25:0.0625 26:0 27:0 28:0.125 29:0.0625 30:0 31:0.0625 32:0 33:0 34:0 35:0 36:0 37:0 38:0 39:0 40:0 41:0 42:0 43:0 44:0 45:0 46:0 47:0 48:0 49:0 50:0 51:0 52:0 53:0.0065573771 54:0.36065573 55:0 56:0.43278688 57:0.51288182 58:0.48711818 59:0.5 #
2.8169014084507043078507357303231e-05 1:0 2:0.07692308 3:0.07692308 4:0 5:0 6:0 7:0.07692308 8:0 9:0.07692308 10:0 11:0.07692308 12:0 13:0 14:0 15:0 16:0.07692308 17:0.07692308 18:0 19:0 20:0 21:0 22:0 23:0.07692308 24:0.07692308 25:0 26:0.07692308 27:0 28:0.07692308 29:0.07692308 30:0 31:0 32:0 33:0 34:0 35:0 36:0 37:0.07692308 38:0 39:0 40:0 41:0 42:0 43:0 44:0 45:0 46:0 47:0 48:0 49:0 50:0 51:0 52:0 53:0.010256411 54:0.7897436 55:0 56:0 57:0.53508067 58:0.46491933 59:0.5 #
-2.1126760563380281461847570723123e-05 1:0 2:0.071428575 3:0.071428575 4:0 5:0 6:0 7:0.14285715 8:0.071428575 9:0 10:0 11:0 12:0 13:0 14:0 15:0 16:0.071428575 17:0.071428575 18:0.071428575 19:0 20:0 21:0 22:0.071428575 23:0.071428575 24:0.071428575 25:0.071428575 26:0 27:0 28:0 29:0 30:0 31:0 32:0 33:0.071428575 34:0 35:0 36:0 37:0 38:0 39:0 40:0 41:0 42:0 43:0 44:0 45:0 46:0 47:0 48:0.071428575 49:0 50:0 51:0 52:0 53:0.0055555557 54:0.36666667 55:0.061111111 56:0.36666667 57:0.5115751 58:0.4884249 59:0.5 #
-2.1126760563380281461847570723123e-05 1:0 2:0 3:0 4:0 5:0 6:0 7:0.25 8:0 9:0 10:0 11:0 12:0 13:0 14:0 15:0 16:0 17:0 18:0 19:0 20:0 21:0 22:0 23:0.25 24:0 25:0 26:0 27:0 28:0 29:0 30:0 31:0 32:0 33:0 34:0 35:0 36:0 37:0 38:0 39:0 40:0 41:0 42:0 43:0 44:0 45:0 46:0 47:0 48:0.25 49:0.25 50:0 51:0 52:0 53:0.016000001 54:0.44800001 55:0.112 56:0.22400001 57:0.51266348 58:0.48733652 59:0.5 #
2.8169014084507043078507357303231e-05 1:0 2:0 3:0 4:0 5:0 6:0 7:0 8:0 9:0 10:0 11:0 12:0 13:0 14:0 15:0 16:0 17:0 18:0 19:0 20:0 21:0 22:0 23:0.33333334 24:0 25:0 26:0 27:0 28:0 29:0 30:0 31:0 32:0 33:0 34:0 35:0 36:0 37:0.33333334 38:0 39:0 40:0 41:0 42:0 43:0 44:0 45:0 46:0 47:0 48:0.33333334 49:0 50:0 51:0 52:0 53:0.061538462 54:0.49230769 55:0.24615385 56:0 57:0.52327365 58:0.47672635 59:0.5 #
-2.1126760563380281461847570723123e-05 1:0 2:0.1 3:0.1 4:0 5:0 6:0 7:0.2 8:0 9:0 10:0 11:0 12:0 13:0 14:0 15:0 16:0.1 17:0.1 18:0 19:0 20:0 21:0 22:0 23:0.1 24:0.1 25:0.1 26:0 27:0 28:0 29:0 30:0 31:0 32:0 33:0 34:0 35:0 36:0 37:0 38:0 39:0 40:0 41:0 42:0 43:0 44:0 45:0 46:0 47:0 48:0.1 49:0 50:0 51:0 52:0 53:0.0066115703 54:0.39669421 55:0 56:0.39669421 57:0.43309692 58:0.56690305 59:0.5 #
2.8169014084507043078507357303231e-05 1:0 2:0.071428575 3:0.071428575 4:0 5:0 6:0 7:0.14285715 8:0.071428575 9:0 10:0 11:0 12:0 13:0 14:0 15:0 16:0.071428575 17:0.071428575 18:0.071428575 19:0 20:0 21:0 22:0.071428575 23:0.071428575 24:0.071428575 25:0.071428575 26:0 27:0 28:0 29:0 30:0 31:0 32:0 33:0.071428575 34:0 35:0 36:0 37:0 38:0 39:0 40:0 41:0 42:0 43:0 44:0 45:0 46:0 47:0 48:0.071428575 49:0 50:0 51:0 52:0 53:0.0060150377 54:0.39699247 55:0 56:0.39699247 57:0.50801051 58:0.49198949 59:0.5 #
-2.1126760563380281461847570723123e-05 1:0 2:0.0625 3:0.0625 4:0 5:0 6:0 7:0.125 8:0.0625 9:0 10:0 11:0 12:0 13:0 14:0 15:0 16:0.0625 17:0.0625 18:0.0625 19:0 20:0 21:0.0625 22:0 23:0.0625 24:0.0625 25:0.0625 26:0 27:0 28:0.125 29:0.0625 30:0 31:0.0625 32:0 33:0 34:0 35:0 36:0 37:0 38:0 39:0 40:0 41:0 42:0 43:0 44:0 45:0 46:0 47:0 48:0 49:0 50:0 51:0 52:0 53:0.0065573771 54:0.36065573 55:0 56:0.43278688 57:0.51288182 58:0.48711818 59:0.5 #
7.0422535211267607696268393258077e-06 1:0 2:0.029411765 3:0 4:0 5:0.029411765 6:0.029411765 7:0.05882353 8:0.05882353 9:0 10:0 11:0 12:0 13:0 14:0 15:0 16:0 17:0 18:0.088235296 19:0 20:0 21:0 22:0.029411765 23:0.029411765 24:0 25:0 26:0 27:0.029411765 28:0.05882353 29:0.029411765 30:0 31:0.029411765 32:0 33:0.05882353 34:0.05882353 35:0 36:0 37:0.05882353 38:0 39:0 40:0 41:0 42:0.05882353 43:0.05882353 44:0 45:0.029411765 46:0 47:0.029411765 48:0.029411765 49:0.05882353 50:0.05882353 51:0 52:0 53:0.0012861736 54:0.48617363 55:0.034726687 56:0.27781349 57:0.54956383 58:0.45043617 59:0.5 #
-2.1126760563380281461847570723123e-05 1:0 2:0 3:0 4:0 5:0 6:0 7:0.125 8:0.125 9:0 10:0 11:0 12:0 13:0 14:0 15:0 16:0 17:0 18:0.125 19:0 20:0 21:0.125 22:0 23:0.125 24:0 25:0 26:0 27:0 28:0.125 29:0.125 30:0 31:0 32:0 33:0 34:0 35:0 36:0.125 37:0 38:0 39:0 40:0 41:0 42:0 43:0 44:0 45:0 46:0 47:0 48:0 49:0 50:0 51:0 52:0 53:0.024242423 54:0.77575755 55:0 56:0 57:0.54690236 58:0.45309764 59:0.5 #
7.0422535211267607696268393258077e-06 1:0 2:0 3:0 4:0 5:0 6:0 7:0.11111111 8:0.11111111 9:0 10:0 11:0 12:0 13:0 14:0 15:0 16:0 17:0 18:0.11111111 19:0 20:0 21:0.055555556 22:0 23:0.055555556 24:0 25:0 26:0 27:0 28:0.055555556 29:0.055555556 30:0 31:0 32:0 33:0 34:0 35:0 36:0 37:0.11111111 38:0.055555556 39:0 40:0 41:0 42:0.055555556 43:0.055555556 44:0 45:0.055555556 46:0 47:0 48:0 49:0.055555556 50:0.055555556 51:0 52:0 53:0.0052980133 54:0.71523178 55:0.079470202 56:0 57:0.54251128 58:0.45748869 59:0.5 #
7.0422535211267607696268393258077e-06 1:0 2:0 3:0 4:0 5:0 6:0 7:0 8:0 9:0 10:0 11:0 12:0 13:0 14:0 15:0.25 16:0 17:0 18:0 19:0 20:0 21:0 22:0 23:0 24:0 25:0 26:0 27:0 28:0 29:0 30:0 31:0 32:0 33:0 34:0 35:0 36:0 37:0.25 38:0 39:0 40:0.25 41:0 42:0 43:0 44:0.25 45:0 46:0 47:0 48:0 49:0 50:0 51:0 52:0.19047619 53:0.03809524 54:0.5714286 55:0 56:0 57:0.5752089 58:0.4247911 59:0.5 #
7.0422535211267607696268393258077e-06 1:0 2:0.029411765 3:0 4:0 5:0.029411765 6:0.029411765 7:0.05882353 8:0.05882353 9:0 10:0 11:0 12:0 13:0 14:0 15:0 16:0 17:0 18:0.088235296 19:0 20:0 21:0 22:0.029411765 23:0.029411765 24:0 25:0 26:0 27:0.029411765 28:0.05882353 29:0.029411765 30:0 31:0.029411765 32:0 33:0.05882353 34:0.05882353 35:0 36:0 37:0.05882353 38:0 39:0 40:0 41:0 42:0.05882353 43:0.05882353 44:0 45:0.029411765 46:0 47:0.029411765 48:0.029411765 49:0.05882353 50:0.05882353 51:0 52:0 53:0.0012861736 54:0.48617363 55:0.034726687 56:0.27781349 57:0.54956383 58:0.45043617 59:0.5 #
-2.1126760563380281461847570723123e-05 1:0 2:0 3:0 4:0 5:0 6:0 7:0.125 8:0.125 9:0 10:0 11:0 12:0 13:0 14:0 15:0 16:0 17:0 18:0.125 19:0 20:0 21:0.125 22:0 23:0.125 24:0 25:0 26:0 27:0 28:0.125 29:0.125 30:0 31:0 32:0 33:0 34:0 35:0 36:0.125 37:0 38:0 39:0 40:0 41:0 42:0 43:0 44:0 45:0 46:0 47:0 48:0 49:0 50:0 51:0 52:0 53:0.024242423 54:0.77575755 55:0 56:0 57:0.54690236 58:0.45309764 59:0.5 #
7.0422535211267607696268393258077e-06 1:0 2:0 3:0 4:0 5:0 6:0 7:0.11111111 8:0.11111111 9:0 10:0 11:0 12:0 13:0 14:0 15:0 16:0 17:0 18:0.11111111 19:0 20:0 21:0.055555556 22:0 23:0.055555556 24:0 25:0 26:0 27:0 28:0.055555556 29:0.055555556 30:0 31:0 32:0 33:0 34:0 35:0 36:0 37:0.11111111 38:0.055555556 39:0 40:0 41:0 42:0.055555556 43:0.055555556 44:0 45:0.055555556 46:0 47:0 48:0 49:0.055555556 50:0.055555556 51:0 52:0 53:0.0052980133 54:0.71523178 55:0.079470202 56:0 57:0.54251128 58:0.45748869 59:0.5 #
7.0422535211267607696268393258077e-06 1:0 2:0 3:0 4:0 5:0 6:0 7:0 8:0 9:0 10:0 11:0 12:0 13:0 14:0 15:0.25 16:0 17:0 18:0 19:0 20:0 21:0 22:0 23:0 24:0 25:0 26:0 27:0 28:0 29:0 30:0 31:0 32:0 33:0 34:0 35:0 36:0 37:0.25 38:0 39:0 40:0.25 41:0 42:0 43:0 44:0.25 45:0 46:0 47:0 48:0 49:0 50:0 51:0 52:0.19047619 53:0.03809524 54:0.5714286 55:0 56:0 57:0.5752089 58:0.4247911 59:0.5 #
1.4084507042253521539253678651615e-05 1:0 2:0 3:0 4:0 5:0 6:0 7:0 8:0 9:0.1 10:0 11:0 12:0 13:0.1 14:0 15:0 16:0 17:0 18:0.1 19:0 20:0.1 21:0 22:0 23:0.1 24:0.1 25:0 26:0 27:0 28:0 29:0 30:0 31:0 32:0 33:0.1 34:0 35:0 36:0 37:0.1 38:0 39:0 40:0 41:0.1 42:0 43:0 44:0 45:0 46:0 47:0 48:0.1 49:0 50:0 51:0 52:0 53:0.0056737587 54:0.55602837 55:0 56:0.23829788 57:0.47677988 58:0.52322012 59:0.5 #
1.4084507042253521539253678651615e-05 1:0 2:0 3:0 4:0 5:0 6:0 7:0 8:0 9:0 10:0 11:0 12:0 13:0.16666667 14:0 15:0 16:0 17:0 18:0.16666667 19:0 20:0.16666667 21:0 22:0 23:0 24:0.16666667 25:0 26:0 27:0 28:0 29:0 30:0 31:0 32:0 33:0 34:0 35:0 36:0 37:0.16666667 38:0 39:0 40:0 41:0.16666667 42:0 43:0 44:0 45:0 46:0 47:0 48:0 49:0 50:0 51:0 52:0 53:0.016000001 54:0.44800001 55:0 56:0.336 57:0.49881315 58:0.50118685 59:0.5 #
-4.2253521126760562923695141446245e-05 1:0 2:0.090909094 3:0 4:0 5:0.090909094 6:0.090909094 7:0 8:0 9:0 10:0 11:0 12:0 13:0 14:0 15:0.090909094 16:0 17:0 18:0.090909094 19:0 20:0.090909094 21:0 22:0 23:0 24:0.090909094 25:0 26:0 27:0 28:0 29:0 30:0 31:0 32:0 33:0.090909094 34:0 35:0 36:0 37:0 38:0 39:0 40:0 41:0.090909094 42:0 43:0 44:0 45:0.090909094 46:0 47:0.090909094 48:0 49:0 50:0 51:0 52:0 53:0.019512195 54:0.78048778 55:0 56:0 57:0.52433425 58:0.47566578 59:0.5 #
1.4084507042253521539253678651615e-05 1:0 2:0.07692308 3:0 4:0.07692308 5:0 6:0 7:0 8:0 9:0.07692308 10:0 11:0 12:0 13:0 14:0 15:0 16:0 17:0 18:0.07692308 19:0 20:0 21:0 22:0.07692308 23:0.07692308 24:0.07692308 25:0 26:0 27:0 28:0.07692308 29:0 30:0.07692308 31:0 32:0 33:0.15384616 34:0 35:0 36:0 37:0 38:0 39:0 40:0 41:0.07692308 42:0 43:0 44:0 45:0 46:0 47:0 48:0.07692308 49:0 50:0 51:0 52:0 53:0.01632653 54:0.78367347 55:0 56:0 57:0.45784611 58:0.54215389 59:0.5 #
1.4084507042253521539253678651615e-05 1:0 2:0.125 3:0 4:0.0625 5:0.0625 6:0 7:0 8:0 9:0 10:0 11:0 12:0 13:0 14:0.0625 15:0.0625 16:0 17:0 18:0.0625 19:0 20:0.0625 21:0 22:0 23:0.0625 24:0.0625 25:0 26:0 27:0 28:0.0625 29:0.0625 30:0 31:0 32:0 33:0.0625 34:0 35:0 36:0 37:0 38:0 39:0 40:0 41:0.0625 42:0 43:0 44:0 45:0.0625 46:0 47:0.0625 48:0 49:0 50:0 51:0 52:0 53:0.010126582 54:0.78987342 55:0 56:0 57:0.5474453 58:0.45255467 59:0.5 #
-4.2253521126760562923695141446245e-05 1:0 2:0 3:0 4:0 5:0 6:0 7:0 8:0 9:0.11111111 10:0.11111111 11:0 12:0 13:0 14:0 15:0 16:0 17:0 18:0 19:0 20:0 21:0 22:0 23:0.11111111 24:0.11111111 25:0 26:0 27:0 28:0.11111111 29:0 30:0.11111111 31:0 32:0 33:0 34:0 35:0 36:0 37:0 38:0 39:0 40:0 41:0 42:0 43:0 44:0 45:0 46:0 47:0 48:0.11111111 49:0.22222222 50:0 51:0 52:0 53:0.019512195 54:0.78048778 55:0 56:0 57:0.45585659 58:0.54414344 59:0.5 #
1.4084507042253521539253678651615e-05 1:0 2:0.15384616 3:0 4:0.07692308 5:0.07692308 6:0 7:0 8:0 9:0 10:0 11:0 12:0 13:0 14:0.07692308 15:0 16:0 17:0 18:0.07692308 19:0 20:0.07692308 21:0 22:0 23:0.07692308 24:0.07692308 25:0 26:0 27:0 28:0.07692308 29:0.07692308 30:0 31:0 32:0 33:0.07692308 34:0 35:0 36:0 37:0 38:0 39:0 40:0 41:0.07692308 42:0 43:0 44:0 45:0 46:0 47:0 48:0 49:0 50:0 51:0 52:0 53:0.013114754 54:0.78688526 55:0 56:0 57:0.50669211 58:0.49330789 59:0.5 #
1.4084507042253521539253678651615e-05 1:0 2:0.07692308 3:0 4:0 5:0.07692308 6:0 7:0.07692308 8:0.07692308 9:0 10:0 11:0 12:0 13:0 14:0.07692308 15:0 16:0 17:0 18:0.15384616 19:0.07692308 20:0.07692308 21:0 22:0 23:0.07692308 24:0.07692308 25:0 26:0 27:0 28:0 29:0 30:0 31:0 32:0 33:0.07692308 34:0 35:0 36:0 37:0 38:0 39:0 40:0 41:0.07692308 42:0 43:0 44:0 45:0 46:0 47:0 48:0 49:0 50:0 51:0 52:0 53:0.0026578072 54:0.31893688 55:0 56:0.47840533 57:0.47223234 58:0.52776766 59:0.5 #
1.4084507042253521539253678651615e-05 1:0 2:0 3:0 4:0 5:0 6:0 7:0 8:0 9:0.1 10:0 11:0 12:0 13:0.1 14:0 15:0 16:0 17:0 18:0.1 19:0 20:0.1 21:0 22:0 23:0.1 24:0.1 25:0 26:0 27:0 28:0 29:0 30:0 31:0 32:0 33:0.1 34:0 35:0 36:0 37:0.1 38:0 39:0 40:0 41:0.1 42:0 43:0 44:0 45:0 46:0 47:0 48:0.1 49:0 50:0 51:0 52:0 53:0.0056737587 54:0.55602837 55:0 56:0.23829788 57:0.47677988 58:0.52322012 59:0.5 #
1.4084507042253521539253678651615e-05 1:0 2:0 3:0 4:0 5:0 6:0 7:0 8:0 9:0 10:0 11:0 12:0 13:0.16666667 14:0 15:0 16:0 17:0 18:0.16666667 19:0 20:0.16666667 21:0 22:0 23:0 24:0.16666667 25:0 26:0 27:0 28:0 29:0 30:0 31:0 32:0 33:0 34:0 35:0 36:0 37:0.16666667 38:0 39:0 40:0 41:0.16666667 42:0 43:0 44:0 45:0 46:0 47:0 48:0 49:0 50:0 51:0 52:0 53:0.016000001 54:0.44800001 55:0 56:0.336 57:0.49881315 58:0.50118685 59:0.5 #
-4.2253521126760562923695141446245e-05 1:0 2:0.090909094 3:0 4:0 5:0.090909094 6:0.090909094 7:0 8:0 9:0 10:0 11:0 12:0 13:0 14:0 15:0.090909094 16:0 17:0 18:0.090909094 19:0 20:0.090909094 21:0 22:0 23:0 24:0.090909094 25:0 26:0 27:0 28:0 29:0 30:0 31:0 32:0 33:0.090909094 34:0 35:0 36:0 37:0 38:0 39:0 40:0 41:0.090909094 42:0 43:0 44:0 45:0.090909094 46:0 47:0.090909094 48:0 49:0 50:0 51:0 52:0 53:0.019512195 54:0.78048778 55:0 56:0 57:0.52433425 58:0.47566578 59:0.5 #
1.4084507042253521539253678651615e-05 1:0 2:0.07692308 3:0 4:0.07692308 5:0 6:0 7:0 8:0 9:0.07692308 10:0 11:0 12:0 13:0 14:0 15:0 16:0 17:0 18:0.07692308 19:0 20:0 21:0 22:0.07692308 23:0.07692308 24:0.07692308 25:0 26:0 27:0 28:0.07692308 29:0 30:0.07692308 31:0 32:0 33:0.15384616 34:0 35:0 36:0 37:0 38:0 39:0 40:0 41:0.07692308 42:0 43:0 44:0 45:0 46:0 47:0 48:0.07692308 49:0 50:0 51:0 52:0 53:0.01632653 54:0.78367347 55:0 56:0 57:0.45784611 58:0.54215389 59:0.5 #
1.4084507042253521539253678651615e-05 1:0 2:0.125 3:0 4:0.0625 5:0.0625 6:0 7:0 8:0 9:0 10:0 11:0 12:0 13:0 14:0.0625 15:0.0625 16:0 17:0 18:0.0625 19:0 20:0.0625 21:0 22:0 23:0.0625 24:0.0625 25:0 26:0 27:0 28:0.0625 29:0.0625 30:0 31:0 32:0 33:0.0625 34:0 35:0 36:0 37:0 38:0 39:0 40:0 41:0.0625 42:0 43:0 44:0 45:0.0625 46:0 47:0.0625 48:0 49:0 50:0 51:0 52:0 53:0.010126582 54:0.78987342 55:0 56:0 57:0.5474453 58:0.45255467 59:0.5 #
-4.2253521126760562923695141446245e-05 1:0 2:0 3:0 4:0 5:0 6:0 7:0 8:0 9:0.11111111 10:0.11111111 11:0 12:0 13:0 14:0 15:0 16:0 17:0 18:0 19:0 20:0 21:0 22:0 23:0.11111111 24:0.11111111 25:0 26:0 27:0 28:0.11111111 29:0 30:0.11111111 31:0 32:0 33:0 34:0 35:0 36:0 37:0 38:0 39:0 40:0 41:0 42:0 43:0 44:0 45:0 46:0 47:0 48:0.11111111 49:0.22222222 50:0 51:0 52:0 53:0.019512195 54:0.78048778 55:0 56:0 57:0.45585659 58:0.54414344 59:0.5 #
1.4084507042253521539253678651615e-05 1:0 2:0.15384616 3:0 4:0.07692308 5:0.07692308 6:0 7:0 8:0 9:0 10:0 11:0 12:0 13:0 14:0.07692308 15:0 16:0 17:0 18:0.07692308 19:0 20:0.07692308 21:0 22:0 23:0.07692308 24:0.07692308 25:0 26:0 27:0 28:0.07692308 29:0.07692308 30:0 31:0 32:0 33:0.07692308 34:0 35:0 36:0 37:0 38:0 39:0 40:0 41:0.07692308 42:0 43:0 44:0 45:0 46:0 47:0 48:0 49:0 50:0 51:0 52:0 53:0.013114754 54:0.78688526 55:0 56:0 57:0.50669211 58:0.49330789 59:0.5 #
1.4084507042253521539253678651615e-05 1:0 2:0.07692308 3:0 4:0 5:0.07692308 6:0 7:0.07692308 8:0.07692308 9:0 10:0 11:0 12:0 13:0 14:0.07692308 15:0 16:0 17:0 18:0.15384616 19:0.07692308 20:0.07692308 21:0 22:0 23:0.07692308 24:0.07692308 25:0 26:0 27:0 28:0 29:0 30:0 31:0 32:0 33:0.07692308 34:0 35:0 36:0 37:0 38:0 39:0 40:0 41:0.07692308 42:0 43:0 44:0 45:0 46:0 47:0 48:0 49:0 50:0 51:0 52:0 53:0.0026578072 54:0.31893688 55:0 56:0.47840533 57:0.47223234 58:0.52776766 59:0.5 #
2.1126760563380281461847570723123e-05 1:0 2:0 3:0 4:0 5:0 6:0 7:0 8:0 9:0 10:0 11:0 12:0 13:0 14:0 15:0 16:0 17:0 18:0 19:0 20:0 21:0 22:0 23:0.14285715 24:0 25:0 26:0 27:0 28:0 29:0 30:0 31:0 32:0 33:0 34:0 35:0 36:0 37:0.14285715 38:0.14285715 39:0 40:0 41:0 42:0.14285715 43:0 44:0 45:0 46:0 47:0 48:0 49:0.2857143 50:0.14285715 51:0 52:0 53:0.014035088 54:0.67368424 55:0.1122807 56:0 57:0.44067845 58:0.55932152 59:0.5 #
-2.1126760563380281461847570723123e-05 1:0 2:0.11111111 3:0 4:0 5:0.11111111 6:0 7:0 8:0 9:0 10:0 11:0 12:0 13:0 14:0 15:0 16:0.11111111 17:0.11111111 18:0 19:0 20:0 21:0 22:0 23:0 24:0 25:0 26:0 27:0 28:0 29:0 30:0 31:0 32:0 33:0.11111111 34:0.11111111 35:0 36:0 37:0 38:0 39:0 40:0.11111111 41:0 42:0 43:0 44:0 45:0 46:0 47:0 48:0 49:0.22222222 50:0 51:0 52:0 53:0.019512195 54:0.62439024 55:0.15609756 56:0 57:0.45084721 58:0.54915279 59:0.5 #
2.1126760563380281461847570723123e-05 1:0 2:0.052631579 3:0.052631579 4:0 5:0 6:0 7:0 8:0 9:0.10526316 10:0.052631579 11:0 12:0 13:0.052631579 14:0 15:0 16:0.052631579 17:0.052631579 18:0 19:0 20:0 21:0 22:0 23:0.052631579 24:0.052631579 25:0 26:0.052631579 27:0 28:0 29:0 30:0 31:0 32:0 33:0.052631579 34:0.052631579 35:0 36:0 37:0.052631579 38:0 39:0 40:0 41:0 42:0.052631579 43:0 44:0 45:0.052631579 46:0.052631579 47:0 48:0 49:0.052631579 50:0.052631579 51:0 52:0 53:0.0051612905 54:0.65032256 55:0.072258063 56:0.072258063 57:0.53230059 58:0.46769938 59:0.5 #
-2.1126760563380281461847570723123e-05 1:0 2:0 3:0 4:0 5:0 6:0 7:0 8:0 9:0.125 10:0 11:0 12:0 13:0 14:0 15:0 16:0 17:0 18:0 19:0 20:0 21:0 22:0 23:0.125 24:0 25:0 26:0 27:0 28:0 29:0 30:0 31:0 32:0 33:0 34:0 35:0 36:0 37:0.125 38:0.125 39:0 40:0 41:0 42:0.125 43:0 44:0 45:0 46:0 47:0 48:0 49:0.25 50:0.125 51:0 52:0 53:0.0060150377 54:0.52932328 55:0.06616541 56:0.19849624 57:0.38772064 58:0.61227936 59:0.5 #
2.1126760563380281461847570723123e-05 1:0 2:0.06666667 3:0.06666667 4:0 5:0 6:0 7:0.06666667 8:0 9:0.06666667 10:0 11:0 12:0 13:0.06666667 14:0 15:0 16:0.06666667 17:0.06666667 18:0 19:0 20:0 21:0 22:0 23:0 24:0.06666667 25:0 26:0.06666667 27:0 28:0 29:0 30:0 31:0 32:0 33:0.06666667 34:0.06666667 35:0 36:0 37:0 38:0 39:0 40:0 41:0 42:0.06666667 43:0 44:0 45:0 46:0 47:0 48:0 49:0.13333334 50:0.06666667 51:0 52:0 53:0.0027118644 54:0.30372882 55:0.037966102 56:0.45559323 57:0.41957441 58:0.58042556 59:0.5 #
-2.1126760563380281461847570723123e-05 1:0 2:0.071428575 3:0.071428575 4:0 5:0 6:0 7:0 8:0 9:0.071428575 10:0.071428575 11:0 12:0 13:0 14:0 15:0 16:0.071428575 17:0.071428575 18:0 19:0 20:0 21:0 22:0 23:0.071428575 24:0.071428575 25:0 26:0.071428575 27:0 28:0 29:0 30:0 31:0 32:0 33:0 34:0 35:0 36:0 37:0.071428575 38:0.071428575 39:0 40:0 41:0 42:0 43:0 44:0 45:0.071428575 46:0.071428575 47:0 48:0 49:0.071428575 50:0 51:0 52:0 53:0.021621622 54:0.77837837 55:0 56:0 57:0.53935164 58:0.46064839 59:0.5 #
2.1126760563380281461847570723123e-05 1:0 2:0 3:0 4:0 5:0 6:0 7:0 8:0 9:0 10:0 11:0 12:0 13:0 14:0 15:0 16:0 17:0 18:0 19:0 20:0 21:0 22:0 23:0.14285715 24:0 25:0 26:0 27:0 28:0 29:0 30:0 31:0 32:0 33:0 34:0 35:0 36:0 37:0.14285715 38:0.14285715 39:0 40:0 41:0 42:0.14285715 43:0 44:0 45:0 46:0 47:0 48:0 49:0.2857143 50:0.14285715 51:0 52:0 53:0.014035088 54:0.67368424 55:0.1122807 56:0 57:0.44067845 58:0.55932152 59:0.5 #
-2.1126760563380281461847570723123e-05 1:0 2:0.11111111 3:0 4:0 5:0.11111111 6:0 7:0 8:0 9:0 10:0 11:0 12:0 13:0 14:0 15:0 16:0.11111111 17:0.11111111 18:0 19:0 20:0 21:0 22:0 23:0 24:0 25:0 26:0 27:0 28:0 29:0 30:0 31:0 32:0 33:0.11111111 34:0.11111111 35:0 36:0 37:0 38:0 39:0 40:0.11111111 41:0 42:0 43:0 44:0 45:0 46:0 47:0 48:0 49:0.22222222 50:0 51:0 52:0 53:0.019512195 54:0.62439024 55:0.15609756 56:0 57:0.45084721 58:0.54915279 59:0.5 #
2.1126760563380281461847570723123e-05 1:0 2:0.052631579 3:0.052631579 4:0 5:0 6:0 7:0 8:0 9:0.10526316 10:0.052631579 11:0 12:0 13:0.052631579 14:0 15:0 16:0.052631579 17:0.052631579 18:0 19:0 20:0 21:0 22:0 23:0.052631579 24:0.052631579 25:0 26:0.052631579 27:0 28:0 29:0 30:0 31:0 32:0 33:0.052631579 34:0.052631579 35:0 36:0 37:0.052631579 38:0 39:0 40:0 41:0 42:0.052631579 43:0 44:0 45:0.052631579 46:0.052631579 47:0 48:0 49:0.052631579 50:0.052631579 51:0 52:0 53:0.0051612905 54:0.65032256 55:0.072258063 56:0.072258063 57:0.53230059 58:0.46769938 59:0.5 #
-2.1126760563380281461847570723123e-05 1:0 2:0 3:0 4:0 5:0 6:0 7:0 8:0 9:0.125 10:0 11:0 12:0 13:0 14:0 15:0 16:0 17:0 18:0 19:0 20:0 21:0 22:0 23:0.125 24:0 25:0 26:0 27:0 28:0 29:0 30:0 31:0 32:0 33:0 34:0 35:0 36:0 37:0.125 38:0.125 39:0 40:0 41:0 42:0.125 43:0 44:0 45:0 46:0 47:0 48:0 49:0.25 50:0.125 51:0 52:0 53:0.0060150377 54:0.52932328 55:0.06616541 56:0.19849624 57:0.38772064 58:0.61227936 59:0.5 #
2.1126760563380281461847570723123e-05 1:0 2:0.06666667 3:0.06666667 4:0 5:0 6:0 7:0.06666667 8:0 9:0.06666667 10:0 11:0 12:0 13:0.06666667 14:0 15:0 16:0.06666667 17:0.06666667 18:0 19:0 20:0 21:0 22:0 23:0 24:0.06666667 25:0 26:0.06666667 27:0 28:0 29:0 30:0 31:0 32:0 33:0.06666667 34:0.06666667 35:0 36:0 37:0 38:0 39:0 40:0 41:0 42:0.06666667 43:0 44:0 45:0 46:0 47:0 48:0 49:0.13333334 50:0.06666667 51:0 52:0 53:0.0027118644 54:0.30372882 55:0.037966102 56:0.45559323 57:0.41957441 58:0.58042556 59:0.5 #
-2.1126760563380281461847570723123e-05 1:0 2:0.071428575 3:0.071428575 4:0 5:0 6:0 7:0 8:0 9:0.071428575 10:0.071428575 11:0 12:0 13:0 14:0 15:0 16:0.071428575 17:0.071428575 18:0 19:0 20:0 21:0 22:0 23:0.071428575 24:0.071428575 25:0 26:0.071428575 27:0 28:0 29:0 30:0 31:0 32:0 33:0 34:0 35:0 36:0 37:0.071428575 38:0.071428575 39:0 40:0 41:0 42:0 43:0 44:0 45:0.071428575 46:0.071428575 47:0 48:0 49:0.071428575 50:0 51:0 52:0 53:0.021621622 54:0.77837837 55:0 56:0 57:0.53935164 58:0.46064839 59:0.5 #
7.0422535211267607696268393258077e-06 1:0 2:0 3:0 4:0 5:0 6:0 7:0 8:0 9:0 10:0 11:0 12:0 13:0 14:0 15:0 16:0 17:0 18:0.16666667 19:0.16666667 20:0 21:0 22:0 23:0.16666667 24:0 25:0 26:0 27:0 28:0 29:0 30:0 31:0 32:0 33:0 34:0 35:0 36:0 37:0.16666667 38:0 39:0 40:0 41:0 42:0 43:0 44:0 45:0.16666667 46:0 47:0.16666667 48:0 49:0 50:0 51:0 52:0 53:0.07272727 54:0.72727275 55:0 56:0 57:0.50649482 58:0.49350515 59:0.5 #
7.0422535211267607696268393258077e-06 1:0 2:0 3:0 4:0 5:0 6:0 7:0 8:0 9:0 10:0 11:0 12:0 13:0 14:0 15:0 16:0 17:0 18:0 19:0 20:0 21:0 22:0 23:0.2 24:0 25:0 26:0 27:0 28:0 29:0 30:0 31:0 32:0 33:0 34:0 35:0 36:0 37:0.2 38:0.2 39:0 40:0 41:0 42:0 43:0 44:0 45:0 46:0 47:0 48:0.2 49:0.2 50:0 51:0 52:0 53:0.050000001 54:0.75 55:0 56:0 57:0.50703269 58:0.49296731 59:0.5 #
-2.1126760563380281461847570723123e-05 1:0 2:0 3:0 4:0 5:0 6:0 7:0 8:0 9:0 10:0 11:0 12:0 13:0 14:0 15:0 16:0 17:0 18:0.07692308 19:0.07692308 20:0 21:0 22:0 23:0.07692308 24:0 25:0 26:0 27:0 28:0 29:0 30:0 31:0 32:0 33:0.15384616 34:0.07692308 35:0 36:0.07692308 37:0.07692308 38:0 39:0.07692308 40:0 41:0 42:0 43:0 44:0 45:0.07692308 46:0 47:0.07692308 48:0.07692308 49:0.07692308 50:0 51:0 52:0 53:0.0080808084 54:0.79191917 55:0 56:0 57:0.4916015 58:0.50839853 59:0.5 #
7.0422535211267607696268393258077e-06 1:0 2:0 3:0 4:0 5:0 6:0 7:0 8:0 9:0 10:0 11:0 12:0 13:0 14:0 15:0 16:0 17:0 18:0 19:0 20:0 21:0 22:0 23:0.2 24:0 25:0 26:0 27:0 28:0.2 29:0.2 30:0 31:0 32:0 33:0 34:0 35:0 36:0.2 37:0.2 38:0 39:0 40:0 41:0 42:0 43:0 44:0 45:0 46:0 47:0 48:0 49:0 50:0 51:0 52:0 53:0.042105265 54:0.75789475 55:0 56:0 57:0.49583641 58:0.50416356 59:0.5 #
7.0422535211267607696268393258077e-06 1:0 2:0 3:0 4:0 5:0 6:0 7:0 8:0 9:0 10:0 11:0 12:0 13:0 14:0 15:0 16:0 17:0 18:0.16666667 19:0.16666667 20:0 21:0 22:0 23:0.16666667 24:0 25:0 26:0 27:0 28:0 29:0 30:0 31:0 32:0 33:0 34:0 35:0 36:0 37:0.16666667 38:0 39:0 40:0 41:0 42:0 43:0 44:0 45:0.16666667 46:0 47:0.16666667 48:0 49:0 50:0 51:0 52:0 53:0.07272727 54:0.72727275 55:0 56:0 57:0.50649482 58:0.49350515 59:0.5 #
7.0422535211267607696268393258077e-06 1:0 2:0 3:0 4:0 5:0 6:0 7:0 8:0 9:0 10:0 11:0 12:0 13:0 14:0 15:0 16:0 17:0 18:0 19:0 20:0 21:0 22:0 23:0.2 24:0 25:0 26:0 27:0 28:0 29:0 30:0 31:0 32:0 33:0 34:0 35:0 36:0 37:0.2 38:0.2 39:0 40:0 41:0 42:0 43:0 44:0 45:0 46:0 47:0 48:0.2 49:0.2 50:0 51:0 52:0 53:0.050000001 54:0.75 55:0 56:0 57:0.50703269 58:0.49296731 59:0.5 #
-2.1126760563380281461847570723123e-05 1:0 2:0 3:0 4:0 5:0 6:0 7:0 8:0 9:0 10:0 11:0 12:0 13:0 14:0 15:0 16:0 17:0 18:0.07692308 19:0.07692308 20:0 21:0 22:0 23:0.07692308 24:0 25:0 26:0 27:0 28:0 29:0 30:0 31:0 32:0 33:0.15384616 34:0.07692308 35:0 36:0.07692308 37:0.07692308 38:0 39:0.07692308 40:0 41:0 42:0 43:0 44:0 45:0.07692308 46:0 47:0.07692308 48:0.07692308 49:0.07692308 50:0 51:0 52:0 53:0.0080808084 54:0.79191917 55:0 56:0 57:0.4916015 58:0.50839853 59:0.5 #
7.0422535211267607696268393258077e-06 1:0 2:0 3:0 4:0 5:0 6:0 7:0 8:0 9:0 10:0 11:0 12:0 13:0 14:0 15:0 16:0 17:0 18:0 19:0 20:0 21:0 22:0 23:0.2 24:0 25:0 26:0 27:0 28:0.2 29:0.2 30:0 31:0 32:0 33:0 34:0 35:0 36:0.2 37:0.2 38:0 39:0 40:0 41:0 42:0 43:0 44:0 45:0 46:0 47:0 48:0 49:0 50:0 51:0 52:0 53:0.042105265 54:0.75789475 55:0 56:0 57:0.49583641 58:0.50416356 59:0.5 #
1.4084507042253521539253678651615e-05 1:0 2:0 3:0 4:0 5:0 6:0 7:0 8:0 9:0 10:0 11:0 12:0 13:0.14285715 14:0 15:0.14285715 16:0 17:0 18:0 19:0 20:0 21:0 22:0 23:0 24:0.14285715 25:0 26:0 27:0.14285715 28:0 29:0 30:0 31:0 32:0 33:0 34:0 35:0 36:0 37:0.14285715 38:0 39:0 40:0.14285715 41:0 42:0 43:0 44:0.14285715 45:0 46:0 47:0 48:0 49:0 50:0 51:0 52:0 53:0.0087912092 54:0.43956044 55:0 56:0.35164836 57:0.47190419 58:0.52809584 59:0.5 #
-7.0422535211267607696268393258077e-06 1:0 2:0 3:0 4:0 5:0 6:0 7:0 8:0 9:0 10:0 11:0 12:0 13:0.2 14:0 15:0 16:0 17:0 18:0 19:0 20:0 21:0 22:0 23:0 24:0.2 25:0 26:0 27:0.2 28:0 29:0 30:0 31:0 32:0 33:0 34:0 35:0 36:0 37:0.2 38:0 39:0 40:0 41:0 42:0 43:0 44:0 45:0.2 46:0 47:0 48:0 49:0 50:0 51:0 52:0 53:0.0072072074 54:0.47567567 55:0 56:0.31711712 57:0.59599024 58:0.40400976 59:0.5 #
-7.0422535211267607696268393258077e-06 1:0 2:0 3:0 4:0 5:0 6:0 7:0 8:0 9:0 10:0 11:0 12:0 13:0 14:0 15:0 16:0 17:0 18:0 19:0 20:0 21:0 22:0 23:0 24:0 25:0 26:0 27:0 28:0 29:0 30:0 31:0 32:0 33:0 34:0 35:0 36:0 37:0.5 38:0 39:0 40:0 41:0.5 42:0 43:0 44:0 45:0 46:0 47:0 48:0 49:0 50:0 51:0 52:0 53:0.042105265 54:0.75789475 55:0 56:0 57:0.49388587 58:0.50611413 59:0.5 #
1.4084507042253521539253678651615e-05 1:0 2:0 3:0 4:0 5:0 6:0 7:0 8:0 9:0 10:0 11:0 12:0 13:0.14285715 14:0 15:0.14285715 16:0 17:0 18:0 19:0 20:0 21:0 22:0 23:0 24:0.14285715 25:0 26:0 27:0.14285715 28:0 29:0 30:0 31:0 32:0 33:0 34:0 35:0 36:0 37:0.14285715 38:0 39:0 40:0.14285715 41:0 42:0 43:0 44:0.14285715 45:0 46:0 47:0 48:0 49:0 50:0 51:0 52:0 53:0.0087912092 54:0.43956044 55:0 56:0.35164836 57:0.47190419 58:0.52809584 59:0.5 #
-7.0422535211267607696268393258077e-06 1:0 2:0 3:0 4:0 5:0 6:0 7:0 8:0 9:0 10:0 11:0 12:0 13:0.2 14:0 15:0 16:0 17:0 18:0 19:0 20:0 21:0 22:0 23:0 24:0.2 25:0 26:0 27:0.2 28:0 29:0 30:0 31:0 32:0 33:0 34:0 35:0 36:0 37:0.2 38:0 39:0 40:0 41:0 42:0 43:0 44:0 45:0.2 46:0 47:0 48:0 49:0 50:0 51:0 52:0 53:0.0072072074 54:0.47567567 55:0 56:0.31711712 57:0.59599024 58:0.40400976 59:0.5 #
-7.0422535211267607696268393258077e-06 1:0 2:0 3:0 4:0 5:0 6:0 7:0 8:0 9:0 10:0 11:0 12:0 13:0 14:0 15:0 16:0 17:0 18:0 19:0 20:0 21:0 22:0 23:0 24:0 25:0 26:0 27:0 28:0 29:0 30:0 31:0 32:0 33:0 34:0 35:0 36:0 37:0.5 38:0 39:0 40:0 41:0.5 42:0 43:0 44:0 45:0 46:0 47:0 48:0 49:0 50:0 51:0 52:0 53:0.042105265 54:0.75789475 55:0 56:0 57:0.49388587 58:0.50611413 59:0.5 #
-7.0422535211267607696268393258077e-06 1:0 2:0 3:0 4:0 5:0 6:0 7:0 8:0 9:0 10:0 11:0 12:0 13:0 14:0 15:0 16:0 17:0 18:0.2 19:0.2 20:0 21:0 22:0 23:0.2 24:0 25:0 26:0 27:0 28:0 29:0 30:0 31:0 32:0 33:0 34:0 35:0 36:0 37:0 38:0 39:0 40:0 41:0 42:0 43:0 44:0 45:0.2 46:0 47:0.2 48:0 49:0 50:0 51:0 52:0.15483871 53:0.025806451 54:0.61935484 55:0 56:0 57:0.46398386 58:0.53601611 59:0.5 #
-7.0422535211267607696268393258077e-06 1:0 2:0 3:0 4:0 5:0 6:0 7:0 8:0 9:0 10:0 11:0 12:0 13:0 14:0 15:0 16:0 17:0 18:0.25 19:0 20:0 21:0 22:0.25 23:0 24:0 25:0 26:0 27:0 28:0 29:0 30:0 31:0 32:0 33:0.25 34:0 35:0 36:0 37:0 38:0 39:0 40:0 41:0 42:0 43:0 44:0.25 45:0 46:0 47:0 48:0 49:0 50:0 51:0 52:0.097959183 53:0.01632653 54:0.39183673 55:0 56:0.29387754 57:0.48894867 58:0.51105136 59:0.5 #
-7.0422535211267607696268393258077e-06 1:0 2:0 3:0 4:0 5:0 6:0 7:0 8:0 9:0 10:0 11:0 12:0 13:0 14:0 15:0 16:0 17:0 18:0.33333334 19:0 20:0 21:0 22:0 23:0 24:0 25:0 26:0 27:0 28:0 29:0 30:0 31:0 32:0 33:0 34:0 35:0 36:0 37:0 38:0 39:0 40:0 41:0 42:0 43:0 44:0 45:0.33333334 46:0 47:0.33333334 48:0 49:0 50:0 51:0 52:0.087272726 53:0.014545455 54:0.3490909 55:0 56:0.3490909 57:0.56842667 58:0.43157333 59:0.5 #
-7.0422535211267607696268393258077e-06 1:0 2:0 3:0 4:0 5:0 6:0 7:0 8:0 9:0 10:0 11:0 12:0 13:0.33333334 14:0 15:0 16:0 17:0 18:0 19:0 20:0 21:0 22:0 23:0 24:0 25:0 26:0 27:0 28:0 29:0 30:0 31:0 32:0 33:0 34:0 35:0 36:0.33333334 37:0 38:0 39:0 40:0.33333334 41:0 42:0 43:0 44:0 45:0 46:0 47:0 48:0 49:0 50:0 51:0 52:0 53:0.01632653 54:0.78367347 55:0 56:0 57:0.51065916 58:0.48934084 59:0.5 #
2.8169014084507043078507357303231e-05 1:0 2:0 3:0 4:0 5:0 6:0 7:0 8:0 9:0 10:0 11:0 12:0 13:0 14:0 15:0 16:0 17:0 18:0 19:0 20:0 21:0 22:0 23:0 24:0 25:0 26:0 27:0 28:0 29:0 30:0 31:0 32:0 33:0 34:0 35:0 36:0 37:0.2 38:0.2 39:0 40:0.2 41:0 42:0 43:0 44:0 45:0 46:0 47:0 48:0 49:0.40000001 50:0 51:0 52:0 53:0.042105265 54:0.75789475 55:0 56:0 57:0.50329363 58:0.49670637 59:0.5 #
-7.0422535211267607696268393258077e-06 1:0 2:0 3:0 4:0 5:0 6:0 7:0 8:0 9:0 10:0 11:0 12:0 13:0 14:0 15:0 16:0 17:0 18:0.2 19:0.2 20:0 21:0 22:0 23:0.2 24:0 25:0 26:0 27:0 28:0 29:0 30:0 31:0 32:0 33:0 34:0 35:0 36:0 37:0 38:0 39:0 40:0 41:0 42:0 43:0 44:0 45:0.2 46:0 47:0.2 48:0 49:0 50:0 51:0 52:0.15483871 53:0.025806451 54:0.61935484 55:0 56:0 57:0.46398386 58:0.53601611 59:0.5 #
-7.0422535211267607696268393258077e-06 1:0 2:0 3:0 4:0 5:0 6:0 7:0 8:0 9:0 10:0 11:0 12:0 13:0 14:0 15:0 16:0 17:0 18:0.25 19:0 20:0 21:0 22:0.25 23:0 24:0 25:0 26:0 27:0 28:0 29:0 30:0 31:0 32:0 33:0.25 34:0 35:0 36:0 37:0 38:0 39:0 40:0 41:0 42:0 43:0 44:0.25 45:0 46:0 47:0 48:0 49:0 50:0 51:0 52:0.097959183 53:0.01632653 54:0.39183673 55:0 56:0.29387754 57:0.48894867 58:0.51105136 59:0.5 #
-7.0422535211267607696268393258077e-06 1:0 2:0 3:0 4:0 5:0 6:0 7:0 8:0 9:0 10:0 11:0 12:0 13:0 14:0 15:0 16:0 17:0 18:0.33333334 19:0 20:0 21:0 22:0 23:0 24:0 25:0 26:0 27:0 28:0 29:0 30:0 31:0 32:0 33:0 34:0 35:0 36:0 37:0 38:0 39:0 40:0 41:0 42:0 43:0 44:0 45:0.33333334 46:0 47:0.33333334 48:0 49:0 50:0 51:0 52:0.087272726 53:0.014545455 54:0.3490909 55:0 56:0.3490909 57:0.56842667 58:0.43157333 59:0.5 #
-7.0422535211267607696268393258077e-06 1:0 2:0 3:0 4:0 5:0 6:0 7:0 8:0 9:0 10:0 11:0 12:0 13:0.33333334 14:0 15:0 16:0 17:0 18:0 19:0 20:0 21:0 22:0 23:0 24:0 25:0 26:0 27:0 28:0 29:0 30:0 31:0 32:0 33:0 34:0 35:0 36:0.33333334 37:0 38:0 39:0 40:0.33333334 41:0 42:0 43:0 44:0 45:0 46:0 47:0 48:0 49:0 50:0 51:0 52:0 53:0.01632653 54:0.78367347 55:0 56:0 57:0.51065916 58:0.48934084 59:0.5 #
2.8169014084507043078507357303231e-05 1:0 2:0 3:0 4:0 5:0 6:0 7:0 8:0 9:0 10:0 11:0 12:0 13:0 14:0 15:0 16:0 17:0 18:0 19:0 20:0 21:0 22:0 23:0 24:0 25:0 26:0 27:0 28:0 29:0 30:0 31:0 32:0 33:0 34:0 35:0 36:0 37:0.2 38:0.2 39:0 40:0.2 41:0 42:0 43:0 44:0 45:0 46:0 47:0 48:0 49:0.40000001 50:0 51:0 52:0 53:0.042105265 54:0.75789475 55:0 56:0 57:0.50329363 58:0.49670637 59:0.5 #
-3.5211267605633804695167143883339e-05 1:0 2:0 3:0 4:0 5:0 6:0 7:0 8:0 9:0 10:0 11:0 12:0.07692308 13:0 14:0 15:0 16:0 17:0 18:0.07692308 19:0 20:0 21:0.07692308 22:0 23:0.07692308 24:0.07692308 25:0 26:0 27:0 28:0.15384616 29:0 30:0.07692308 31:0.07692308 32:0 33:0 34:0 35:0.07692308 36:0 37:0.07692308 38:0 39:0 40:0 41:0 42:0 43:0 44:0 45:0.07692308 46:0 47:0.07692308 48:0 49:0 50:0 51:0 52:0 53:0.025806451 54:0.77419353 55:0 56:0 57:0.49620777 58:0.50379223 59:0.5 #
-3.5211267605633804695167143883339e-05 1:0 2:0 3:0 4:0 5:0 6:0 7:0 8:0 9:0.083333336 10:0 11:0.083333336 12:0.083333336 13:0 14:0 15:0 16:0 17:0 18:0.083333336 19:0.083333336 20:0 21:0 22:0 23:0.083333336 24:0.083333336 25:0 26:0 27:0 28:0.083333336 29:0 30:0.083333336 31:0 32:0 33:0 34:0 35:0.083333336 36:0 37:0.083333336 38:0 39:0 40:0 41:0 42:0.083333336 43:0 44:0 45:0 46:0 47:0 48:0 49:0 50:0 51:0 52:0 53:0.0060150377 54:0.26466164 55:0 56:0.52932328 57:0.48511371 58:0.51488632 59:0.5 #
-3.5211267605633804695167143883339e-05 1:0 2:0.2 3:0 4:0 5:0.2 6:0 7:0 8:0 9:0 10:0 11:0 12:0 13:0 14:0 15:0 16:0 17:0 18:0 19:0 20:0 21:0 22:0 23:0 24:0 25:0 26:0 27:0 28:0 29:0 30:0 31:0 32:0 33:0.2 34:0 35:0 36:0 37:0.2 38:0 39:0 40:0 41:0 42:0.2 43:0 44:0 45:0 46:0 47:0 48:0 49:0 50:0 51:0 52:0 53:0.027586207 54:0.77241379 55:0 56:0 57:0.47547689 58:0.52452308 59:0.5 #
5.6338028169014086157014714606461e-05 1:0 2:0 3:0 4:0 5:0 6:0 7:0 8:0 9:0 10:0 11:0 12:0 13:0.06666667 14:0.06666667 15:0 16:0 17:0 18:0 19:0 20:0 21:0 22:0 23:0 24:0 25:0 26:0 27:0.06666667 28:0.06666667 29:0 30:0 31:0 32:0 33:0 34:0 35:0 36:0.06666667 37:0.26666668 38:0.06666667 39:0 40:0.06666667 41:0 42:0.06666667 43:0 44:0.06666667 45:0 46:0 47:0 48:0 49:0.06666667 50:0.06666667 51:0 52:0 53:0.0021333334 54:0.36266667 55:0 56:0.43520001 57:0.44233182 58:0.55766815 59:0.5 #
5.6338028169014086157014714606461e-05 1:0.071428575 2:0 3:0 4:0 5:0 6:0 7:0.071428575 8:0.071428575 9:0 10:0 11:0 12:0 13:0 14:0 15:0 16:0 17:0 18:0.071428575 19:0.071428575 20:0 21:0 22:0 23:0.071428575 24:0 25:0 26:0 27:0 28:0 29:0 30:0 31:0 32:0 33:0 34:0 35:0 36:0 37:0.14285715 38:0.071428575 39:0 40:0 41:0.071428575 42:0.071428575 43:0.071428575 44:0 45:0 46:0 47:0 48:0 49:0.071428575 50:0.071428575 51:0 52:0 53:0.0055555557 54:0.30555555 55:0 56:0.48888889 57:0.45555139 58:0.54444861 59:0.5 #
-3.5211267605633804695167143883339e-05 1:0 2:0.071428575 3:0 4:0.071428575 5:0 6:0 7:0 8:0 9:0.071428575 10:0 11:0.071428575 12:0.071428575 13:0 14:0 15:0 16:0 17:0 18:0 19:0 20:0 21:0 22:0 23:0.071428575 24:0.071428575 25:0 26:0 27:0 28:0.14285715 29:0 30:0.071428575 31:0 32:0.071428575 33:0.071428575 34:0 35:0.071428575 36:0 37:0 38:0 39:0 40:0 41:0 42:0.071428575 43:0 44:0 45:0 46:0 47:0 48:0 49:0 50:0 51:0 52:0 53:0.017777778 54:0.78222221 55:0 56:0 57:0.47210646 58:0.52789354 59:0.5 #
5.6338028169014086157014714606461e-05 1:0 2:0 3:0 4:0 5:0 6:0 7:0 8:0 9:0 10:0 11:0 12:0 13:0.1 14:0 15:0 16:0 17:0 18:0 19:0 20:0 21:0 22:0 23:0.1 24:0 25:0 26:0 27:0 28:0.1 29:0.1 30:0 31:0 32:0 33:0 34:0 35:0 36:0.1 37:0.1 38:0.1 39:0 40:0 41:0 42:0.1 43:0 44:0 45:0 46:0 47:0 48:0 49:0.1 50:0.1 51:0 52:0 53:0.024242423 54:0.77575755 55:0 56:0 57:0.48459435 58:0.51540565 59:0.5 #
-3.5211267605633804695167143883339e-05 1:0 2:0 3:0 4:0 5:0 6:0 7:0 8:0 9:0 10:0 11:0 12:0.052631579 13:0.052631579 14:0.052631579 15:0 16:0 17:0 18:0 19:0 20:0 21:0 22:0 23:0.052631579 24:0.052631579 25:0 26:0 27:0.052631579 28:0.052631579 29:0 30:0 31:0 32:0 33:0 34:0 35:0.052631579 36:0.052631579 37:0.15789473 38:0.052631579 39:0 40:0 41:0 42:0.052631579 43:0 44:0.052631579 45:0.052631579 46:0 47:0 48:0.052631579 49:0.052631579 50:0.052631579 51:0 52:0 53:0.0015841584 54:0.33267328 55:0 56:0.46574259 57:0.43706387 58:0.56293613 59:0.5 #
-3.5211267605633804695167143883339e-05 1:0 2:0 3:0 4:0 5:0 6:0 7:0 8:0 9:0.125 10:0.0625 11:0.0625 12:0 13:0 14:0 15:0 16:0 17:0 18:0 19:0 20:0 21:0 22:0 23:0.0625 24:0.0625 25:0 26:0.0625 27:0 28:0.1875 29:0 30:0.0625 31:0.0625 32:0.0625 33:0.0625 34:0 35:0 36:0.0625 37:0 38:0 39:0 40:0 41:0 42:0.0625 43:0 44:0 45:0 46:0 47:0 48:0 49:0 50:0 51:0 52:0 53:0.017777778 54:0.78222221 55:0 56:0 57:0.44084704 58:0.55915296 59:0.5 #
5.6338028169014086157014714606461e-05 1:0 2:0 3:0 4:0 5:0 6:0 7:0 8:0 9:0 10:0 11:0 12:0.125 13:0 14:0 15:0 16:0 17:0 18:0 19:0 20:0 21:0 22:0 23:0.125 24:0.125 25:0 26:0 27:0 28:0.25 29:0 30:0.125 31:0.125 32:0 33:0 34:0 35:0.125 36:0 37:0 38:0 39:0 40:0 41:0 42:0 43:0 44:0 45:0 46:0 47:0 48:0 49:0 50:0 51:0 52:0 53:0.053333335 54:0.74666667 55:0 56:0 57:0.49281397 58:0.507186 59:0.5 #
-3.5211267605633804695167143883339e-05 1:0 2:0.055555556 3:0.055555556 4:0 5:0 6:0 7:0 8:0 9:0 10:0 11:0 12:0 13:0.055555556 14:0.055555556 15:0 16:0 17:0 18:0 19:0 20:0 21:0 22:0 23:0 24:0.055555556 25:0 26:0 27:0.055555556 28:0.055555556 29:0 30:0 31:0 32:0 33:0 34:0 35:0 36:0.055555556 37:0.22222222 38:0.055555556 39:0 40:0 41:0 42:0.055555556 43:0 44:0.055555556 45:0 46:0 47:0 48:0.055555556 49:0.055555556 50:0.055555556 51:0 52:0 53:0.0016528926 54:0.38181818 55:0 56:0.41652894 57:0.45985097 58:0.54014903 59:0.5 #
5.6338028169014086157014714606461e-05 1:0 2:0 3:0 4:0 5:0 6:0 7:0 8:0 9:0 10:0 11:0 12:0 13:0 14:0 15:0 16:0 17:0 18:0 19:0 20:0 21:0 22:0 23:0 24:0.16666667 25:0 26:0 27:0 28:0.16666667 29:0 30:0.16666667 31:0 32:0 33:0 34:0 35:0 36:0 37:0 38:0 39:0 40:0 41:0 42:0 43:0 44:0 45:0 46:0 47:0 48:0.16666667 49:0.33333334 50:0 51:0 52:0 53:0.047058824 54:0.75294119 55:0 56:0 57:0.4984251 58:0.50157487 59:0.5 #
-3.5211267605633804695167143883339e-05 1:0 2:0 3:0 4:0 5:0 6:0 7:0 8:0 9:0.15384616 10:0 11:0.07692308 12:0 13:0 14:0 15:0 16:0 17:0 18:0 19:0 20:0 21:0 22:0 23:0.07692308 24:0.07692308 25:0 26:0.07692308 27:0 28:0.15384616 29:0 30:0.07692308 31:0.07692308 32:0 33:0 34:0 35:0 36:0.07692308 37:0.07692308 38:0 39:0 40:0 41:0 42:0.07692308 43:0 44:0 45:0 46:0 47:0 48:0 49:0 50:0 51:0 52:0 53:0.0060150377 54:0.26466164 55:0 56:0.52932328 57:0.48741427 58:0.5125857 59:0.5 #
-3.5211267605633804695167143883339e-05 1:0 2:0 3:0 4:0 5:0 6:0 7:0 8:0 9:0 10:0 11:0 12:0.07692308 13:0 14:0 15:0 16:0 17:0 18:0.07692308 19:0 20:0 21:0.07692308 22:0 23:0.07692308 24:0.07692308 25:0 26:0 27:0 28:0.15384616 29:0 30:0.07692308 31:0.07692308 32:0 33:0 34:0 35:0.07692308 36:0 37:0.07692308 38:0 39:0 40:0 41:0 42:0 43:0 44:0 45:0.07692308 46:0 47:0.07692308 48:0 49:0 50:0 51:0 52:0 53:0.025806451 54:0.77419353 55:0 56:0 57:0.49620777 58:0.50379223 59:0.5 #
-3.5211267605633804695167143883339e-05 1:0 2:0 3:0 4:0 5:0 6:0 7:0 8:0 9:0.083333336 10:0 11:0.083333336 12:0.083333336 13:0 14:0 15:0 16:0 17:0 18:0.083333336 19:0.083333336 20:0 21:0 22:0 23:0.083333336 24:0.083333336 25:0 26:0 27:0 28:0.083333336 29:0 30:0.083333336 31:0 32:0 33:0 34:0 35:0.083333336 36:0 37:0.083333336 38:0 39:0 40:0 41:0 42:0.083333336 43:0 44:0 45:0 46:0 47:0 48:0 49:0 50:0 51:0 52:0 53:0.0060150377 54:0.26466164 55:0 56:0.52932328 57:0.48511371 58:0.51488632 59:0.5 #
-3.5211267605633804695167143883339e-05 1:0 2:0.2 3:0 4:0 5:0.2 6:0 7:0 8:0 9:0 10:0 11:0 12:0 13:0 14:0 15:0 16:0 17:0 18:0 19:0 20:0 21:0 22:0 23:0 24:0 25:0 26:0 27:0 28:0 29:0 30:0 31:0 32:0 33:0.2 34:0 35:0 36:0 37:0.2 38:0 39:0 40:0 41:0 42:0.2 43:0 44:0 45:0 46:0 47:0 48:0 49:0 50:0 51:0 52:0 53:0.027586207 54:0.77241379 55:0 56:0 57:0.47547689 58:0.52452308 59:0.5 #
5.6338028169014086157014714606461e-05 1:0 2:0 3:0 4:0 5:0 6:0 7:0 8:0 9:0 10:0 11:0 12:0 13:0.06666667 14:0.06666667 15:0 16:0 17:0 18:0 19:0 20:0 21:0 22:0 23:0 24:0 25:0 26:0 27:0.06666667 28:0.06666667 29:0 30:0 31:0 32:0 33:0 34:0 35:0 36:0.06666667 37:0.26666668 38:0.06666667 39:0 40:0.06666667 41:0 42:0.06666667 43:0 44:0.06666667 45:0 46:0 47:0 48:0 49:0.06666667 50:0.06666667 51:0 52:0 53:0.0021333334 54:0.36266667 55:0 56:0.43520001 57:0.44233182 58:0.55766815 59:0.5 #
5.6338028169014086157014714606461e-05 1:0.071428575 2:0 3:0 4:0 5:0 6:0 7:0.071428575 8:0.071428575 9:0 10:0 11:0 12:0 13:0 14:0 15:0 16:0 17:0 18:0.071428575 19:0.071428575 20:0 21:0 22:0 23:0.071428575 24:0 25:0 26:0 27:0 28:0 29:0 30:0 31:0 32:0 33:0 34:0 35:0 36:0 37:0.14285715 38:0.071428575 39:0 40:0 41:0.071428575 42:0.071428575 43:0.071428575 44:0 45:0 46:0 47:0 48:0 49:0.071428575 50:0.071428575 51:0 52:0 53:0.0055555557 54:0.30555555 55:0 56:0.48888889 57:0.45555139 58:0.54444861 59:0.5 #
-3.5211267605633804695167143883339e-05 1:0 2:0.071428575 3:0 4:0.071428575 5:0 6:0 7:0 8:0 9:0.071428575 10:0 11:0.071428575 12:0.071428575 13:0 14:0 15:0 16:0 17:0 18:0 19:0 20:0 21:0 22:0 23:0.071428575 24:0.071428575 25:0 26:0 27:0 28:0.14285715 29:0 30:0.071428575 31:0 32:0.071428575 33:0.071428575 34:0 35:0.071428575 36:0 37:0 38:0 39:0 40:0 41:0 42:0.071428575 43:0 44:0 45:0 46:0 47:0 48:0 49:0 50:0 51:0 52:0 53:0.017777778 54:0.78222221 55:0 56:0 57:0.47210646 58:0.52789354 59:0.5 #
5.6338028169014086157014714606461e-05 1:0 2:0 3:0 4:0 5:0 6:0 7:0 8:0 9:0 10:0 11:0 12:0 13:0.1 14:0 15:0 16:0 17:0 18:0 19:0 20:0 21:0 22:0 23:0.1 24:0 25:0 26:0 27:0 28:0.1 29:0.1 30:0 31:0 32:0 33:0 34:0 35:0 36:0.1 37:0.1 38:0.1 39:0 40:0 41:0 42:0.1 43:0 44:0 45:0 46:0 47:0 48:0 49:0.1 50:0.1 51:0 52:0 53:0.024242423 54:0.77575755 55:0 56:0 57:0.48459435 58:0.51540565 59:0.5 #
-3.5211267605633804695167143883339e-05 1:0 2:0 3:0 4:0 5:0 6:0 7:0 8:0 9:0 10:0 11:0 12:0.052631579 13:0.052631579 14:0.052631579 15:0 16:0 17:0 18:0 19:0 20:0 21:0 22:0 23:0.052631579 24:0.052631579 25:0 26:0 27:0.052631579 28:0.052631579 29:0 30:0 31:0 32:0 33:0 34:0 35:0.052631579 36:0.052631579 37:0.15789473 38:0.052631579 39:0 40:0 41:0 42:0.052631579 43:0 44:0.052631579 45:0.052631579 46:0 47:0 48:0.052631579 49:0.052631579 50:0.052631579 51:0 52:0 53:0.0015841584 54:0.33267328 55:0 56:0.46574259 57:0.43706387 58:0.56293613 59:0.5 #
-3.5211267605633804695167143883339e-05 1:0 2:0 3:0 4:0 5:0 6:0 7:0 8:0 9:0.125 10:0.0625 11:0.0625 12:0 13:0 14:0 15:0 16:0 17:0 18:0 19:0 20:0 21:0 22:0 23:0.0625 24:0.0625 25:0 26:0.0625 27:0 28:0.1875 29:0 30:0.0625 31:0.0625 32:0.0625 33:0.0625 34:0 35:0 36:0.0625 37:0 38:0 39:0 40:0 41:0 42:0.0625 43:0 44:0 45:0 46:0 47:0 48:0 49:0 50:0 51:0 52:0 53:0.017777778 54:0.78222221 55:0 56:0 57:0.44084704 58:0.55915296 59:0.5 #
5.6338028169014086157014714606461e-05 1:0 2:0 3:0 4:0 5:0 6:0 7:0 8:0 9:0 10:0 11:0 12:0.125 13:0 14:0 15:0 16:0 17:0 18:0 19:0 20:0 21:0 22:0 23:0.125 24:0.125 25:0 26:0 27:0 28:0.25 29:0 30:0.125 31:0.125 32:0 33:0 34:0 35:0.125 36:0 37:0 38:0 39:0 40:0 41:0 42:0 43:0 44:0 45:0 46:0 47:0 48:0 49:0 50:0 51:0 52:0 53:0.053333335 54:0.74666667 55:0 56:0 57:0.49281397 58:0.507186 59:0.5 #
-3.5211267605633804695167143883339e-05 1:0 2:0.055555556 3:0.055555556 4:0 5:0 6:0 7:0 8:0 9:0 10:0 11:0 12:0 13:0.055555556 14:0.055555556 15:0 16:0 17:0 18:0 19:0 20:0 21:0 22:0 23:0 24:0.055555556 25:0 26:0 27:0.055555556 28:0.055555556 29:0 30:0 31:0 32:0 33:0 34:0 35:0 36:0.055555556 37:0.22222222 38:0.055555556 39:0 40:0 41:0 42:0.055555556 43:0 44:0.055555556 45:0 46:0 47:0 48:0.055555556 49:0.055555556 50:0.055555556 51:0 52:0 53:0.0016528926 54:0.38181818 55:0 56:0.41652894 57:0.45985097 58:0.54014903 59:0.5 #
5.6338028169014086157014714606461e-05 1:0 2:0 3:0 4:0 5:0 6:0 7:0 8:0 9:0 10:0 11:0 12:0 13:0 14:0 15:0 16:0 17:0 18:0 19:0 20:0 21:0 22:0 23:0 24:0.16666667 25:0 26:0 27:0 28:0.16666667 29:0 30:0.16666667 31:0 32:0 33:0 34:0 35:0 36:0 37:0 38:0 39:0 40:0 41:0 42:0 43:0 44:0 45:0 46:0 47:0 48:0.16666667 49:0.33333334 50:0 51:0 52:0 53:0.047058824 54:0.75294119 55:0 56:0 57:0.4984251 58:0.50157487 59:0.5 #
-3.5211267605633804695167143883339e-05 1:0 2:0 3:0 4:0 5:0 6:0 7:0 8:0 9:0.15384616 10:0 11:0.07692308 12:0 13:0 14:0 15:0 16:0 17:0 18:0 19:0 20:0 21:0 22:0 23:0.07692308 24:0.07692308 25:0 26:0.07692308 27:0 28:0.15384616 29:0 30:0.07692308 31:0.07692308 32:0 33:0 34:0 35:0 36:0.07692308 37:0.07692308 38:0 39:0 40:0 41:0 42:0.07692308 43:0 44:0 45:0 46:0 47:0 48:0 49:0 50:0 51:0 52:0 53:0.0060150377 54:0.26466164 55:0 56:0.52932328 57:0.48741427 58:0.5125857 59:0.5 #
7.0422535211267607696268393258077e-06 1:0 2:0.11111111 3:0 4:0.11111111 5:0 6:0 7:0 8:0 9:0 10:0 11:0 12:0 13:0 14:0 15:0 16:0 17:0 18:0 19:0 20:0 21:0 22:0 23:0.11111111 24:0 25:0 26:0 27:0 28:0.22222222 29:0.11111111 30:0 31:0 32:0.11111111 33:0.11111111 34:0 35:0 36:0 37:0 38:0 39:0 40:0 41:0.11111111 42:0 43:0 44:0 45:0 46:0 47:0 48:0 49:0 50:0 51:0 52:0 53:0.80000001 54:0 55:0 56:0 57:0.48034015 58:0.51965982 59:0.5 #
7.0422535211267607696268393258077e-06 1:0 2:0.14285715 3:0 4:0.14285715 5:0 6:0 7:0 8:0 9:0 10:0 11:0 12:0 13:0 14:0 15:0 16:0 17:0 18:0 19:0 20:0 21:0 22:0 23:0.14285715 24:0 25:0 26:0 27:0 28:0.14285715 29:0.14285715 30:0 31:0 32:0 33:0 34:0 35:0 36:0 37:0.14285715 38:0 39:0 40:0 41:0.14285715 42:0 43:0 44:0 45:0 46:0 47:0 48:0 49:0 50:0 51:0 52:0 53:0.11428571 54:0.6857143 55:0 56:0 57:0.49895075 58:0.50104928 59:0.5 #
-3.5211267605633804695167143883339e-05 1:0 2:0.11111111 3:0 4:0.11111111 5:0 6:0 7:0 8:0 9:0 10:0 11:0 12:0 13:0 14:0 15:0 16:0 17:0 18:0 19:0 20:0 21:0 22:0 23:0.11111111 24:0 25:0 26:0 27:0 28:0.22222222 29:0.11111111 30:0 31:0 32:0.11111111 33:0.11111111 34:0 35:0 36:0 37:0 38:0 39:0 40:0 41:0.11111111 42:0 43:0 44:0 45:0 46:0 47:0 48:0 49:0 50:0 51:0 52:0 53:0.80000001 54:0 55:0 56:0 57:0.47431573 58:0.52568424 59:0.5 #
7.0422535211267607696268393258077e-06 1:0 2:0.25 3:0 4:0 5:0 6:0 7:0 8:0 9:0 10:0 11:0 12:0 13:0 14:0 15:0 16:0 17:0 18:0 19:0 20:0 21:0 22:0 23:0.25 24:0 25:0 26:0 27:0 28:0 29:0 30:0 31:0 32:0 33:0 34:0 35:0 36:0 37:0.25 38:0 39:0 40:0 41:0.25 42:0 43:0 44:0 45:0 46:0 47:0 48:0 49:0 50:0 51:0 52:0 53:0.07272727 54:0.72727275 55:0 56:0 57:0.50019783 58:0.49980214 59:0.5 #
7.0422535211267607696268393258077e-06 1:0 2:0.14285715 3:0 4:0.14285715 5:0 6:0 7:0 8:0 9:0 10:0 11:0 12:0 13:0 14:0 15:0 16:0 17:0 18:0 19:0 20:0 21:0 22:0 23:0.14285715 24:0 25:0 26:0 27:0 28:0.14285715 29:0.14285715 30:0 31:0 32:0 33:0 34:0 35:0 36:0 37:0.14285715 38:0 39:0 40:0 41:0.14285715 42:0 43:0 44:0 45:0 46:0 47:0 48:0 49:0 50:0 51:0 52:0 53:0.11428571 54:0.6857143 55:0 56:0 57:0.49895075 58:0.50104928 59:0.5 #
7.0422535211267607696268393258077e-06 1:0 2:0 3:0 4:0 5:0 6:0 7:0 8:0 9:0 10:0 11:0 12:0 13:0 14:0 15:0 16:0 17:0 18:0 19:0 20:0 21:0 22:0 23:0.2 24:0 25:0 26:0 27:0 28:0.2 29:0.2 30:0 31:0 32:0 33:0 34:0 35:0 36:0 37:0.2 38:0 39:0 40:0 41:0 42:0 43:0 44:0 45:0 46:0 47:0 48:0.2 49:0 50:0 51:0 52:0 53:0.13333334 54:0.66666669 55:0 56:0 57:0.56175309 58:0.43824694 59:0.5 #
7.0422535211267607696268393258077e-06 1:0 2:0.11111111 3:0 4:0.11111111 5:0 6:0 7:0 8:0 9:0 10:0 11:0 12:0 13:0 14:0 15:0 16:0 17:0 18:0 19:0 20:0 21:0 22:0 23:0.11111111 24:0 25:0 26:0 27:0 28:0.22222222 29:0.11111111 30:0 31:0 32:0.11111111 33:0.11111111 34:0 35:0 36:0 37:0 38:0 39:0 40:0 41:0.11111111 42:0 43:0 44:0 45:0 46:0 47:0 48:0 49:0 50:0 51:0 52:0 53:0.80000001 54:0 55:0 56:0 57:0.48034015 58:0.51965982 59:0.5 #
7.0422535211267607696268393258077e-06 1:0 2:0.14285715 3:0 4:0.14285715 5:0 6:0 7:0 8:0 9:0 10:0 11:0 12:0 13:0 14:0 15:0 16:0 17:0 18:0 19:0 20:0 21:0 22:0 23:0.14285715 24:0 25:0 26:0 27:0 28:0.14285715 29:0.14285715 30:0 31:0 32:0 33:0 34:0 35:0 36:0 37:0.14285715 38:0 39:0 40:0 41:0.14285715 42:0 43:0 44:0 45:0 46:0 47:0 48:0 49:0 50:0 51:0 52:0 53:0.11428571 54:0.6857143 55:0 56:0 57:0.49895075 58:0.50104928 59:0.5 #
-3.5211267605633804695167143883339e-05 1:0 2:0.11111111 3:0 4:0.11111111 5:0 6:0 7:0 8:0 9:0 10:0 11:0 12:0 13:0 14:0 15:0 16:0 17:0 18:0 19:0 20:0 21:0 22:0 23:0.11111111 24:0 25:0 26:0 27:0 28:0.22222222 29:0.11111111 30:0 31:0 32:0.11111111 33:0.11111111 34:0 35:0 36:0 37:0 38:0 39:0 40:0 41:0.11111111 42:0 43:0 44:0 45:0 46:0 47:0 48:0 49:0 50:0 51:0 52:0 53:0.80000001 54:0 55:0 56:0 57:0.47431573 58:0.52568424 59:0.5 #
7.0422535211267607696268393258077e-06 1:0 2:0.25 3:0 4:0 5:0 6:0 7:0 8:0 9:0 10:0 11:0 12:0 13:0 14:0 15:0 16:0 17:0 18:0 19:0 20:0 21:0 22:0 23:0.25 24:0 25:0 26:0 27:0 28:0 29:0 30:0 31:0 32:0 33:0 34:0 35:0 36:0 37:0.25 38:0 39:0 40:0 41:0.25 42:0 43:0 44:0 45:0 46:0 47:0 48:0 49:0 50:0 51:0 52:0 53:0.07272727 54:0.72727275 55:0 56:0 57:0.50019783 58:0.49980214 59:0.5 #
7.0422535211267607696268393258077e-06 1:0 2:0.14285715 3:0 4:0.14285715 5:0 6:0 7:0 8:0 9:0 10:0 11:0 12:0 13:0 14:0 15:0 16:0 17:0 18:0 19:0 20:0 21:0 22:0 23:0.14285715 24:0 25:0 26:0 27:0 28:0.14285715 29:0.14285715 30:0 31:0 32:0 33:0 34:0 35:0 36:0 37:0.14285715 38:0 39:0 40:0 41:0.14285715 42:0 43:0 44:0 45:0 46:0 47:0 48:0 49:0 50:0 51:0 52:0 53:0.11428571 54:0.6857143 55:0 56:0 57:0.49895075 58:0.50104928 59:0.5 #
7.0422535211267607696268393258077e-06 1:0 2:0 3:0 4:0 5:0 6:0 7:0 8:0 9:0 10:0 11:0 12:0 13:0 14:0 15:0 16:0 17:0 18:0 19:0 20:0 21:0 22:0 23:0.2 24:0 25:0 26:0 27:0 28:0.2 29:0.2 30:0 31:0 32:0 33:0 34:0 35:0 36:0 37:0.2 38:0 39:0 40:0 41:0 42:0 43:0 44:0 45:0 46:0 47:0 48:0.2 49:0 50:0 51:0 52:0 53:0.13333334 54:0.66666669 55:0 56:0 57:0.56175309 58:0.43824694 59:0.5 #
2.1126760563380281461847570723123e-05 1:0.14285715 2:0.14285715 3:0 4:0 5:0 6:0 7:0 8:0 9:0 10:0 11:0 12:0 13:0 14:0 15:0.14285715 16:0 17:0 18:0 19:0 20:0 21:0 22:0 23:0.14285715 24:0 25:0 26:0 27:0 28:0 29:0 30:0 31:0 32:0 33:0.14285715 34:0 35:0 36:0 37:0 38:0 39:0 40:0 41:0.14285715 42:0 43:0 44:0 45:0 46:0 47:0 48:0.14285715 49:0 50:0 51:0 52:0 53:0.047058824 54:0.75294119 55:0 56:0 57:0.50126553 58:0.49873447 59:0.5 #
2.1126760563380281461847570723123e-05 1:0.16666667 2:0.16666667 3:0 4:0 5:0 6:0 7:0 8:0 9:0 10:0 11:0 12:0 13:0 14:0 15:0 16:0 17:0 18:0 19:0 20:0 21:0 22:0 23:0.16666667 24:0 25:0 26:0 27:0 28:0 29:0 30:0 31:0 32:0 33:0 34:0 35:0 36:0 37:0.16666667 38:0 39:0.16666667 40:0 41:0.16666667 42:0 43:0 44:0 45:0 46:0 47:0 48:0 49:0 50:0 51:0 52:0 53:0.047058824 54:0.75294119 55:0 56:0 57:0.48484793 58:0.51515204 59:0.5 #
-2.8169014084507043078507357303231e-05 1:0.25 2:0.25 3:0 4:0 5:0 6:0 7:0 8:0 9:0 10:0 11:0 12:0 13:0 14:0 15:0 16:0 17:0 18:0 19:0 20:0 21:0 22:0 23:0.25 24:0 25:0 26:0 27:0 28:0 29:0 30:0 31:0 32:0 33:0 34:0 35:0 36:0.25 37:0 38:0 39:0 40:0 41:0 42:0 43:0 44:0 45:0 46:0 47:0 48:0 49:0 50:0 51:0 52:0 53:0.11428571 54:0.6857143 55:0 56:0 57:0.50545007 58:0.4945499 59:0.5 #
2.1126760563380281461847570723123e-05 1:0 2:0 3:0 4:0 5:0 6:0 7:0 8:0 9:0 10:0 11:0 12:0 13:0 14:0 15:0 16:0 17:0 18:0 19:0 20:0 21:0 22:0 23:0 24:0 25:0 26:0 27:0 28:0 29:0 30:0 31:0 32:0 33:0.2 34:0 35:0 36:0 37:0.2 38:0 39:0.2 40:0.2 41:0 42:0 43:0 44:0 45:0 46:0 47:0 48:0.2 49:0 50:0 51:0 52:0 53:0.036363635 54:0.76363635 55:0 56:0 57:0.47572035 58:0.52427965 59:0.5 #
-2.8169014084507043078507357303231e-05 1:0 2:0 3:0 4:0 5:0 6:0 7:0 8:0 9:0 10:0 11:0 12:0 13:0 14:0.2 15:0.2 16:0 17:0 18:0 19:0 20:0 21:0 22:0 23:0 24:0 25:0 26:0 27:0 28:0 29:0 30:0 31:0 32:0 33:0 34:0 35:0 36:0 37:0 38:0 39:0.2 40:0 41:0 42:0 43:0 44:0.2 45:0 46:0 47:0 48:0.2 49:0 50:0 51:0 52:0 53:0.032000002 54:0.76800001 55:0 56:0 57:0.50808418 58:0.49191582 59:0.5 #
-2.8169014084507043078507357303231e-05 1:0.07692308 2:0.07692308 3:0 4:0 5:0 6:0 7:0 8:0 9:0 10:0 11:0 12:0 13:0 14:0.07692308 15:0 16:0 17:0 18:0 19:0 20:0 21:0 22:0 23:0 24:0 25:0 26:0 27:0.07692308 28:0 29:0 30:0 31:0 32:0 33:0.15384616 34:0 35:0 36:0.07692308 37:0.07692308 38:0 39:0.15384616 40:0 41:0.15384616 42:0 43:0 44:0.07692308 45:0 46:0 47:0 48:0 49:0 50:0 51:0 52:0 53:0.0042105261 54:0.79578948 55:0 56:0 57:0.49241069 58:0.50758934 59:0.5 #
2.1126760563380281461847570723123e-05 1:0 2:0 3:0 4:0 5:0 6:0 7:0 8:0 9:0 10:0 11:0 12:0 13:0 14:0 15:0 16:0 17:0 18:0 19:0 20:0 21:0 22:0 23:0 24:0 25:0 26:0 27:0 28:0 29:0 30:0 31:0 32:0 33:0.25 34:0 35:0 36:0 37:0.25 38:0 39:0 40:0.25 41:0 42:0 43:0 44:0 45:0 46:0 47:0 48:0.25 49:0 50:0 51:0 52:0 53:0.07272727 54:0.72727275 55:0 56:0 57:0.48529917 58:0.51470083 59:0.5 #
2.1126760563380281461847570723123e-05 1:0.14285715 2:0.14285715 3:0 4:0 5:0 6:0 7:0 8:0 9:0 10:0 11:0 12:0 13:0 14:0 15:0.14285715 16:0 17:0 18:0 19:0 20:0 21:0 22:0 23:0.14285715 24:0 25:0 26:0 27:0 28:0 29:0 30:0 31:0 32:0 33:0.14285715 34:0 35:0 36:0 37:0 38:0 39:0 40:0 41:0.14285715 42:0 43:0 44:0 45:0 46:0 47:0 48:0.14285715 49:0 50:0 51:0 52:0 53:0.047058824 54:0.75294119 55:0 56:0 57:0.50126553 58:0.49873447 59:0.5 #
2.1126760563380281461847570723123e-05 1:0.16666667 2:0.16666667 3:0 4:0 5:0 6:0 7:0 8:0 9:0 10:0 11:0 12:0 13:0 14:0 15:0 16:0 17:0 18:0 19:0 20:0 21:0 22:0 23:0.16666667 24:0 25:0 26:0 27:0 28:0 29:0 30:0 31:0 32:0 33:0 34:0 35:0 36:0 37:0.16666667 38:0 39:0.16666667 40:0 41:0.16666667 42:0 43:0 44:0 45:0 46:0 47:0 48:0 49:0 50:0 51:0 52:0 53:0.047058824 54:0.75294119 55:0 56:0 57:0.48484793 58:0.51515204 59:0.5 #
-2.8169014084507043078507357303231e-05 1:0.25 2:0.25 3:0 4:0 5:0 6:0 7:0 8:0 9:0 10:0 11:0 12:0 13:0 14:0 15:0 16:0 17:0 18:0 19:0 20:0 21:0 22:0 23:0.25 24:0 25:0 26:0 27:0 28:0 29:0 30:0 31:0 32:0 33:0 34:0 35:0 36:0.25 37:0 38:0 39:0 40:0 41:0 42:0 43:0 44:0 45:0 46:0 47:0 48:0 49:0 50:0 51:0 52:0 53:0.11428571 54:0.6857143 55:0 56:0 57:0.50545007 58:0.4945499 59:0.5 #
2.1126760563380281461847570723123e-05 1:0 2:0 3:0 4:0 5:0 6:0 7:0 8:0 9:0 10:0 11:0 12:0 13:0 14:0 15:0 16:0 17:0 18:0 19:0 20:0 21:0 22:0 23:0 24:0 25:0 26:0 27:0 28:0 29:0 30:0 31:0 32:0 33:0.2 34:0 35:0 36:0 37:0.2 38:0 39:0.2 40:0.2 41:0 42:0 43:0 44:0 45:0 46:0 47:0 48:0.2 49:0 50:0 51:0 52:0 53:0.036363635 54:0.76363635 55:0 56:0 57:0.47572035 58:0.52427965 59:0.5 #
-2.8169014084507043078507357303231e-05 1:0 2:0 3:0 4:0 5:0 6:0 7:0 8:0 9:0 10:0 11:0 12:0 13:0 14:0.2 15:0.2 16:0 17:0 18:0 19:0 20:0 21:0 22:0 23:0 24:0 25:0 26:0 27:0 28:0 29:0 30:0 31:0 32:0 33:0 34:0 35:0 36:0 37:0 38:0 39:0.2 40:0 41:0 42:0 43:0 44:0.2 45:0 46:0 47:0 48:0.2 49:0 50:0 51:0 52:0 53:0.032000002 54:0.76800001 55:0 56:0 57:0.50808418 58:0.49191582 59:0.5 #
-2.8169014084507043078507357303231e-05 1:0.07692308 2:0.07692308 3:0 4:0 5:0 6:0 7:0 8:0 9:0 10:0 11:0 12:0 13:0 14:0.07692308 15:0 16:0 17:0 18:0 19:0 20:0 21:0 22:0 23:0 24:0 25:0 26:0 27:0.07692308 28:0 29:0 30:0 31:0 32:0 33:0.15384616 34:0 35:0 36:0.07692308 37:0.07692308 38:0 39:0.15384616 40:0 41:0.15384616 42:0 43:0 44:0.07692308 45:0 46:0 47:0 48:0 49:0 50:0 51:0 52:0 53:0.0042105261 54:0.79578948 55:0 56:0 57:0.49241069 58:0.50758934 59:0.5 #
2.1126760563380281461847570723123e-05 1:0 2:0 3:0 4:0 5:0 6:0 7:0 8:0 9:0 10:0 11:0 12:0 13:0 14:0 15:0 16:0 17:0 18:0 19:0 20:0 21:0 22:0 23:0 24:0 25:0 26:0 27:0 28:0 29:0 30:0 31:0 32:0 33:0.25 34:0 35:0 36:0 37:0.25 38:0 39:0 40:0.25 41:0 42:0 43:0 44:0 45:0 46:0 47:0 48:0.25 49:0 50:0 51:0 52:0 53:0.07272727 54:0.72727275 55:0 56:0 57:0.48529917 58:0.51470083 59:0.5 #
2.8169014084507043078507357303231e-05 1:0 2:0 3:0 4:0 5:0 6:0 7:0 8:0 9:0 10:0 11:0 12:0 13:0 14:0 15:0 16:0 17:0 18:0 19:0 20:0 21:0 22:0 23:0.2 24:0 25:0 26:0 27:0 28:0.2 29:0.2 30:0 31:0 32:0 33:0 34:0 35:0 36:0 37:0.2 38:0 39:0 40:0 41:0 42:0 43:0 44:0 45:0 46:0 47:0 48:0.2 49:0 50:0 51:0 52:0 53:0.07272727 54:0.72727275 55:0 56:0 57:0.53319764 58:0.46680239 59:0.5 #
2.8169014084507043078507357303231e-05 1:0 2:0 3:0 4:0 5:0 6:0 7:0 8:0 9:0.2 10:0.1 11:0.1 12:0 13:0 14:0 15:0 16:0 17:0 18:0 19:0 20:0 21:0 22:0 23:0.1 24:0 25:0 26:0 27:0 28:0.1 29:0 30:0 31:0 32:0.1 33:0.1 34:0 35:0 36:0 37:0.1 38:0 39:0 40:0 41:0 42:0.1 43:0 44:0 45:0 46:0 47:0 48:0 49:0 50:0 51:0 52:0 53:0.015686275 54:0.78431374 55:0 56:0 57:0.54188871 58:0.45811126 59:0.5 #
2.8169014084507043078507357303231e-05 1:0 2:0 3:0 4:0 5:0 6:0 7:0 8:0 9:0.07692308 10:0.07692308 11:0 12:0 13:0.07692308 14:0 15:0 16:0 17:0 18:0.07692308 19:0 20:0 21:0 22:0.07692308 23:0.07692308 24:0 25:0 26:0 27:0 28:0.07692308 29:0 30:0 31:0 32:0.07692308 33:0.15384616 34:0 35:0 36:0 37:0.07692308 38:0 39:0 40:0 41:0 42:0.07692308 43:0 44:0 45:0 46:0 47:0 48:0.07692308 49:0 50:0 51:0 52:0 53:0.0047058822 54:0.36705881 55:0 56:0.42823529 57:0.53015292 58:0.46984708 59:0.5 #
-4.9295774647887327928486717043555e-05 1:0 2:0 3:0 4:0 5:0 6:0 7:0 8:0 9:0.090909094 10:0.090909094 11:0 12:0 13:0.090909094 14:0 15:0 16:0 17:0 18:0.090909094 19:0 20:0 21:0.090909094 22:0 23:0.090909094 24:0 25:0 26:0 27:0 28:0.090909094 29:0 30:0 31:0 32:0.090909094 33:0.090909094 34:0 35:0 36:0 37:0.090909094 38:0 39:0 40:0 41:0 42:0.090909094 43:0 44:0 45:0 46:0 47:0 48:0 49:0 50:0 51:0 52:0 53:0.0065573771 54:0.43278688 55:0 56:0.36065573 57:0.56078422 58:0.43921578 59:0.5 #
-4.9295774647887327928486717043555e-05 1:0 2:0 3:0 4:0 5:0 6:0 7:0 8:0 9:0 10:0 11:0 12:0 13:0 14:0 15:0 16:0 17:0 18:0 19:0 20:0 21:0 22:0 23:0.25 24:0 25:0 26:0 27:0 28:0 29:0 30:0 31:0 32:0 33:0 34:0 35:0 36:0 37:0.25 38:0 39:0 40:0 41:0 42:0 43:0 44:0 45:0.25 46:0 47:0 48:0.25 49:0 50:0 51:0 52:0 53:0.042105265 54:0.75789475 55:0 56:0 57:0.52454609 58:0.47545391 59:0.5 #
2.8169014084507043078507357303231e-05 1:0 2:0 3:0 4:0 5:0 6:0 7:0 8:0 9:0 10:0 11:0 12:0 13:0 14:0 15:0 16:0 17:0 18:0 19:0 20:0 21:0 22:0 23:0.2 24:0 25:0 26:0 27:0 28:0.2 29:0.2 30:0 31:0 32:0 33:0 34:0 35:0 36:0 37:0.2 38:0 39:0 40:0 41:0 42:0 43:0 44:0 45:0.2 46:0 47:0 48:0 49:0 50:0 51:0 52:0 53:0.047058824 54:0.75294119 55:0 56:0 57:0.48620689 58:0.51379311 59:0.5 #
-4.9295774647887327928486717043555e-05 1:0 2:0 3:0 4:0 5:0 6:0 7:0 8:0 9:0 10:0 11:0 12:0 13:0 14:0 15:0 16:0 17:0 18:0 19:0 20:0 21:0 22:0 23:0.25 24:0 25:0 26:0 27:0 28:0 29:0 30:0 31:0 32:0 33:0 34:0 35:0 36:0 37:0.25 38:0 39:0 40:0 41:0 42:0 43:0 44:0 45:0.25 46:0 47:0 48:0.25 49:0 50:0 51:0 52:0 53:0.061538462 54:0.73846155 55:0 56:0 57:0.54487717 58:0.45512283 59:0.5 #
2.8169014084507043078507357303231e-05 1:0 2:0 3:0 4:0 5:0 6:0 7:0 8:0 9:0.25 10:0.25 11:0 12:0 13:0 14:0 15:0 16:0 17:0 18:0 19:0 20:0 21:0 22:0 23:0.25 24:0 25:0 26:0 27:0 28:0 29:0 30:0 31:0 32:0 33:0 34:0 35:0 36:0 37:0.25 38:0 39:0 40:0 41:0 42:0 43:0 44:0 45:0 46:0 47:0 48:0 49:0 50:0 51:0 52:0 53:0.032000002 54:0.76800001 55:0 56:0 57:0.56079584 58:0.43920416 59:0.5 #
-4.9295774647887327928486717043555e-05 1:0 2:0 3:0 4:0 5:0 6:0 7:0 8:0 9:0 10:0 11:0 12:0 13:0.14285715 14:0 15:0 16:0 17:0 18:0.14285715 19:0 20:0 21:0.14285715 22:0 23:0 24:0 25:0 26:0 27:0 28:0.14285715 29:0 30:0 31:0 32:0.14285715 33:0.14285715 34:0 35:0 36:0 37:0 38:0 39:0 40:0 41:0 42:0.14285715 43:0 44:0 45:0 46:0 47:0 48:0 49:0 50:0 51:0 52:0 53:0.014035088 54:0.29473683 55:0 56:0.49122807 57:0.54648763 58:0.45351234 59:0.5 #
2.8169014084507043078507357303231e-05 1:0 2:0 3:0 4:0 5:0 6:0 7:0 8:0 9:0.2 10:0.2 11:0 12:0 13:0 14:0 15:0 16:0 17:0 18:0 19:0 20:0 21:0 22:0 23:0.2 24:0 25:0 26:0 27:0 28:0 29:0 30:0 31:0 32:0 33:0.2 34:0 35:0 36:0.2 37:0 38:0 39:0 40:0 41:0 42:0 43:0 44:0 45:0 46:0 47:0 48:0 49:0 50:0 51:0 52:0 53:0.027586207 54:0.77241379 55:0 56:0 57:0.5546658 58:0.4453342 59:0.5 #
2.8169014084507043078507357303231e-05 1:0 2:0 3:0 4:0 5:0 6:0 7:0 8:0 9:0.125 10:0 11:0.125 12:0 13:0 14:0 15:0 16:0 17:0 18:0 19:0 20:0 21:0 22:0 23:0 24:0 25:0 26:0 27:0 28:0.125 29:0 30:0 31:0 32:0 33:0.125 34:0 35:0 36:0 37:0.125 38:0 39:0 40:0 41:0 42:0.125 43:0 44:0 45:0.125 46:0 47:0 48:0.125 49:0 50:0 51:0 52:0 53:0.010958904 54:0.7890411 55:0 56:0 57:0.52055573 58:0.47944424 59:0.5 #
2.8169014084507043078507357303231e-05 1:0 2:0 3:0 4:0 5:0 6:0 7:0 8:0 9:0 10:0 11:0 12:0 13:0 14:0 15:0 16:0 17:0 18:0 19:0 20:0 21:0 22:0 23:0.2 24:0 25:0 26:0 27:0 28:0.2 29:0.2 30:0 31:0 32:0 33:0 34:0 35:0 36:0 37:0.2 38:0 39:0 40:0 41:0 42:0 43:0 44:0 45:0 46:0 47:0 48:0.2 49:0 50:0 51:0 52:0 53:0.07272727 54:0.72727275 55:0 56:0 57:0.53319764 58:0.46680239 59:0.5 #
2.8169014084507043078507357303231e-05 1:0 2:0 3:0 4:0 5:0 6:0 7:0 8:0 9:0.2 10:0.1 11:0.1 12:0 13:0 14:0 15:0 16:0 17:0 18:0 19:0 20:0 21:0 22:0 23:0.1 24:0 25:0 26:0 27:0 28:0.1 29:0 30:0 31:0 32:0.1 33:0.1 34:0 35:0 36:0 37:0.1 38:0 39:0 40:0 41:0 42:0.1 43:0 44:0 45:0 46:0 47:0 48:0 49:0 50:0 51:0 52:0 53:0.015686275 54:0.78431374 55:0 56:0 57:0.54188871 58:0.45811126 59:0.5 #
2.8169014084507043078507357303231e-05 1:0 2:0 3:0 4:0 5:0 6:0 7:0 8:0 9:0.07692308 10:0.07692308 11:0 12:0 13:0.07692308 14:0 15:0 16:0 17:0 18:0.07692308 19:0 20:0 21:0 22:0.07692308 23:0.07692308 24:0 25:0 26:0 27:0 28:0.07692308 29:0 30:0 31:0 32:0.07692308 33:0.15384616 34:0 35:0 36:0 37:0.07692308 38:0 39:0 40:0 41:0 42:0.07692308 43:0 44:0 45:0 46:0 47:0 48:0.07692308 49:0 50:0 51:0 52:0 53:0.0047058822 54:0.36705881 55:0 56:0.42823529 57:0.53015292 58:0.46984708 59:0.5 #
-4.9295774647887327928486717043555e-05 1:0 2:0 3:0 4:0 5:0 6:0 7:0 8:0 9:0.090909094 10:0.090909094 11:0 12:0 13:0.090909094 14:0 15:0 16:0 17:0 18:0.090909094 19:0 20:0 21:0.090909094 22:0 23:0.090909094 24:0 25:0 26:0 27:0 28:0.090909094 29:0 30:0 31:0 32:0.090909094 33:0.090909094 34:0 35:0 36:0 37:0.090909094 38:0 39:0 40:0 41:0 42:0.090909094 43:0 44:0 45:0 46:0 47:0 48:0 49:0 50:0 51:0 52:0 53:0.0065573771 54:0.43278688 55:0 56:0.36065573 57:0.56078422 58:0.43921578 59:0.5 #
-4.9295774647887327928486717043555e-05 1:0 2:0 3:0 4:0 5:0 6:0 7:0 8:0 9:0 10:0 11:0 12:0 13:0 14:0 15:0 16:0 17:0 18:0 19:0 20:0 21:0 22:0 23:0.25 24:0 25:0 26:0 27:0 28:0 29:0 30:0 31:0 32:0 33:0 34:0 35:0 36:0 37:0.25 38:0 39:0 40:0 41:0 42:0 43:0 44:0 45:0.25 46:0 47:0 48:0.25 49:0 50:0 51:0 52:0 53:0.042105265 54:0.75789475 55:0 56:0 57:0.52454609 58:0.47545391 59:0.5 #
2.8169014084507043078507357303231e-05 1:0 2:0 3:0 4:0 5:0 6:0 7:0 8:0 9:0 10:0 11:0 12:0 13:0 14:0 15:0 16:0 17:0 18:0 19:0 20:0 21:0 22:0 23:0.2 24:0 25:0 26:0 27:0 28:0.2 29:0.2 30:0 31:0 32:0 33:0 34:0 35:0 36:0 37:0.2 38:0 39:0 40:0 41:0 42:0 43:0 44:0 45:0.2 46:0 47:0 48:0 49:0 50:0 51:0 52:0 53:0.047058824 54:0.75294119 55:0 56:0 57:0.48620689 58:0.51379311 59:0.5 #
-4.9295774647887327928486717043555e-05 1:0 2:0 3:0 4:0 5:0 6:0 7:0 8:0 9:0 10:0 11:0 12:0 13:0 14:0 15:0 16:0 17:0 18:0 19:0 20:0 21:0 22:0 23:0.25 24:0 25:0 26:0 27:0 28:0 29:0 30:0 31:0 32:0 33:0 34:0 35:0 36:0 37:0.25 38:0 39:0 40:0 41:0 42:0 43:0 44:0 45:0.25 46:0 47:0 48:0.25 49:0 50:0 51:0 52:0 53:0.061538462 54:0.73846155 55:0 56:0 57:0.54487717 58:0.45512283 59:0.5 #
2.8169014084507043078507357303231e-05 1:0 2:0 3:0 4:0 5:0 6:0 7:0 8:0 9:0.25 10:0.25 11:0 12:0 13:0 14:0 15:0 16:0 17:0 18:0 19:0 20:0 21:0 22:0 23:0.25 24:0 25:0 26:0 27:0 28:0 29:0 30:0 31:0 32:0 33:0 34:0 35:0 36:0 37:0.25 38:0 39:0 40:0 41:0 42:0 43:0 44:0 45:0 46:0 47:0 48:0 49:0 50:0 51:0 52:0 53:0.032000002 54:0.76800001 55:0 56:0 57:0.56079584 58:0.43920416 59:0.5 #
-4.9295774647887327928486717043555e-05 1:0 2:0 3:0 4:0 5:0 6:0 7:0 8:0 9:0 10:0 11:0 12:0 13:0.14285715 14:0 15:0 16:0 17:0 18:0.14285715 19:0 20:0 21:0.14285715 22:0 23:0 24:0 25:0 26:0 27:0 28:0.14285715 29:0 30:0 31:0 32:0.14285715 33:0.14285715 34:0 35:0 36:0 37:0 38:0 39:0 40:0 41:0 42:0.14285715 43:0 44:0 45:0 46:0 47:0 48:0 49:0 50:0 51:0 52:0 53:0.014035088 54:0.29473683 55:0 56:0.49122807 57:0.54648763 58:0.45351234 59:0.5 #
2.8169014084507043078507357303231e-05 1:0 2:0 3:0 4:0 5:0 6:0 7:0 8:0 9:0.2 10:0.2 11:0 12:0 13:0 14:0 15:0 16:0 17:0 18:0 19:0 20:0 21:0 22:0 23:0.2 24:0 25:0 26:0 27:0 28:0 29:0 30:0 31:0 32:0 33:0.2 34:0 35:0 36:0.2 37:0 38:0 39:0 40:0 41:0 42:0 43:0 44:0 45:0 46:0 47:0 48:0 49:0 50:0 51:0 52:0 53:0.027586207 54:0.77241379 55:0 56:0 57:0.5546658 58:0.4453342 59:0.5 #
2.8169014084507043078507357303231e-05 1:0 2:0 3:0 4:0 5:0 6:0 7:0 8:0 9:0.125 10:0 11:0.125 12:0 13:0 14:0 15:0 16:0 17:0 18:0 19:0 20:0 21:0 22:0 23:0 24:0 25:0 26:0 27:0 28:0.125 29:0 30:0 31:0 32:0 33:0.125 34:0 35:0 36:0 37:0.125 38:0 39:0 40:0 41:0 42:0.125 43:0 44:0 45:0.125 46:0 47:0 48:0.125 49:0 50:0 51:0 52:0 53:0.010958904 54:0.7890411 55:0 56:0 57:0.52055573 58:0.47944424 59:0.5 #
-0 1:0 2:0.083333336 3:0.083333336 4:0 5:0 6:0.083333336 7:0.083333336 8:0.083333336 9:0 10:0 11:0 12:0 13:0 14:0 15:0 16:0 17:0 18:0.083333336 19:0 20:0 21:0.083333336 22:0 23:0.083333336 24:0.083333336 25:0.083333336 26:0 27:0 28:0.083333336 29:0.083333336 30:0 31:0 32:0 33:0 34:0 35:0 36:0 37:0 38:0 39:0 40:0 41:0 42:0 43:0 44:0 45:0 46:0 47:0 48:0 49:0 50:0 51:0 52:0 53:0.015686275 54:0.78431374 55:0 56:0 57:0.49194753 58:0.50805247 59:0.5 #
-0 1:0 2:0.074074075 3:0.037037037 4:0 5:0.037037037 6:0.074074075 7:0.074074075 8:0.074074075 9:0.037037037 10:0 11:0 12:0 13:0 14:0 15:0 16:0 17:0 18:0.074074075 19:0 20:0.037037037 21:0.037037037 22:0 23:0.037037037 24:0.074074075 25:0.037037037 26:0 27:0 28:0.037037037 29:0.037037037 30:0 31:0 32:0 33:0.037037037 34:0 35:0 36:0.037037037 37:0.037037037 38:0 39:0.037037037 40:0 41:0.037037037 42:0.037037037 43:0 44:0 45:0 46:0 47:0 48:0 49:0 50:0 51:0 52:0 53:0.0021108179 54:0.79788917 55:0 56:0 57:0.52529097 58:0.47470906 59:0.5 #
-0 1:0 2:0.079999998 3:0.039999999 4:0 5:0 6:0.079999998 7:0.079999998 8:0.079999998 9:0.039999999 10:0 11:0 12:0 13:0 14:0 15:0 16:0 17:0 18:0.079999998 19:0 20:0.039999999 21:0.039999999 22:0 23:0 24:0.079999998 25:0.039999999 26:0 27:0 28:0.039999999 29:0 30:0 31:0 32:0.039999999 33:0.039999999 34:0 35:0 36:0.039999999 37:0.039999999 38:0 39:0.039999999 40:0 41:0.039999999 42:0.039999999 43:0 44:0 45:0 46:0 47:0 48:0 49:0 50:0 51:0 52:0 53:0.0021108179 54:0.79788917 55:0 56:0 57:0.52731651 58:0.47268349 59:0.5 #
0 1:0 2:0.083333336 3:0.083333336 4:0 5:0 6:0.083333336 7:0.083333336 8:0.083333336 9:0 10:0 11:0 12:0 13:0 14:0 15:0 16:0 17:0 18:0.083333336 19:0 20:0 21:0.083333336 22:0 23:0.083333336 24:0.083333336 25:0.083333336 26:0 27:0 28:0.083333336 29:0.083333336 30:0 31:0 32:0 33:0 34:0 35:0 36:0 37:0 38:0 39:0 40:0 41:0 42:0 43:0 44:0 45:0 46:0 47:0 48:0 49:0 50:0 51:0 52:0 53:0.015686275 54:0.78431374 55:0 56:0 57:0.49194753 58:0.50805247 59:0.5 #
0 1:0 2:0.074074075 3:0.037037037 4:0 5:0.037037037 6:0.074074075 7:0.074074075 8:0.074074075 9:0.037037037 10:0 11:0 12:0 13:0 14:0 15:0 16:0 17:0 18:0.074074075 19:0 20:0.037037037 21:0.037037037 22:0 23:0.037037037 24:0.074074075 25:0.037037037 26:0 27:0 28:0.037037037 29:0.037037037 30:0 31:0 32:0 33:0.037037037 34:0 35:0 36:0.037037037 37:0.037037037 38:0 39:0.037037037 40:0 41:0.037037037 42:0.037037037 43:0 44:0 45:0 46:0 47:0 48:0 49:0 50:0 51:0 52:0 53:0.0021108179 54:0.79788917 55:0 56:0 57:0.52529097 58:0.47470906 59:0.5 #
0 1:0 2:0.079999998 3:0.039999999 4:0 5:0 6:0.079999998 7:0.079999998 8:0.079999998 9:0.039999999 10:0 11:0 12:0 13:0 14:0 15:0 16:0 17:0 18:0.079999998 19:0 20:0.039999999 21:0.039999999 22:0 23:0 24:0.079999998 25:0.039999999 26:0 27:0 28:0.039999999 29:0 30:0 31:0 32:0.039999999 33:0.039999999 34:0 35:0 36:0.039999999 37:0.039999999 38:0 39:0.039999999 40:0 41:0.039999999 42:0.039999999 43:0 44:0 45:0 46:0 47:0 48:0 49:0 50:0 51:0 52:0 53:0.0021108179 54:0.79788917 55:0 56:0 57:0.52731651 58:0.47268349 59:0.5 #
-4.2253521126760562923695141446245e-05 1:0 2:0 3:0 4:0 5:0 6:0 7:0.043478262 8:0.043478262 9:0.086956523 10:0 11:0.043478262 12:0 13:0 14:0 15:0 16:0.043478262 17:0 18:0.043478262 19:0 20:0 21:0.043478262 22:0 23:0 24:0.043478262 25:0 26:0.043478262 27:0.086956523 28:0.086956523 29:0 30:0 31:0 32:0.043478262 33:0.086956523 34:0.043478262 35:0 36:0 37:0 38:0 39:0 40:0 41:0 42:0.043478262 43:0.043478262 44:0 45:0 46:0 47:0 48:0.043478262 49:0.043478262 50:0.043478262 51:0 52:0.066390045 53:0.0033195021 54:0.66390043 55:0.066390045 56:0 57:0.46352169 58:0.53647828 59:0.5 #
-4.2253521126760562923695141446245e-05 1:0 2:0 3:0 4:0 5:0 6:0 7:0.043478262 8:0.043478262 9:0.086956523 10:0 11:0.043478262 12:0 13:0 14:0 15:0 16:0.043478262 17:0 18:0.043478262 19:0 20:0 21:0.043478262 22:0 23:0 24:0.043478262 25:0 26:0.043478262 27:0.086956523 28:0.086956523 29:0 30:0 31:0 32:0.043478262 33:0.086956523 34:0.043478262 35:0 36:0 37:0 38:0 39:0 40:0 41:0 42:0.043478262 43:0.043478262 44:0 45:0 46:0 47:0 48:0.043478262 49:0.043478262 50:0.043478262 51:0 52:0.066390045 53:0.0033195021 54:0.66390043 55:0.066390045 56:0 57:0.47576082 58:0.52423918 59:0.5 #
-4.2253521126760562923695141446245e-05 1:0 2:0 3:0 4:0 5:0 6:0 7:0 8:0 9:0 10:0 11:0 12:0 13:0 14:0 15:0 16:0 17:0 18:0 19:0 20:0 21:0 22:0 23:0 24:0 25:0 26:0 27:0 28:0.14285715 29:0 30:0 31:0 32:0.14285715 33:0.14285715 34:0.14285715 35:0 36:0 37:0 38:0 39:0 40:0.14285715 41:0 42:0 43:0 44:0 45:0 46:0 47:0 48:0.14285715 49:0.14285715 50:0 51:0 52:0 53:0.042105265 54:0.50526315 55:0.25263157 56:0 57:0.49422622 58:0.50577378 59:0.5 #
6.3380281690140851161806290203771e-05 1:0 2:0 3:0 4:0 5:0 6:0 7:0.0625 8:0.0625 9:0.0625 10:0 11:0 12:0 13:0 14:0 15:0 16:0.0625 17:0 18:0.0625 19:0 20:0 21:0.0625 22:0 23:0 24:0 25:0 26:0 27:0.0625 28:0.0625 29:0 30:0 31:0 32:0 33:0.0625 34:0 35:0 36:0 37:0.0625 38:0.0625 39:0 40:0 41:0 42:0.125 43:0.0625 44:0 45:0 46:0 47:0 48:0 49:0.0625 50:0.0625 51:0 52:0.046905536 53:0.0026058631 54:0.42214984 55:0.046905536 56:0.28143322 57:0.40810803 58:0.591892 59:0.5 #
-4.2253521126760562923695141446245e-05 1:0 2:0 3:0 4:0 5:0 6:0 7:0 8:0 9:0 10:0 11:0 12:0 13:0 14:0 15:0 16:0 17:0 18:0 19:0 20:0 21:0 22:0 23:0 24:0 25:0 26:0 27:0 28:0.22222222 29:0 30:0 31:0.11111111 32:0.11111111 33:0.11111111 34:0.11111111 35:0 36:0.11111111 37:0 38:0 39:0 40:0.11111111 41:0 42:0 43:0 44:0 45:0 46:0 47:0 48:0 49:0.11111111 50:0 51:0 52:0 53:0.036363635 54:0.5090909 55:0.25454545 56:0 57:0.49674198 58:0.50325799 59:0.5 #
6.3380281690140851161806290203771e-05 1:0 2:0 3:0 4:0 5:0 6:0 7:0 8:0 9:0 10:0 11:0 12:0 13:0 14:0 15:0 16:0 17:0 18:0 19:0 20:0 21:0 22:0 23:0.2 24:0 25:0 26:0 27:0 28:0.2 29:0.2 30:0 31:0 32:0 33:0 34:0 35:0 36:0 37:0.2 38:0 39:0 40:0 41:0 42:0 43:0 44:0 45:0 46:0 47:0 48:0.2 49:0 50:0 51:0 52:0 53:0.07272727 54:0.72727275 55:0 56:0 57:0.52657241 58:0.47342756 59:0.5 #
6.3380281690140851161806290203771e-05 1:0 2:0 3:0 4:0 5:0 6:0 7:0.055555556 8:0.055555556 9:0.055555556 10:0 11:0.055555556 12:0 13:0 14:0 15:0 16:0 17:0 18:0.055555556 19:0 20:0 21:0.055555556 22:0 23:0.055555556 24:0.055555556 25:0 26:0.055555556 27:0 28:0.16666667 29:0.055555556 30:0.055555556 31:0 32:0.055555556 33:0.055555556 34:0 35:0 36:0 37:0 38:0 39:0 40:0 41:0 42:0.055555556 43:0.055555556 44:0 45:0 46:0 47:0 48:0 49:0 50:0 51:0 52:0 53:0.014285714 54:0.78571427 55:0 56:0 57:0.48443791 58:0.51556212 59:0.5 #
6.3380281690140851161806290203771e-05 1:0 2:0 3:0 4:0 5:0 6:0 7:0.071428575 8:0.071428575 9:0 10:0 11:0 12:0 13:0 14:0 15:0 16:0.071428575 17:0 18:0.071428575 19:0 20:0 21:0.071428575 22:0 23:0.071428575 24:0 25:0 26:0 27:0 28:0.071428575 29:0.071428575 30:0 31:0 32:0 33:0 34:0 35:0 36:0 37:0.071428575 38:0.071428575 39:0 40:0 41:0 42:0.071428575 43:0.071428575 44:0 45:0 46:0 47:0 48:0 49:0.071428575 50:0.071428575 51:0 52:0.079389311 53:0.0061068702 54:0.63511449 55:0.079389311 56:0 57:0.4841879 58:0.5158121 59:0.5 #
-4.2253521126760562923695141446245e-05 1:0 2:0 3:0 4:0 5:0 6:0 7:0.052631579 8:0.052631579 9:0.052631579 10:0 11:0 12:0 13:0.052631579 14:0 15:0 16:0.052631579 17:0 18:0.052631579 19:0 20:0 21:0.052631579 22:0 23:0 24:0.052631579 25:0 26:0 27:0.10526316 28:0.052631579 29:0 30:0 31:0 32:0 33:0.052631579 34:0 35:0 36:0 37:0.052631579 38:0.052631579 39:0 40:0 41:0 42:0.052631579 43:0.052631579 44:0 45:0 46:0 47:0 48:0.052631579 49:0.052631579 50:0.052631579 51:0 52:0.039895013 53:0.0020997375 54:0.43884516 55:0.039895013 56:0.27926511 57:0.47479784 58:0.52520216 59:0.5 #
-4.2253521126760562923695141446245e-05 1:0 2:0.041666668 3:0.041666668 4:0 5:0 6:0 7:0.083333336 8:0.041666668 9:0.041666668 10:0 11:0.041666668 12:0 13:0 14:0 15:0 16:0.041666668 17:0.041666668 18:0.041666668 19:0 20:0 21:0.041666668 22:0 23:0.041666668 24:0.041666668 25:0 26:0.041666668 27:0 28:0.083333336 29:0.041666668 30:0 31:0 32:0.041666668 33:0.041666668 34:0.041666668 35:0 36:0 37:0 38:0 39:0 40:0 41:0 42:0.041666668 43:0.041666668 44:0 45:0 46:0 47:0 48:0 49:0.041666668 50:0.041666668 51:0 52:0 53:0.007079646 54:0.69380534 55:0.099115044 56:0 57:0.47407758 58:0.52592242 59:0.5 #
6.3380281690140851161806290203771e-05 1:0 2:0.043478262 3:0.043478262 4:0 5:0 6:0.043478262 7:0.043478262 8:0.043478262 9:0.043478262 10:0 11:0.043478262 12:0 13:0 14:0 15:0 16:0.043478262 17:0 18:0.043478262 19:0 20:0 21:0.043478262 22:0 23:0 24:0.043478262 25:0 26:0.043478262 27:0.043478262 28:0.086956523 29:0 30:0 31:0 32:0.043478262 33:0.043478262 34:0.043478262 35:0 36:0 37:0 38:0 39:0 40:0 41:0 42:0.086956523 43:0.043478262 44:0 45:0 46:0 47:0 48:0 49:0.043478262 50:0.043478262 51:0 52:0.072361812 53:0.0040201005 54:0.65125626 55:0.072361812 56:0 57:0.47103891 58:0.52896106 59:0.5 #
-4.2253521126760562923695141446245e-05 1:0 2:0 3:0 4:0 5:0 6:0 7:0 8:0 9:0 10:0 11:0 12:0 13:0 14:0 15:0 16:0 17:0 18:0 19:0 20:0 21:0 22:0 23:0 24:0 25:0 26:0 27:0 28:0.22222222 29:0 30:0 31:0.11111111 32:0.11111111 33:0.11111111 34:0.11111111 35:0 36:0.11111111 37:0 38:0 39:0 40:0.11111111 41:0 42:0 43:0 44:0 45:0 46:0 47:0 48:0 49:0.11111111 50:0 51:0 52:0 53:0.036363635 54:0.5090909 55:0.25454545 56:0 57:0.49937388 58:0.50062615 59:0.5 #
-4.2253521126760562923695141446245e-05 1:0 2:0 3:0 4:0 5:0 6:0 7:0.0625 8:0.0625 9:0 10:0 11:0 12:0 13:0 14:0 15:0 16:0.0625 17:0 18:0.0625 19:0 20:0 21:0.0625 22:0 23:0 24:0 25:0 26:0 27:0.0625 28:0.125 29:0 30:0 31:0 32:0.0625 33:0.0625 34:0.0625 35:0 36:0 37:0 38:0 39:0 40:0 41:0 42:0.0625 43:0.0625 44:0 45:0 46:0 47:0 48:0.0625 49:0.0625 50:0.0625 51:0 52:0.079432622 53:0.0056737587 54:0.63546097 55:0.079432622 56:0 57:0.48742941 58:0.51257062 59:0.5 #
-4.2253521126760562923695141446245e-05 1:0 2:0 3:0 4:0 5:0 6:0 7:0.047619049 8:0.047619049 9:0.047619049 10:0 11:0.047619049 12:0 13:0.047619049 14:0 15:0 16:0.047619049 17:0 18:0.047619049 19:0 20:0 21:0.047619049 22:0 23:0.047619049 24:0.047619049 25:0 26:0.047619049 27:0.047619049 28:0.14285715 29:0.047619049 30:0.047619049 31:0 32:0 33:0 34:0 35:0 36:0.047619049 37:0 38:0 39:0 40:0 41:0 42:0.095238097 43:0.047619049 44:0 45:0 46:0 47:0 48:0 49:0 50:0 51:0 52:0.036272041 53:0.0020151134 54:0.3627204 55:0 56:0.39899245 57:0.48996949 58:0.51003051 59:0.5 #
6.3380281690140851161806290203771e-05 1:0 2:0 3:0 4:0 5:0 6:0 7:0.07692308 8:0.07692308 9:0 10:0 11:0 12:0 13:0 14:0 15:0 16:0.07692308 17:0 18:0.07692308 19:0 20:0 21:0.07692308 22:0 23:0 24:0 25:0 26:0 27:0.07692308 28:0.07692308 29:0 30:0 31:0 32:0 33:0 34:0 35:0 36:0 37:0.07692308 38:0.07692308 39:0 40:0 41:0 42:0.07692308 43:0.07692308 44:0 45:0 46:0 47:0 48:0 49:0.07692308 50:0.07692308 51:0 52:0.079338841 53:0.0066115703 54:0.63471073 55:0.079338841 56:0 57:0.47335649 58:0.52664351 59:0.5 #
-4.2253521126760562923695141446245e-05 1:0 2:0 3:0 4:0 5:0 6:0 7:0.043478262 8:0.043478262 9:0.086956523 10:0 11:0.043478262 12:0 13:0 14:0 15:0 16:0.043478262 17:0 18:0.043478262 19:0 20:0 21:0.043478262 22:0 23:0 24:0.043478262 25:0 26:0.043478262 27:0.086956523 28:0.086956523 29:0 30:0 31:0 32:0.043478262 33:0.086956523 34:0.043478262 35:0 36:0 37:0 38:0 39:0 40:0 41:0 42:0.043478262 43:0.043478262 44:0 45:0 46:0 47:0 48:0.043478262 49:0.043478262 50:0.043478262 51:0 52:0.066390045 53:0.0033195021 54:0.66390043 55:0.066390045 56:0 57:0.46352169 58:0.53647828 59:0.5 #
-4.2253521126760562923695141446245e-05 1:0 2:0 3:0 4:0 5:0 6:0 7:0.043478262 8:0.043478262 9:0.086956523 10:0 11:0.043478262 12:0 13:0 14:0 15:0 16:0.043478262 17:0 18:0.043478262 19:0 20:0 21:0.043478262 22:0 23:0 24:0.043478262 25:0 26:0.043478262 27:0.086956523 28:0.086956523 29:0 30:0 31:0 32:0.043478262 33:0.086956523 34:0.043478262 35:0 36:0 37:0 38:0 39:0 40:0 41:0 42:0.043478262 43:0.043478262 44:0 45:0 46:0 47:0 48:0.043478262 49:0.043478262 50:0.043478262 51:0 52:0.066390045 53:0.0033195021 54:0.66390043 55:0.066390045 56:0 57:0.47576082 58:0.52423918 59:0.5 #
-4.2253521126760562923695141446245e-05 1:0 2:0 3:0 4:0 5:0 6:0 7:0 8:0 9:0 10:0 11:0 12:0 13:0 14:0 15:0 16:0 17:0 18:0 19:0 20:0 21:0 22:0 23:0 24:0 25:0 26:0 27:0 28:0.14285715 29:0 30:0 31:0 32:0.14285715 33:0.14285715 34:0.14285715 35:0 36:0 37:0 38:0 39:0 40:0.14285715 41:0 42:0 43:0 44:0 45:0 46:0 47:0 48:0.14285715 49:0.14285715 50:0 51:0 52:0 53:0.042105265 54:0.50526315 55:0.25263157 56:0 57:0.49422622 58:0.50577378 59:0.5 #
6.3380281690140851161806290203771e-05 1:0 2:0 3:0 4:0 5:0 6:0 7:0.0625 8:0.0625 9:0.0625 10:0 11:0 12:0 13:0 14:0 15:0 16:0.0625 17:0 18:0.0625 19:0 20:0 21:0.0625 22:0 23:0 24:0 25:0 26:0 27:0.0625 28:0.0625 29:0 30:0 31:0 32:0 33:0.0625 34:0 35:0 36:0 37:0.0625 38:0.0625 39:0 40:0 41:0 42:0.125 43:0.0625 44:0 45:0 46:0 47:0 48:0 49:0.0625 50:0.0625 51:0 52:0.046905536 53:0.0026058631 54:0.42214984 55:0.046905536 56:0.28143322 57:0.40810803 58:0.591892 59:0.5 #
-4.2253521126760562923695141446245e-05 1:0 2:0 3:0 4:0 5:0 6:0 7:0 8:0 9:0 10:0 11:0 12:0 13:0 14:0 15:0 16:0 17:0 18:0 19:0 20:0 21:0 22:0 23:0 24:0 25:0 26:0 27:0 28:0.22222222 29:0 30:0 31:0.11111111 32:0.11111111 33:0.11111111 34:0.11111111 35:0 36:0.11111111 37:0 38:0 39:0 40:0.11111111 41:0 42:0 43:0 44:0 45:0 46:0 47:0 48:0 49:0.11111111 50:0 51:0 52:0 53:0.036363635 54:0.5090909 55:0.25454545 56:0 57:0.49674198 58:0.50325799 59:0.5 #
6.3380281690140851161806290203771e-05 1:0 2:0 3:0 4:0 5:0 6:0 7:0 8:0 9:0 10:0 11:0 12:0 13:0 14:0 15:0 16:0 17:0 18:0 19:0 20:0 21:0 22:0 23:0.2 24:0 25:0 26:0 27:0 28:0.2 29:0.2 30:0 31:0 32:0 33:0 34:0 35:0 36:0 37:0.2 38:0 39:0 40:0 41:0 42:0 43:0 44:0 45:0 46:0 47:0 48:0.2 49:0 50:0 51:0 52:0 53:0.07272727 54:0.72727275 55:0 56:0 57:0.52657241 58:0.47342756 59:0.5 #
6.3380281690140851161806290203771e-05 1:0 2:0 3:0 4:0 5:0 6:0 7:0.055555556 8:0.055555556 9:0.055555556 10:0 11:0.055555556 12:0 13:0 14:0 15:0 16:0 17:0 18:0.055555556 19:0 20:0 21:0.055555556 22:0 23:0.055555556 24:0.055555556 25:0 26:0.055555556 27:0 28:0.16666667 29:0.055555556 30:0.055555556 31:0 32:0.055555556 33:0.055555556 34:0 35:0 36:0 37:0 38:0 39:0 40:0 41:0 42:0.055555556 43:0.055555556 44:0 45:0 46:0 47:0 48:0 49:0 50:0 51:0 52:0 53:0.014285714 54:0.78571427 55:0 56:0 57:0.48443791 58:0.51556212 59:0.5 #
6.3380281690140851161806290203771e-05 1:0 2:0 3:0 4:0 5:0 6:0 7:0.071428575 8:0.071428575 9:0 10:0 11:0 12:0 13:0 14:0 15:0 16:0.071428575 17:0 18:0.071428575 19:0 20:0 21:0.071428575 22:0 23:0.071428575 24:0 25:0 26:0 27:0 28:0.071428575 29:0.071428575 30:0 31:0 32:0 33:0 34:0 35:0 36:0 37:0.071428575 38:0.071428575 39:0 40:0 41:0 42:0.071428575 43:0.071428575 44:0 45:0 46:0 47:0 48:0 49:0.071428575 50:0.071428575 51:0 52:0.079389311 53:0.0061068702 54:0.63511449 55:0.079389311 56:0 57:0.4841879 58:0.5158121 59:0.5 #
-4.2253521126760562923695141446245e-05 1:0 2:0 3:0 4:0 5:0 6:0 7:0.052631579 8:0.052631579 9:0.052631579 10:0 11:0 12:0 13:0.052631579 14:0 15:0 16:0.052631579 17:0 18:0.052631579 19:0 20:0 21:0.052631579 22:0 23:0 24:0.052631579 25:0 26:0 27:0.10526316 28:0.052631579 29:0 30:0 31:0 32:0 33:0.052631579 34:0 35:0 36:0 37:0.052631579 38:0.052631579 39:0 40:0 41:0 42:0.052631579 43:0.052631579 44:0 45:0 46:0 47:0 48:0.052631579 49:0.052631579 50:0.052631579 51:0 52:0.039895013 53:0.0020997375 54:0.43884516 55:0.039895013 56:0.27926511 57:0.47479784 58:0.52520216 59:0.5 #
-4.2253521126760562923695141446245e-05 1:0 2:0.041666668 3:0.041666668 4:0 5:0 6:0 7:0.083333336 8:0.041666668 9:0.041666668 10:0 11:0.041666668 12:0 13:0 14:0 15:0 16:0.041666668 17:0.041666668 18:0.041666668 19:0 20:0 21:0.041666668 22:0 23:0.041666668 24:0.041666668 25:0 26:0.041666668 27:0 28:0.083333336 29:0.041666668 30:0 31:0 32:0.041666668 33:0.041666668 34:0.041666668 35:0 36:0 37:0 38:0 39:0 40:0 41:0 42:0.041666668 43:0.041666668 44:0 45:0 46:0 47:0 48:0 49:0.041666668 50:0.041666668 51:0 52:0 53:0.007079646 54:0.69380534 55:0.099115044 56:0 57:0.47407758 58:0.52592242 59:0.5 #
6.3380281690140851161806290203771e-05 1:0 2:0.043478262 3:0.043478262 4:0 5:0 6:0.043478262 7:0.043478262 8:0.043478262 9:0.043478262 10:0 11:0.043478262 12:0 13:0 14:0 15:0 16:0.043478262 17:0 18:0.043478262 19:0 20:0 21:0.043478262 22:0 23:0 24:0.043478262 25:0 26:0.043478262 27:0.043478262 28:0.086956523 29:0 30:0 31:0 32:0.043478262 33:0.043478262 34:0.043478262 35:0 36:0 37:0 38:0 39:0 40:0 41:0 42:0.086956523 43:0.043478262 44:0 45:0 46:0 47:0 48:0 49:0.043478262 50:0.043478262 51:0 52:0.072361812 53:0.0040201005 54:0.65125626 55:0.072361812 56:0 57:0.47103891 58:0.52896106 59:0.5 #
-4.2253521126760562923695141446245e-05 1:0 2:0 3:0 4:0 5:0 6:0 7:0 8:0 9:0 10:0 11:0 12:0 13:0 14:0 15:0 16:0 17:0 18:0 19:0 20:0 21:0 22:0 23:0 24:0 25:0 26:0 27:0 28:0.22222222 29:0 30:0 31:0.11111111 32:0.11111111 33:0.11111111 34:0.11111111 35:0 36:0.11111111 37:0 38:0 39:0 40:0.11111111 41:0 42:0 43:0 44:0 45:0 46:0 47:0 48:0 49:0.11111111 50:0 51:0 52:0 53:0.036363635 54:0.5090909 55:0.25454545 56:0 57:0.49937388 58:0.50062615 59:0.5 #
-4.2253521126760562923695141446245e-05 1:0 2:0 3:0 4:0 5:0 6:0 7:0.0625 8:0.0625 9:0 10:0 11:0 12:0 13:0 14:0 15:0 16:0.0625 17:0 18:0.0625 19:0 20:0 21:0.0625 22:0 23:0 24:0 25:0 26:0 27:0.0625 28:0.125 29:0 30:0 31:0 32:0.0625 33:0.0625 34:0.0625 35:0 36:0 37:0 38:0 39:0 40:0 41:0 42:0.0625 43:0.0625 44:0 45:0 46:0 47:0 48:0.0625 49:0.0625 50:0.0625 51:0 52:0.079432622 53:0.0056737587 54:0.63546097 55:0.079432622 56:0 57:0.48742941 58:0.51257062 59:0.5 #
-4.2253521126760562923695141446245e-05 1:0 2:0 3:0 4:0 5:0 6:0 7:0.047619049 8:0.047619049 9:0.047619049 10:0 11:0.047619049 12:0 13:0.047619049 14:0 15:0 16:0.047619049 17:0 18:0.047619049 19:0 20:0 21:0.047619049 22:0 23:0.047619049 24:0.047619049 25:0 26:0.047619049 27:0.047619049 28:0.14285715 29:0.047619049 30:0.047619049 31:0 32:0 33:0 34:0 35:0 36:0.047619049 37:0 38:0 39:0 40:0 41:0 42:0.095238097 43:0.047619049 44:0 45:0 46:0 47:0 48:0 49:0 50:0 51:0 52:0.036272041 53:0.0020151134 54:0.3627204 55:0 56:0.39899245 57:0.48996949 58:0.51003051 59:0.5 #
6.3380281690140851161806290203771e-05 1:0 2:0 3:0 4:0 5:0 6:0 7:0.07692308 8:0.07692308 9:0 10:0 11:0 12:0 13:0 14:0 15:0 16:0.07692308 17:0 18:0.07692308 19:0 20:0 21:0.07692308 22:0 23:0 24:0 25:0 26:0 27:0.07692308 28:0.07692308 29:0 30:0 31:0 32:0 33:0 34:0 35:0 36:0 37:0.07692308 38:0.07692308 39:0 40:0 41:0 42:0.07692308 43:0.07692308 44:0 45:0 46:0 47:0 48:0 49:0.07692308 50:0.07692308 51:0 52:0.079338841 53:0.0066115703 54:0.63471073 55:0.079338841 56:0 57:0.47335649 58:0.52664351 59:0.5 #
7.0422535211267607696268393258077e-06 1:0 2:0 3:0 4:0 5:0 6:0 7:0 8:0 9:0 10:0 11:0 12:0 13:0 14:0 15:0 16:0.16666667 17:0 18:0 19:0 20:0 21:0 22:0 23:0.16666667 24:0 25:0 26:0 27:0 28:0 29:0 30:0 31:0 32:0 33:0 34:0 35:0 36:0 37:0.16666667 38:0 39:0 40:0 41:0 42:0 43:0 44:0 45:0.16666667 46:0.16666667 47:0 48:0.16666667 49:0 50:0 51:0 52:0 53:0.036363635 54:0.76363635 55:0 56:0 57:0.39498389 58:0.60501611 59:0.5 #
-1.4084507042253521539253678651615e-05 1:0 2:0 3:0 4:0 5:0 6:0 7:0 8:0 9:0 10:0 11:0 12:0 13:0 14:0 15:0 16:0.16666667 17:0 18:0 19:0 20:0 21:0 22:0 23:0.16666667 24:0 25:0 26:0 27:0 28:0 29:0 30:0 31:0 32:0 33:0 34:0 35:0 36:0 37:0.16666667 38:0 39:0 40:0 41:0 42:0 43:0 44:0 45:0.16666667 46:0.16666667 47:0 48:0.16666667 49:0 50:0 51:0 52:0 53:0.036363635 54:0.76363635 55:0 56:0 57:0.32576978 58:0.67423022 59:0.5 #
7.0422535211267607696268393258077e-06 1:0 2:0 3:0 4:0 5:0 6:0 7:0 8:0 9:0 10:0 11:0 12:0 13:0 14:0 15:0 16:0 17:0 18:0.16666667 19:0.16666667 20:0 21:0 22:0 23:0.16666667 24:0 25:0 26:0 27:0 28:0 29:0 30:0 31:0 32:0 33:0 34:0 35:0 36:0 37:0.16666667 38:0 39:0 40:0 41:0 42:0 43:0 44:0 45:0.16666667 46:0 47:0.16666667 48:0 49:0 50:0 51:0 52:0 53:0.050000001 54:0.75 55:0 56:0 57:0.25091326 58:0.74908674 59:0.5 #
7.0422535211267607696268393258077e-06 1:0 2:0 3:0 4:0 5:0 6:0 7:0 8:0 9:0 10:0 11:0 12:0 13:0 14:0 15:0 16:0.16666667 17:0 18:0 19:0 20:0 21:0 22:0 23:0.16666667 24:0 25:0 26:0 27:0 28:0 29:0 30:0 31:0 32:0 33:0 34:0 35:0 36:0 37:0.16666667 38:0 39:0 40:0 41:0 42:0 43:0 44:0 45:0.16666667 46:0.16666667 47:0 48:0.16666667 49:0 50:0 51:0 52:0 53:0.036363635 54:0.76363635 55:0 56:0 57:0.39498389 58:0.60501611 59:0.5 #
-1.4084507042253521539253678651615e-05 1:0 2:0 3:0 4:0 5:0 6:0 7:0 8:0 9:0 10:0 11:0 12:0 13:0 14:0 15:0 16:0.16666667 17:0 18:0 19:0 20:0 21:0 22:0 23:0.16666667 24:0 25:0 26:0 27:0 28:0 29:0 30:0 31:0 32:0 33:0 34:0 35:0 36:0 37:0.16666667 38:0 39:0 40:0 41:0 42:0 43:0 44:0 45:0.16666667 46:0.16666667 47:0 48:0.16666667 49:0 50:0 51:0 52:0 53:0.036363635 54:0.76363635 55:0 56:0 57:0.32576978 58:0.67423022 59:0.5 #
7.0422535211267607696268393258077e-06 1:0 2:0 3:0 4:0 5:0 6:0 7:0 8:0 9:0 10:0 11:0 12:0 13:0 14:0 15:0 16:0 17:0 18:0.16666667 19:0.16666667 20:0 21:0 22:0 23:0.16666667 24:0 25:0 26:0 27:0 28:0 29:0 30:0 31:0 32:0 33:0 34:0 35:0 36:0 37:0.16666667 38:0 39:0 40:0 41:0 42:0 43:0 44:0 45:0.16666667 46:0 47:0.16666667 48:0 49:0 50:0 51:0 52:0 53:0.050000001 54:0.75 55:0 56:0 57:0.25091326 58:0.74908674 59:0.5 #
7.0422535211267607696268393258077e-06 1:0 2:0.1 3:0 4:0.1 5:0 6:0 7:0 8:0 9:0 10:0 11:0 12:0 13:0 14:0 15:0 16:0.1 17:0.1 18:0 19:0 20:0 21:0 22:0 23:0.1 24:0 25:0 26:0 27:0 28:0.1 29:0.1 30:0 31:0 32:0 33:0 34:0 35:0 36:0 37:0.1 38:0 39:0 40:0 41:0 42:0 43:0 44:0 45:0.1 46:0.1 47:0 48:0 49:0 50:0 51:0 52:0 53:0.036363635 54:0.76363635 55:0 56:0 57:0.47105092 58:0.52894908 59:0.5 #
7.0422535211267607696268393258077e-06 1:0 2:0 3:0 4:0 5:0 6:0 7:0 8:0 9:0 10:0 11:0 12:0 13:0 14:0 15:0.25 16:0 17:0 18:0 19:0 20:0 21:0 22:0 23:0.25 24:0 25:0 26:0 27:0 28:0 29:0 30:0 31:0 32:0 33:0 34:0 35:0 36:0 37:0 38:0 39:0 40:0 41:0 42:0 43:0 44:0 45:0 46:0 47:0 48:0.25 49:0.25 50:0 51:0 52:0 53:0.07272727 54:0.72727275 55:0 56:0 57:0.51749218 58:0.48250785 59:0.5 #
-5.6338028169014086157014714606461e-05 1:0 2:0 3:0 4:0 5:0 6:0 7:0 8:0 9:0.047619049 10:0 11:0.047619049 12:0 13:0 14:0 15:0 16:0 17:0 18:0.047619049 19:0 20:0.047619049 21:0 22:0 23:0.14285715 24:0.047619049 25:0 26:0.047619049 27:0 28:0.19047619 29:0.14285715 30:0 31:0.047619049 32:0 33:0 34:0 35:0 36:0 37:0 38:0 39:0 40:0 41:0 42:0 43:0 44:0 45:0.047619049 46:0 47:0.047619049 48:0.047619049 49:0.047619049 50:0 51:0 52:0 53:0.0030651342 54:0.3065134 55:0.061302681 56:0.42911878 57:0.51963186 58:0.48036811 59:0.5 #
7.0422535211267607696268393258077e-06 1:0 2:0.05882353 3:0 4:0 5:0.05882353 6:0 7:0 8:0 9:0.05882353 10:0 11:0.05882353 12:0 13:0 14:0 15:0 16:0 17:0 18:0.05882353 19:0 20:0.05882353 21:0 22:0 23:0.05882353 24:0.05882353 25:0 26:0.05882353 27:0.05882353 28:0.11764706 29:0 30:0 31:0 32:0 33:0.05882353 34:0 35:0 36:0 37:0 38:0 39:0 40:0 41:0 42:0 43:0 44:0 45:0.05882353 46:0 47:0.05882353 48:0.05882353 49:0.05882353 50:0 51:0 52:0 53:0.007079646 54:0.67964602 55:0.11327434 56:0 57:0.50990999 58:0.49009004 59:0.5 #
7.0422535211267607696268393258077e-06 1:0 2:0 3:0 4:0 5:0 6:0 7:0 8:0 9:0.083333336 10:0 11:0.083333336 12:0 13:0 14:0 15:0 16:0 17:0 18:0.083333336 19:0 20:0.083333336 21:0 22:0 23:0.083333336 24:0.083333336 25:0 26:0.083333336 27:0 28:0.083333336 29:0.083333336 30:0 31:0 32:0 33:0 34:0 35:0 36:0 37:0.083333336 38:0 39:0 40:0 41:0 42:0 43:0 44:0 45:0.083333336 46:0 47:0.083333336 48:0 49:0 50:0 51:0 52:0 53:0.024242423 54:0.77575755 55:0 56:0 57:0.56480485 58:0.43519515 59:0.5 #
7.0422535211267607696268393258077e-06 1:0 2:0 3:0 4:0 5:0 6:0 7:0 8:0 9:0.071428575 10:0 11:0.071428575 12:0 13:0 14:0 15:0.071428575 16:0 17:0 18:0.071428575 19:0 20:0.071428575 21:0 22:0 23:0.14285715 24:0.071428575 25:0 26:0.071428575 27:0 28:0.14285715 29:0.14285715 30:0 31:0 32:0 33:0 34:0 35:0 36:0 37:0 38:0 39:0 40:0 41:0 42:0 43:0 44:0 45:0 46:0 47:0 48:0.071428575 49:0 50:0 51:0 52:0 53:0.017777778 54:0.78222221 55:0 56:0 57:0.54626638 58:0.45373362 59:0.5 #
7.0422535211267607696268393258077e-06 1:0 2:0 3:0 4:0 5:0 6:0 7:0 8:0 9:0 10:0 11:0 12:0 13:0 14:0 15:0 16:0 17:0 18:0 19:0 20:0 21:0 22:0 23:0 24:0 25:0 26:0 27:0 28:0 29:0 30:0 31:0 32:0 33:0.16666667 34:0 35:0 36:0 37:0.16666667 38:0.16666667 39:0 40:0.16666667 41:0 42:0 43:0 44:0 45:0 46:0 47:0 48:0.16666667 49:0.16666667 50:0 51:0 52:0 53:0.061538462 54:0.73846155 55:0 56:0 57:0.51862878 58:0.48137122 59:0.5 #
7.0422535211267607696268393258077e-06 1:0 2:0 3:0 4:0 5:0 6:0 7:0 8:0 9:0.047619049 10:0 11:0.047619049 12:0 13:0 14:0 15:0 16:0 17:0 18:0.095238097 19:0.047619049 20:0.047619049 21:0 22:0 23:0.14285715 24:0.047619049 25:0 26:0.047619049 27:0 28:0.14285715 29:0.095238097 30:0 31:0.047619049 32:0 33:0 34:0 35:0 36:0 37:0 38:0 39:0 40:0 41:0 42:0 43:0 44:0 45:0.047619049 46:0 47:0.047619049 48:0.047619049 49:0.047619049 50:0 51:0 52:0 53:0.0056737587 54:0.68085104 55:0.11347517 56:0 57:0.54798114 58:0.45201886 59:0.5 #
7.0422535211267607696268393258077e-06 1:0 2:0 3:0 4:0 5:0 6:0 7:0 8:0 9:0 10:0 11:0 12:0 13:0 14:0 15:0 16:0 17:0 18:0 19:0 20:0 21:0 22:0 23:0.11111111 24:0 25:0 26:0 27:0 28:0.22222222 29:0.11111111 30:0 31:0.11111111 32:0 33:0 34:0 35:0 36:0 37:0.11111111 38:0.11111111 39:0 40:0 41:0 42:0 43:0 44:0 45:0 46:0 47:0 48:0.11111111 49:0.11111111 50:0 51:0 52:0 53:0.036363635 54:0.5090909 55:0.25454545 56:0 57:0.70518208 58:0.29481792 59:0.5 #
7.0422535211267607696268393258077e-06 1:0 2:0.1 3:0 4:0.1 5:0 6:0 7:0 8:0 9:0 10:0 11:0 12:0 13:0 14:0 15:0 16:0.1 17:0.1 18:0 19:0 20:0 21:0 22:0 23:0.1 24:0 25:0 26:0 27:0 28:0.1 29:0.1 30:0 31:0 32:0 33:0 34:0 35:0 36:0 37:0.1 38:0 39:0 40:0 41:0 42:0 43:0 44:0 45:0.1 46:0.1 47:0 48:0 49:0 50:0 51:0 52:0 53:0.036363635 54:0.76363635 55:0 56:0 57:0.47105092 58:0.52894908 59:0.5 #
7.0422535211267607696268393258077e-06 1:0 2:0 3:0 4:0 5:0 6:0 7:0 8:0 9:0 10:0 11:0 12:0 13:0 14:0 15:0.25 16:0 17:0 18:0 19:0 20:0 21:0 22:0 23:0.25 24:0 25:0 26:0 27:0 28:0 29:0 30:0 31:0 32:0 33:0 34:0 35:0 36:0 37:0 38:0 39:0 40:0 41:0 42:0 43:0 44:0 45:0 46:0 47:0 48:0.25 49:0.25 50:0 51:0 52:0 53:0.07272727 54:0.72727275 55:0 56:0 57:0.51749218 58:0.48250785 59:0.5 #
-5.6338028169014086157014714606461e-05 1:0 2:0 3:0 4:0 5:0 6:0 7:0 8:0 9:0.047619049 10:0 11:0.047619049 12:0 13:0 14:0 15:0 16:0 17:0 18:0.047619049 19:0 20:0.047619049 21:0 22:0 23:0.14285715 24:0.047619049 25:0 26:0.047619049 27:0 28:0.19047619 29:0.14285715 30:0 31:0.047619049 32:0 33:0 34:0 35:0 36:0 37:0 38:0 39:0 40:0 41:0 42:0 43:0 44:0 45:0.047619049 46:0 47:0.047619049 48:0.047619049 49:0.047619049 50:0 51:0 52:0 53:0.0030651342 54:0.3065134 55:0.061302681 56:0.42911878 57:0.51963186 58:0.48036811 59:0.5 #
7.0422535211267607696268393258077e-06 1:0 2:0.05882353 3:0 4:0 5:0.05882353 6:0 7:0 8:0 9:0.05882353 10:0 11:0.05882353 12:0 13:0 14:0 15:0 16:0 17:0 18:0.05882353 19:0 20:0.05882353 21:0 22:0 23:0.05882353 24:0.05882353 25:0 26:0.05882353 27:0.05882353 28:0.11764706 29:0 30:0 31:0 32:0 33:0.05882353 34:0 35:0 36:0 37:0 38:0 39:0 40:0 41:0 42:0 43:0 44:0 45:0.05882353 46:0 47:0.05882353 48:0.05882353 49:0.05882353 50:0 51:0 52:0 53:0.007079646 54:0.67964602 55:0.11327434 56:0 57:0.50990999 58:0.49009004 59:0.5 #
7.0422535211267607696268393258077e-06 1:0 2:0 3:0 4:0 5:0 6:0 7:0 8:0 9:0.083333336 10:0 11:0.083333336 12:0 13:0 14:0 15:0 16:0 17:0 18:0.083333336 19:0 20:0.083333336 21:0 22:0 23:0.083333336 24:0.083333336 25:0 26:0.083333336 27:0 28:0.083333336 29:0.083333336 30:0 31:0 32:0 33:0 34:0 35:0 36:0 37:0.083333336 38:0 39:0 40:0 41:0 42:0 43:0 44:0 45:0.083333336 46:0 47:0.083333336 48:0 49:0 50:0 51:0 52:0 53:0.024242423 54:0.77575755 55:0 56:0 57:0.56480485 58:0.43519515 59:0.5 #
7.0422535211267607696268393258077e-06 1:0 2:0 3:0 4:0 5:0 6:0 7:0 8:0 9:0.071428575 10:0 11:0.071428575 12:0 13:0 14:0 15:0.071428575 16:0 17:0 18:0.071428575 19:0 20:0.071428575 21:0 22:0 23:0.14285715 24:0.071428575 25:0 26:0.071428575 27:0 28:0.14285715 29:0.14285715 30:0 31:0 32:0 33:0 34:0 35:0 36:0 37:0 38:0 39:0 40:0 41:0 42:0 43:0 44:0 45:0 46:0 47:0 48:0.071428575 49:0 50:0 51:0 52:0 53:0.017777778 54:0.78222221 55:0 56:0 57:0.54626638 58:0.45373362 59:0.5 #
7.0422535211267607696268393258077e-06 1:0 2:0 3:0 4:0 5:0 6:0 7:0 8:0 9:0 10:0 11:0 12:0 13:0 14:0 15:0 16:0 17:0 18:0 19:0 20:0 21:0 22:0 23:0 24:0 25:0 26:0 27:0 28:0 29:0 30:0 31:0 32:0 33:0.16666667 34:0 35:0 36:0 37:0.16666667 38:0.16666667 39:0 40:0.16666667 41:0 42:0 43:0 44:0 45:0 46:0 47:0 48:0.16666667 49:0.16666667 50:0 51:0 52:0 53:0.061538462 54:0.73846155 55:0 56:0 57:0.51862878 58:0.48137122 59:0.5 #
7.0422535211267607696268393258077e-06 1:0 2:0 3:0 4:0 5:0 6:0 7:0 8:0 9:0.047619049 10:0 11:0.047619049 12:0 13:0 14:0 15:0 16:0 17:0 18:0.095238097 19:0.047619049 20:0.047619049 21:0 22:0 23:0.14285715 24:0.047619049 25:0 26:0.047619049 27:0 28:0.14285715 29:0.095238097 30:0 31:0.047619049 32:0 33:0 34:0 35:0 36:0 37:0 38:0 39:0 40:0 41:0 42:0 43:0 44:0 45:0.047619049 46:0 47:0.047619049 48:0.047619049 49:0.047619049 50:0 51:0 52:0 53:0.0056737587 54:0.68085104 55:0.11347517 56:0 57:0.54798114 58:0.45201886 59:0.5 #
7.0422535211267607696268393258077e-06 1:0 2:0 3:0 4:0 5:0 6:0 7:0 8:0 9:0 10:0 11:0 12:0 13:0 14:0 15:0 16:0 17:0 18:0 19:0 20:0 21:0 22:0 23:0.11111111 24:0 25:0 26:0 27:0 28:0.22222222 29:0.11111111 30:0 31:0.11111111 32:0 33:0 34:0 35:0 36:0 37:0.11111111 38:0.11111111 39:0 40:0 41:0 42:0 43:0 44:0 45:0 46:0 47:0 48:0.11111111 49:0.11111111 50:0 51:0 52:0 53:0.036363635 54:0.5090909 55:0.25454545 56:0 57:0.70518208 58:0.29481792 59:0.5 #
-2.8169014084507043078507357303231e-05 1:0 2:0 3:0 4:0 5:0 6:0 7:0 8:0 9:0 10:0 11:0 12:0 13:0 14:0 15:0 16:0 17:0 18:0.25 19:0.25 20:0 21:0 22:0 23:0.25 24:0 25:0 26:0 27:0 28:0.25 29:0 30:0 31:0 32:0 33:0 34:0 35:0 36:0 37:0 38:0 39:0 40:0 41:0 42:0 43:0 44:0 45:0 46:0 47:0 48:0 49:0 50:0 51:0 52:0 53:0.061538462 54:0.73846155 55:0 56:0 57:0.50815982 58:0.49184021 59:0.5 #
2.1126760563380281461847570723123e-05 1:0 2:0 3:0 4:0 5:0 6:0 7:0 8:0 9:0 10:0 11:0 12:0 13:0 14:0 15:0.125 16:0 17:0 18:0.125 19:0.125 20:0 21:0 22:0 23:0.125 24:0 25:0 26:0 27:0 28:0 29:0 30:0 31:0 32:0 33:0.125 34:0 35:0 36:0 37:0 38:0 39:0 40:0 41:0 42:0 43:0 44:0 45:0.125 46:0 47:0.125 48:0.125 49:0 50:0 51:0 52:0 53:0.036363635 54:0.76363635 55:0 56:0 57:0.48670483 58:0.51329517 59:0.5 #
2.1126760563380281461847570723123e-05 1:0 2:0 3:0 4:0 5:0 6:0 7:0 8:0 9:0 10:0 11:0 12:0 13:0 14:0 15:0 16:0 17:0 18:0.2 19:0 20:0 21:0 22:0 23:0.2 24:0 25:0 26:0 27:0 28:0 29:0 30:0 31:0 32:0 33:0 34:0 35:0 36:0.2 37:0 38:0 39:0.2 40:0 41:0 42:0 43:0 44:0 45:0 46:0 47:0 48:0.2 49:0 50:0 51:0 52:0 53:0.032000002 54:0.76800001 55:0 56:0 57:0.49956796 58:0.50043207 59:0.5 #
2.1126760563380281461847570723123e-05 1:0 2:0 3:0 4:0 5:0 6:0 7:0 8:0 9:0 10:0 11:0 12:0 13:0 14:0 15:0 16:0 17:0 18:0 19:0 20:0 21:0 22:0 23:0 24:0 25:0 26:0 27:0 28:0 29:0 30:0 31:0 32:0 33:0.16666667 34:0 35:0 36:0 37:0.16666667 38:0 39:0.16666667 40:0.16666667 41:0 42:0 43:0 44:0 45:0 46:0 47:0 48:0.33333334 49:0 50:0 51:0 52:0 53:0.01632653 54:0.39183673 55:0 56:0.39183673 57:0.41380981 58:0.58619022 59:0.5 #
2.1126760563380281461847570723123e-05 1:0 2:0 3:0 4:0 5:0 6:0 7:0 8:0 9:0 10:0 11:0 12:0 13:0 14:0 15:0 16:0 17:0 18:0 19:0 20:0 21:0 22:0 23:0 24:0 25:0 26:0 27:0 28:0 29:0 30:0 31:0 32:0 33:0.25 34:0 35:0 36:0 37:0.25 38:0 39:0 40:0.25 41:0 42:0 43:0 44:0 45:0 46:0 47:0 48:0.25 49:0 50:0 51:0 52:0 53:0.07272727 54:0.72727275 55:0 56:0 57:0.47828436 58:0.52171564 59:0.5 #
-2.8169014084507043078507357303231e-05 1:0 2:0 3:0 4:0 5:0 6:0 7:0 8:0 9:0 10:0 11:0 12:0 13:0 14:0 15:0 16:0 17:0 18:0 19:0 20:0 21:0 22:0 23:0.33333334 24:0 25:0 26:0 27:0 28:0 29:0 30:0 31:0 32:0 33:0 34:0 35:0 36:0 37:0.33333334 38:0 39:0 40:0 41:0 42:0 43:0 44:0 45:0 46:0 47:0 48:0.33333334 49:0 50:0 51:0 52:0 53:0.16 54:0.63999999 55:0 56:0 57:0.50751853 58:0.4924815 59:0.5 #
-2.8169014084507043078507357303231e-05 1:0 2:0 3:0 4:0 5:0 6:0 7:0 8:0 9:0 10:0 11:0 12:0 13:0 14:0 15:0 16:0 17:0 18:0.25 19:0.25 20:0 21:0 22:0 23:0.25 24:0 25:0 26:0 27:0 28:0 29:0 30:0 31:0 32:0 33:0 34:0 35:0 36:0.25 37:0 38:0 39:0 40:0 41:0 42:0 43:0 44:0 45:0 46:0 47:0 48:0 49:0 50:0 51:0 52:0 53:0.07272727 54:0.72727275 55:0 56:0 57:0.49932054 58:0.50067949 59:0.5 #
